[ -4.82616342e-02   1.10396585e-01   2.08514909e-01  -1.37383255e-01  -2.39586762e-01   4.03936452e-02  -1.44835180e-01   1.55940532e-01   1.56678570e-02   3.77255042e-02   1.85526482e-01   2.72315371e-02  -1.54656471e-01   2.76493339e-02  -2.07441929e-01   4.69629261e-02   1.17630620e-01  -8.64885485e-03   7.43191743e-02  -6.10653135e-02   5.99696672e-02  -2.41034107e-01   2.12697376e-01  -1.00815775e-02   1.24214475e-01   1.31830510e-01  -9.52173700e-02   2.35651131e-01  -6.10296995e-02  -1.42902936e-01   1.45200080e-01   2.11352416e-01   5.51889275e-02   1.57488982e-01  -1.03002269e-01  -2.35788930e-01   2.07167964e-01   1.93640897e-02   2.29322204e-01   1.52474350e-01  -2.32050447e-01  -1.85156141e-01  -2.15724503e-01  -4.79867613e-02  -1.78865481e-02  -2.01159757e-01   1.69073701e-01   7.72850063e-02  -1.29761781e-03   1.56909418e-01  -1.59258718e-02   6.71633472e-02   6.78453513e-02  -1.74328521e-02   1.40908177e-01  -1.17187633e-01  -1.73963799e-01   1.70492037e-01  -2.17458306e-01  -7.58227334e-02   1.51812226e-01   7.16476597e-02  -1.06752026e-01  -1.96860621e-01  -2.08230731e-01   8.58038482e-02   2.41546562e-01   1.98706290e-02  -1.81620882e-01  -1.57592734e-01   2.37071614e-01  -1.46022113e-01   1.49332693e-01   1.55895019e-01   2.38900467e-01   7.19303772e-02   1.82909009e-01  -1.10887091e-02  -2.26585744e-01   1.75835345e-01  -1.21336814e-01  -7.69103083e-02  -2.35958288e-01   2.37329080e-03   8.12613920e-02  -7.65308155e-02  -9.82328207e-02  -1.81819363e-01  -7.86967742e-02  -1.48172813e-01   2.11407045e-01  -1.88668618e-01  -2.08293234e-01  -2.13866429e-01   1.76536627e-01   2.33956857e-01  -8.12564630e-02   1.25826564e-01   1.45249227e-01   1.42656744e-01   9.97241311e-02  -8.69341048e-02  -9.55434210e-02  -1.85210234e-01   1.88831278e-01   4.92204295e-02   1.93286721e-01  -2.08981939e-01   1.40651357e-01  -2.19146734e-01  -2.52202347e-02  -1.30300697e-01   6.75494517e-03  -6.28837006e-02   1.10517254e-01  -1.75347778e-01  -2.10353247e-01   4.23786284e-02  -1.39494755e-01  -2.25517365e-01  -9.14881607e-02   1.80970306e-01  -2.01151677e-01   4.48095116e-02  -6.33607745e-02  -1.66076203e-01  -3.10617961e-02   3.51127469e-02  -1.14001312e-01   8.82584699e-02  -7.62002331e-02  -9.65899555e-02  -6.50032538e-02  -2.60939603e-02  -1.16572837e-01   1.79798857e-01  -1.45047800e-01  -1.82406126e-01  -2.42412602e-01   2.93220149e-02   2.02124865e-01   1.58181403e-01  -1.82144009e-01   2.09329574e-01   5.57035492e-02   1.77701613e-01   1.28552275e-01   1.73856281e-01  -1.13941741e-01   2.07228883e-01  -1.39125380e-01   2.26448132e-01   1.49090157e-01  -1.27262950e-01   2.05564486e-01  -2.33961809e-01  -2.42650068e-01  -1.49655899e-01  -2.23724851e-01  -1.29920144e-01  -2.39611436e-01  -6.81462861e-02   7.21370173e-02  -1.56125886e-01   1.63793282e-01  -1.16309054e-01   2.20563021e-01   9.92619064e-02   7.43031654e-02  -1.65758521e-01  -1.94090588e-01  -1.56988036e-03  -2.36895090e-01  -1.90784218e-01   1.95850125e-02   1.11798311e-01  -1.56758120e-01  -1.37205724e-01   1.76324737e-01  -1.62937855e-01  -1.31499046e-01  -1.92117813e-01   2.18917372e-01  -1.70678156e-01  -1.79881378e-01  -4.76177516e-02  -2.08278901e-02  -2.42073188e-01   1.07122560e-01  -2.39642484e-01  -2.22971461e-01  -1.19246911e-01  -1.51859353e-01   2.09717640e-01   7.00860433e-02  -1.06337917e-02  -2.18056769e-01   2.35760800e-01   1.86203615e-01  -2.20287887e-01  -2.33944321e-01  -8.17855424e-02  -1.66574733e-02  -7.30750749e-02  -1.27678241e-01  -9.19127551e-03  -1.69045595e-01  -1.20823893e-01   9.34220630e-02   1.04980873e-01  -2.21297553e-01   1.08387004e-01  -2.37820531e-01   6.76286195e-02   1.18568657e-03   1.33485314e-01   7.60979082e-02   7.88853076e-02  -5.74381204e-02  -1.68712940e-01  -1.21767874e-01   1.09944878e-01   1.92202976e-01  -2.39371793e-01   2.35509909e-01   7.20441424e-02  -8.23408708e-02   1.12172003e-02   8.91916416e-02   7.18149956e-02  -4.56750069e-02  -2.40047273e-01  -1.24348478e-01   1.22678364e-02  -8.14976907e-02   2.33874372e-01  -5.34213690e-02  -1.09238456e-01  -1.35780635e-02  -1.97353163e-01   2.99683252e-02   5.35796708e-02   1.57357018e-01   2.86499371e-02  -7.96432495e-04   1.76876010e-01   3.63091421e-02   5.80812655e-02   2.94802241e-02  -2.83320381e-02   1.71217133e-01  -4.65054068e-02  -5.60811632e-02  -1.96735611e-01  -1.36298639e-01  -1.63289771e-01  -5.56103018e-02   2.49711018e-02   9.61045615e-02   1.10027543e-03   1.70657107e-02  -2.38588585e-01   1.65419351e-02  -6.52240678e-02  -1.64615628e-01  -7.58024230e-02   4.03921045e-02  -1.64112336e-01  -2.05217218e-01   1.19973974e-01  -6.66526979e-02   5.00502488e-02  -2.36839306e-02  -1.25600756e-01   2.44606279e-01  -2.09711069e-01  -1.21164164e-01  -2.34996153e-01   1.34835355e-01  -6.94534329e-03   1.83001076e-01   2.90031977e-02   1.25961976e-01  -2.42829042e-01   1.79196125e-01   8.02827178e-02   1.54910102e-01  -1.46741208e-02   1.62606741e-01  -7.22463033e-02   1.26875225e-02   1.91678577e-01  -2.35644895e-02   2.24072278e-01  -1.78122921e-01   9.97877752e-02  -1.74924777e-01   9.85178587e-02   3.79120018e-02  -1.08934870e-01  -1.90172195e-01   1.74051914e-01  -4.80116015e-02   2.27952222e-01  -1.63175470e-01   8.71570396e-02   7.87851986e-02  -1.67857645e-01   1.71364425e-02  -5.43385914e-02   5.10010769e-02   2.14692263e-01  -1.53673678e-02   6.93886909e-02  -2.21003104e-02  -1.70300079e-01   1.92877425e-02  -2.29803359e-01   9.36771945e-02  -1.08092120e-01  -1.94021339e-01   1.97006536e-01  -1.59029461e-01  -1.71144721e-01  -2.22385398e-01   2.28373217e-01  -9.66877471e-02   1.57899895e-01   8.45955703e-02  -1.79705226e-01  -7.05493846e-02  -7.08499024e-02  -2.08890694e-01   5.75488887e-03  -2.14779338e-01  -2.01234749e-01   1.79970741e-01   1.95222514e-01   7.86563262e-02  -3.62089186e-02  -1.79431042e-01   1.80985101e-01  -1.24724829e-01   2.27718607e-01  -5.78246186e-02  -6.92283362e-02  -8.72156538e-02   3.64906171e-02  -5.27673995e-02   8.44631090e-03   2.05560243e-01  -6.75670653e-02  -1.27473180e-02  -2.07454312e-01   1.34283211e-01  -1.80605264e-01   6.25838498e-02  -1.41339076e-01  -2.17517114e-01  -2.21448778e-01  -5.00718197e-02   1.14751777e-01   2.26971647e-01   1.54610308e-01  -7.73762517e-02  -1.66080971e-01   6.36415720e-02   1.75073245e-01   8.21370256e-02  -1.33828104e-01   7.15630830e-02   2.15396475e-01  -1.30331230e-01  -1.64173722e-01   6.94085071e-02  -1.72080099e-02   1.03457431e-01  -8.38607754e-02   2.08544528e-01  -1.59308164e-01   9.13621262e-02   2.93880441e-02  -7.84348136e-02   1.54578050e-01   3.83132549e-02   6.52904846e-02   9.10303058e-02  -1.91999906e-01  -1.06047457e-01  -1.28936059e-01   1.81090791e-01   1.15358061e-01  -3.50144710e-03   2.13465753e-01  -4.47966933e-04   1.26700214e-01   4.92487554e-02   4.91903161e-02  -1.00611523e-01   1.06427181e-01  -1.63449295e-01   1.14462727e-01   1.33146689e-01   3.42573843e-04  -7.52932484e-02  -4.05415808e-02   1.67310067e-01  -1.45189859e-02  -1.25295158e-01   2.39607686e-01   1.39842938e-01  -1.83528898e-01  -1.96947988e-01   1.14573567e-01  -7.75017000e-02  -5.07897967e-02  -3.98248063e-02   4.67651396e-02   2.48395585e-01   7.99065325e-02  -4.87517541e-02   2.65933408e-01   2.41109880e-01   2.77270992e-01   1.99127644e-01  -2.08082486e-02   2.34187768e-01   5.62749035e-02  -1.50198732e-01   2.44355367e-01  -1.03437595e-01   2.31878036e-01   8.87153053e-02   1.26142636e-02   6.68511737e-02  -7.19712876e-02  -1.91373069e-01   1.93674856e-01   1.48352549e-01   1.67644568e-01   2.88216709e-02   1.67188946e-01   5.55627076e-02   1.23361387e-01   7.42759100e-02   2.27767163e-01   2.44010584e-01   2.16521409e-01   1.07891705e-02   4.68507538e-02   2.43240896e-01  -4.16597768e-02   3.67189716e-02   1.79749791e-01  -2.02372481e-01   8.05492250e-02   1.84759485e-01   3.02153533e-02   2.65286045e-01   2.35263558e-01  -7.35866901e-02   6.08629480e-02   2.98344875e-01  -1.48479227e-01   1.51174817e-01   2.23142011e-02   1.22174303e-01   1.71636694e-01   2.29423831e-01  -9.58956243e-02  -1.71070971e-01   2.70227629e-01   1.14654528e-01  -1.01692607e-01   1.79099896e-01   2.54838532e-01   7.74646238e-03  -9.01954711e-02  -1.07627404e-01  -6.92742198e-02  -3.42005679e-03  -9.29831965e-02   2.52856968e-01  -1.54956718e-01   9.40802782e-04  -5.98887346e-02   3.37241755e-02   5.66180351e-02  -6.97703648e-02   2.14951682e-01  -2.72917843e-02   1.25064474e-01  -6.06908824e-02   2.75159505e-01   2.76237531e-01   9.07283031e-02   6.43049069e-03   2.69174667e-02  -4.93485547e-03  -4.97552618e-02   2.39830910e-01  -2.74141364e-02   3.09038954e-03   2.75132094e-02   2.59471731e-01   1.54595157e-01   1.64405755e-02   1.56901925e-01  -2.05967239e-01   1.82270679e-01  -1.10734852e-01   1.12955176e-01  -1.22891709e-02  -2.25499156e-01   2.25090663e-01  -1.69286989e-01   9.05513092e-02  -1.51713072e-01  -1.76050781e-01   1.52457815e-01  -1.06751579e-02  -1.91224526e-01   5.12597166e-02  -1.40747554e-01   1.89465309e-01  -2.08130043e-01   9.98011048e-02  -2.21269033e-01   2.33309188e-01  -8.63997332e-02  -1.64465214e-01  -1.38205950e-01  -1.61006020e-01   1.45696221e-01   3.69410780e-02   1.31189108e-01  -1.85573604e-01  -1.74705295e-01  -2.38348081e-01  -1.50515601e-01   1.53843624e-01  -1.48300075e-01   7.57911265e-02   1.40106602e-02   1.27676827e-01   1.70416138e-01  -1.64336045e-01  -1.42976286e-01   2.08308723e-02  -1.53766762e-02   2.03874196e-01   2.24185796e-01   9.86501948e-02  -2.32990564e-01  -1.80760382e-01   6.72025915e-02   1.18516095e-01  -1.13480844e-01  -1.84045464e-03  -2.03008499e-01   2.19717879e-01   2.38377833e-01   1.52932836e-01   4.70159297e-02   1.28205501e-01  -2.04300863e-01  -1.13969603e-01  -1.29341644e-01   2.27561290e-01   1.41833082e-01  -1.36479467e-01   1.21138745e-01  -2.16781341e-01  -2.26562699e-01  -2.29547809e-01   1.38052984e-01  -1.75166268e-01  -1.81849317e-01  -5.82926919e-02   1.74449108e-01   2.20904682e-01  -1.69203612e-01  -1.95778510e-02  -2.18451148e-01   1.61362901e-01  -7.17565650e-02   1.92455359e-01   1.63877461e-01  -1.25445306e-01   2.15167066e-01  -1.05565736e-02  -8.85572101e-02   1.24295556e-01   1.86254606e-01   1.04194540e-01  -3.59068859e-04   1.46743542e-01  -1.05555276e-01   1.09795163e-01   1.83628285e-01   3.51713640e-03   1.33463432e-01   1.27969669e-01   2.23993462e-01   2.43697165e-02  -1.02730928e-01  -1.13084052e-02   1.09096669e-01   1.93409440e-01  -1.96427029e-01  -9.36327745e-02   1.98355373e-01  -1.26902240e-01  -6.68011427e-02   1.35206130e-01  -1.69190150e-01   1.78279765e-01   2.07515689e-01  -8.55341468e-02  -7.66486408e-02  -8.19899834e-02   1.11035694e-01  -1.23307713e-02  -1.34454211e-01   3.27987396e-02  -1.70937961e-01  -1.35451125e-01   3.91192350e-03  -2.14324667e-01  -1.61671415e-01   1.89543817e-01  -1.32190975e-01  -4.25922747e-02  -1.83343513e-01   1.44994962e-01  -3.92859525e-02  -2.29669026e-03   5.36919817e-02   2.34704984e-01   1.55261058e-01   1.47021532e-01   8.38349900e-02  -2.30268083e-01   2.21258473e-01  -1.85179065e-01   5.48547370e-02  -6.71599723e-02   1.80192282e-01   1.05318756e-01  -4.73929671e-02  -4.62250950e-02   1.48087920e-01   1.33264992e-01   2.42232543e-01   6.73268639e-02  -2.37695941e-02  -1.97245436e-01   1.47782253e-01   1.16588024e-01  -1.46004435e-01  -1.85474562e-01   2.40803405e-02  -2.07131548e-01  -9.81254718e-02   1.77846867e-01  -3.41994789e-02  -7.06165508e-03  -2.40101237e-01   2.42971753e-01   1.18282656e-02   2.12640383e-01  -1.08138765e-01   4.65992755e-02  -1.38259154e-01   1.48182809e-01  -4.62129694e-02  -1.55363181e-01  -1.77788882e-01   9.62914891e-02  -2.13168001e-01   1.37677609e-01   1.30929137e-02  -1.59041509e-01   2.92298717e-02  -1.50396422e-01   1.21437255e-01  -1.31996330e-01  -7.06050432e-02  -1.97580605e-01   1.11487998e-01   2.39678264e-02  -9.57882466e-02   1.82371983e-02   1.53902183e-01   1.47719725e-01   3.24049476e-03   1.40035442e-01   1.11299168e-01  -1.50266876e-02   1.70538265e-02   1.90525055e-01   4.09656769e-02   4.93807214e-02   6.19674860e-02   1.35356127e-01  -1.12714409e-01  -7.16201451e-02   1.99115905e-01  -8.64165158e-02   1.47228660e-01  -2.15134903e-01  -1.92883413e-01   6.58140648e-03   5.53329341e-02   2.26653934e-01  -6.72175320e-02  -2.76070973e-04  -2.23598546e-01  -1.12575218e-01   2.40634413e-01  -6.93194670e-02  -1.16790328e-01   2.39326214e-01   1.68729418e-01  -1.68014488e-01   3.93014707e-02  -6.21911259e-02   7.49932868e-02  -4.75428827e-02  -2.26909420e-01   5.45995579e-02  -1.74504918e-01   5.42119438e-02   1.32842140e-01  -1.43093965e-01  -2.17150094e-01  -4.55926770e-02   9.94467250e-02  -1.29579784e-02  -2.24653801e-01   2.06158093e-01   2.28032689e-01   7.60540502e-02  -1.48290239e-01   3.70389263e-02  -2.03324735e-01   1.18602325e-01  -2.00620315e-02  -7.26681747e-02   1.01890784e-01  -1.25994823e-01   1.57675197e-01  -1.20262226e-02   2.72094573e-02  -1.12666924e-01  -1.55062200e-01   1.90820623e-01   1.63652095e-01  -2.17094288e-01  -3.75424403e-02  -1.49450938e-01  -5.63876099e-02   1.28600931e-01  -2.37771225e-01   1.86112941e-01  -1.21976562e-01  -1.91660737e-01  -1.64286215e-01  -5.98775226e-02   1.64079755e-01   1.90623423e-01  -4.74923757e-02   1.47298230e-01  -2.02964100e-01  -3.39725993e-02  -2.23141006e-01   2.33619756e-01  -2.19867934e-01   1.91498192e-01   5.77641607e-02  -3.04224499e-03   2.14991699e-01  -2.95928381e-02  -5.12616717e-02   2.13027107e-01  -1.65814677e-01   3.71052781e-02   9.21548746e-02  -2.32109836e-01   1.22857161e-01  -1.68098839e-01   7.03293225e-02  -2.17849097e-01   2.19710537e-01  -1.45196328e-01  -1.50878379e-01  -1.03202315e-01   5.28922512e-02   2.05487772e-01  -1.10238392e-01  -1.96045917e-02  -8.56202531e-02   2.35787369e-01  -5.82740659e-02  -1.13481197e-01  -4.59985854e-02   1.16667017e-01  -9.98628532e-02  -1.22135361e-01   8.48102160e-02   1.23015792e-01   1.91840564e-01  -1.45475490e-01   1.10523125e-01  -9.23043592e-02  -1.58940302e-01  -1.65080717e-01  -1.64387144e-01   6.24074498e-02   1.40132520e-01   9.13400950e-02  -4.52173743e-02   8.30302276e-02  -7.42711010e-03  -2.32092603e-01  -2.05478624e-01   2.13917387e-01   2.39372168e-01   6.31829300e-02   1.30847623e-01   2.07165113e-01   2.15446740e-01  -1.27944319e-01  -2.07121307e-01  -1.58311745e-02  -1.96297613e-03  -2.12587304e-01  -9.85732726e-03   2.17480948e-01  -1.81896348e-02  -1.96458505e-01  -1.79158123e-01   1.99540785e-01  -1.96475028e-01  -1.91238158e-01  -2.20056849e-01   1.02186555e-01   1.56748533e-01  -1.71873667e-01  -2.17044830e-01  -7.75417898e-02  -1.50478464e-01  -1.75870040e-01   1.18551628e-01   1.89486254e-01   1.22192678e-01   2.24789726e-01   1.81388209e-01  -2.35788120e-01  -4.86285674e-02  -2.29349181e-01  -8.68949744e-02  -9.41488056e-02  -2.29937063e-01  -4.79207786e-02  -5.69952406e-02   2.05825939e-01   8.33842261e-03  -1.40886796e-01  -8.79771946e-02  -8.28509050e-02  -9.52781260e-02   1.06592431e-02   9.36568628e-02   4.86469829e-02  -1.87428691e-02  -2.02156169e-01  -2.30099916e-01  -2.30463190e-01   7.52640354e-02  -1.60439012e-01  -1.78712405e-01   1.87394359e-01  -2.77003388e-02  -5.90813948e-02   1.52981505e-01  -1.61344583e-01  -1.56317180e-01  -7.82791083e-02   1.42529043e-01  -1.58477559e-01  -2.17585322e-01   4.46550162e-02  -4.04489885e-02  -3.86177857e-02   3.56385756e-02   1.23987275e-01   8.55636703e-02  -2.19102318e-01  -2.28571698e-01   1.05792077e-01   1.36608817e-01   1.56734477e-01  -1.24143082e-03   1.60123463e-01   4.25528696e-02   1.94097855e-01   9.36489339e-02   2.03563581e-01  -2.29527783e-01   1.68739444e-01  -3.37517921e-02   1.33935123e-01   1.41109498e-01  -9.26986410e-02  -1.03833855e-01  -5.81204720e-02  -2.01625368e-01   8.61138711e-02  -1.03973057e-01   1.23877315e-01  -2.32196477e-01   8.66955516e-02   2.98865904e-02  -2.08805878e-01   2.03351335e-01   3.08398740e-02   1.26703822e-01  -2.27210636e-01   4.91431333e-02  -7.49536176e-02  -9.70807261e-03  -2.14625656e-01   6.07549189e-02  -9.11921328e-02   2.03584836e-01  -2.59910009e-02  -4.89321613e-02   3.31385092e-02  -1.79257313e-01   1.52835399e-01   1.56087090e-02   1.07446694e-01  -7.13067522e-02  -2.29923158e-01   1.53263015e-01   1.31273687e-01   3.75121246e-02   2.10437420e-01  -5.27231541e-02  -1.15734329e-01  -2.21644823e-01   7.03776120e-02  -6.78962814e-02  -7.86397533e-02  -6.32772955e-03  -1.61899975e-01   1.67821740e-01  -1.16070931e-01   1.75479213e-02  -9.92084808e-02  -2.01281015e-01  -1.52849345e-03   1.95109960e-01   1.49386959e-01  -7.85776255e-02   4.91074118e-02  -5.52918060e-02  -4.69013841e-02  -7.38926516e-02  -4.68717426e-02   1.56951489e-01   8.56901411e-02   3.46257097e-02  -3.82514464e-02   2.39279277e-01  -1.92086312e-02   1.44501736e-01  -1.20640198e-01   1.74366568e-01   1.71754535e-01   2.92752226e-02   1.56441443e-01   1.84998023e-01  -1.91688808e-01   2.23578680e-01  -2.18367166e-01   2.19693713e-01   1.20220204e-01   2.33072332e-01  -8.01892035e-03   2.21879153e-01  -1.36954626e-01  -7.72744832e-02   7.76344269e-02   2.14883292e-03   1.07924735e-01   1.65608499e-01   1.31532774e-01   2.08700467e-01   1.24702605e-01  -7.62996627e-02   1.86075219e-01  -1.55985389e-01  -2.16541528e-02   1.22491057e-01  -1.93401791e-01  -5.01754635e-02   1.57831686e-01   1.30737895e-01   2.72716642e-01   1.29742691e-02   2.13932758e-01   5.40979551e-02   1.40476773e-02   4.66020537e-02   2.72971155e-01  -1.64006628e-01   2.15840353e-01   1.60441800e-01  -6.52477308e-02  -1.68582701e-01  -4.87016111e-02   1.86878235e-01   2.69675001e-02  -2.58369939e-02   1.91616861e-01   7.99215217e-02   1.48779380e-01   1.11363565e-01  -6.21180356e-02   1.51372223e-01   2.76485450e-01  -5.93852026e-02   2.39325289e-01  -1.08068896e-01   2.56860094e-01   1.55700715e-01   3.42123527e-02   1.58353879e-01   1.29819894e-01  -1.84825763e-01   9.66651016e-02   4.88862963e-02   1.16035675e-01   1.21489864e-02   1.32473175e-01  -1.55166085e-02   5.85729278e-02   2.50731690e-01  -5.97558670e-02   4.26827229e-02  -3.83928913e-03   1.99035762e-01   1.58817951e-01  -6.12799272e-02   2.30201974e-01   2.24454867e-01   1.06271915e-01  -5.48034417e-02  -5.29772633e-02   1.66807029e-01   1.01584543e-01   1.80026994e-01  -4.92009833e-02   2.47005404e-01  -1.22846163e-01  -1.44128125e-01   3.27622826e-01   1.44666580e-01   1.75624228e-02  -4.31069467e-02  -1.29461439e-01   3.15638165e-01  -1.41390994e-01   6.74011837e-02  -1.02093520e-01  -1.05513793e-02   2.04882383e-01   1.76639204e-01  -8.24342613e-04   2.28473107e-01   2.95148533e-01   6.01431439e-03  -1.70931016e-01  -7.74860055e-02   2.57472406e-01   2.32979942e-01  -3.02231024e-02   1.95511586e-01   8.50087294e-02   3.06182208e-01   2.90501238e-01   1.91306868e-01   1.79687123e-02  -1.99002812e-01   7.66708350e-03   1.80318459e-01   2.94052944e-01  -1.41948009e-01   1.46359281e-01   1.76832493e-01   1.52844639e-01   1.04931205e-01   2.13827631e-01   2.53972751e-01  -5.43425688e-02  -2.30863988e-02   1.96746057e-01   2.33179732e-01   2.32334150e-01   4.79467666e-02  -5.69852931e-02  -9.79717589e-02  -1.37759508e-01  -9.31156275e-02   1.89985044e-01  -2.38701181e-01  -3.07779798e-02  -8.41532202e-02  -2.18433170e-01  -2.32611904e-01   2.39864481e-01  -6.38910296e-02  -2.21201699e-01   1.38732571e-01   3.60548105e-02  -1.73362401e-01   5.15923887e-02   2.23055504e-01   1.05755847e-01   2.35357012e-01   8.81587174e-02   9.27289070e-02   1.14921493e-01  -1.52576954e-01  -2.01460245e-01  -1.52639466e-01   5.11256402e-02  -1.97940329e-02   2.31998060e-02  -4.29959288e-02  -2.19378291e-01  -2.27113134e-01   8.86607531e-02  -5.42091202e-02   2.89521719e-02  -1.70962010e-01   6.80168064e-02   5.52720092e-02  -1.41897851e-01  -1.05530956e-01   1.95129260e-01   1.90934886e-01   6.74824508e-02   1.61375568e-01  -2.02516083e-01   2.32376646e-01   1.35341871e-01  -2.36252865e-02  -8.65054035e-02  -2.30484225e-01   1.83854049e-01  -1.47976842e-03  -1.46500008e-01  -5.15251163e-02  -1.21380338e-02  -1.61228781e-01   4.76623868e-02  -2.07990281e-01   7.30461219e-02   1.68374638e-01   1.30487979e-01  -8.30337801e-02  -1.91645804e-01  -8.06433813e-02   8.35768943e-02  -1.08547176e-01   2.41200893e-01   1.51532797e-01   1.05383169e-01  -1.34168984e-01   1.30831904e-01  -1.12233970e-02   1.34740017e-01   1.06082947e-01   1.26755685e-01   1.15665248e-01   2.28490962e-01  -2.01629828e-01   5.51387918e-02  -9.14844836e-02  -1.20563180e-01  -9.03504328e-02   2.23901571e-01  -7.44187117e-02  -3.95659271e-02  -6.55642599e-02   2.21322908e-01  -2.08146194e-02   2.06208466e-01  -1.56444142e-01  -2.12566266e-01  -2.30641217e-01   3.08356442e-02  -7.27491887e-02  -9.77941828e-02   9.83606712e-02  -1.14083881e-01   2.21535027e-01   9.46084350e-02  -1.38969076e-01  -2.79948390e-02   1.67301079e-01   1.34182776e-01  -5.72426476e-02   1.51248167e-01   8.04005900e-02  -2.16602011e-01   1.66778001e-01   4.95149232e-02   3.61281103e-02   8.21292273e-02  -2.20566225e-01   2.26468799e-01  -1.17443916e-02  -1.32783807e-01  -9.95013085e-02  -1.95764155e-01  -2.25193912e-01  -2.13709887e-01  -2.99952123e-02   3.35006149e-02   1.71992481e-01  -2.14561615e-01   1.28662011e-01   1.81352393e-01   5.46333742e-02  -6.96424338e-04   1.73751176e-01  -8.13355717e-02   1.52317815e-01  -1.38043269e-01   2.11290569e-01  -1.36669622e-02   2.63467098e-02  -1.99864596e-01   1.85323503e-01   1.00347580e-01  -2.22866817e-01  -2.11862074e-01   1.20109202e-01   1.07746998e-01   1.60670296e-01   2.22985670e-01   1.13782640e-01   1.48098552e-01   1.03566949e-01   1.25571540e-01   7.27927150e-02   2.15912199e-01  -1.38974819e-01   6.66010054e-02  -3.47405054e-02  -1.25918778e-01  -4.29542584e-02   1.10599721e-01   1.20610835e-01   6.30593856e-02  -1.96399223e-01   2.32563530e-01   2.20562852e-01  -1.95272736e-01   9.41909782e-02  -1.34348992e-01   2.08900915e-01   1.03837278e-01   2.02559454e-02   8.32266187e-02   3.07206118e-02  -1.52550905e-01   7.99998641e-03  -1.83660119e-01  -7.52641874e-02  -4.57594300e-02   4.64909514e-02  -1.95362070e-01  -1.12867417e-01  -1.58777095e-01   1.86043857e-01   1.69881289e-01  -7.60926987e-02  -2.04313515e-01   1.09332076e-01  -1.08702179e-01   1.62638557e-01  -4.38378319e-02   1.63941487e-01   1.71998444e-01  -8.89527547e-02  -1.94641931e-01  -4.56240825e-03  -1.22194217e-01   2.23664201e-01  -1.67769375e-01   1.17806627e-01   1.91923232e-01   1.17414164e-01  -2.23741323e-01  -2.07893905e-02   1.71802027e-01   2.02216534e-02  -6.19552822e-02  -1.10749469e-02  -2.17349766e-01   1.39752824e-01   2.14896806e-01  -2.36319975e-01  -3.74654258e-02   3.73668937e-02   2.07205194e-01   4.70320897e-02  -2.62024340e-02  -1.52768938e-01  -2.25337396e-01   1.62331269e-01  -8.11156568e-02  -5.41915041e-02   2.11029206e-01  -1.98238800e-01  -2.44368788e-01  -1.88417877e-02   4.37331990e-03   7.08793087e-02   5.74661181e-02  -1.44538828e-01  -2.03962145e-02  -1.68068324e-01   2.12225807e-02   1.15719504e-02   5.52939843e-02  -2.21327952e-02   1.27382768e-01  -1.10359100e-01  -1.81649392e-01  -8.33977431e-02  -1.94628710e-01   2.30362036e-01  -1.46768688e-01   9.80522300e-02  -2.03126273e-03   1.08429091e-01   8.04258608e-02  -1.59575032e-01  -1.17917629e-01  -2.15439697e-03  -2.30172323e-01   1.95465358e-02   7.75966924e-02   2.27779185e-02   1.83851173e-01   2.24895316e-01   1.73426325e-01  -1.53425652e-01  -1.86250666e-01   2.16024644e-01   1.89882961e-01  -5.51943887e-02   2.02006241e-01  -1.09888552e-01   1.91414537e-01   1.57997988e-01   4.60430101e-02  -2.09927146e-01  -4.27425755e-02   1.20276306e-02  -7.25981717e-02  -1.13650240e-02   1.05467154e-01  -1.06371951e-01   1.22828715e-01  -1.30209484e-01   2.06534819e-01  -9.56427906e-04  -2.07092374e-01  -2.39966964e-02   5.96498545e-02  -1.26634255e-01  -1.68763282e-02  -2.20487522e-01  -1.76692751e-01   1.27005590e-01  -1.67500454e-01  -4.14235750e-02  -1.15736177e-01  -9.54719660e-02   2.37162699e-01   1.96141120e-01   1.67917255e-01  -2.28317800e-01  -1.63638220e-01   1.69983662e-01  -9.37098738e-02  -4.65922096e-02  -2.32008418e-02  -1.80279659e-01  -9.10885811e-02  -1.59557407e-01  -2.41229528e-02   9.65885884e-02  -2.30906359e-01   1.49664464e-02  -2.87374766e-02  -2.43770919e-01  -2.20505917e-01  -5.14377781e-02   5.00836681e-02  -1.94800746e-01  -2.33935121e-01   1.81298417e-01   1.93915406e-01  -2.08173131e-01  -6.64269073e-02   9.55776037e-02  -1.85701610e-02  -1.27625717e-01  -6.99584149e-02   1.86322060e-01   7.51613264e-02  -7.75683220e-02  -8.82334120e-02   1.04591867e-01   4.87855899e-02   2.17107312e-01   6.66031449e-02   1.00509296e-01  -2.22061984e-01   1.29291698e-01  -3.31360687e-02  -2.12169101e-01  -1.67707297e-01   3.08472687e-02  -6.07083692e-02  -2.55344332e-02  -7.27707147e-02   1.93575470e-01  -1.11061700e-02   3.67743645e-02  -1.26354889e-01   3.12611039e-02  -2.19741308e-01  -7.30068266e-02   8.11265624e-02   2.05796231e-01  -2.12771240e-01  -1.59467159e-01   5.59060794e-02  -1.74879300e-02  -1.52278082e-01  -6.53043396e-02   1.99074829e-01  -5.28213742e-02  -2.13051775e-02  -2.20362623e-01  -5.28292681e-02   3.09720605e-02   9.01884408e-03   9.96769350e-02   1.33733411e-01   1.19514460e-01  -2.16940698e-01  -9.75219954e-02   1.01082016e-01   2.07697384e-01  -8.19106621e-02  -2.37930702e-03   1.80057981e-01  -1.80314086e-03   1.64375911e-01   2.41957668e-01   1.98872775e-01   6.89089410e-02   2.07776714e-01  -1.67563242e-02   1.61938565e-01   1.86904265e-01  -1.16028386e-01   1.38384972e-01  -1.65515652e-01   7.39723156e-02   1.50054034e-01  -2.24478865e-01  -3.31336907e-03  -7.93492476e-02   1.14750983e-01   5.90427771e-02   2.31228301e-01   2.73546232e-02   7.14620580e-03  -1.82645127e-01  -1.09251568e-01  -2.08753015e-01   2.39073602e-01   1.92219083e-01  -8.42637346e-02   1.68706215e-01   1.78921999e-01   3.71444078e-02  -4.08127259e-02   1.48368414e-01   6.30454787e-02   1.73930630e-01   1.91983115e-01  -1.57221393e-01  -1.14246806e-01   5.32698586e-02  -1.74708882e-01  -1.71773976e-01   1.27358900e-01   6.33595122e-02   5.09082248e-02   1.69675793e-01   1.18473351e-01  -2.09581251e-02   1.63999545e-01   1.66164799e-01  -2.66378143e-02   2.04113731e-01  -9.48229617e-02  -1.02378779e-01  -2.18658276e-01  -1.01012785e-01  -2.02385757e-01  -2.34771961e-01  -2.12238295e-01  -7.23177605e-02  -1.32304900e-01   1.47860258e-01  -2.31981327e-01   1.65104328e-01   1.94820340e-01  -1.48617248e-01   2.41349656e-01  -9.01845346e-02   4.57777623e-02  -2.28249677e-01  -1.77979303e-01   1.39862984e-01   1.73276109e-01  -2.15928519e-01   1.76358657e-02   9.60913144e-02  -5.30378479e-02   1.69795543e-01  -1.93542560e-01   2.24459378e-01   1.26372956e-01   1.30468629e-01  -2.39886081e-01   1.10233382e-01   1.90475140e-01   1.19169802e-01  -1.53420791e-01   3.62046986e-03  -1.97567783e-01  -2.11694510e-01  -1.18950088e-01  -2.03741208e-01   2.18194311e-01  -3.48644217e-02   2.30559279e-02  -1.51029846e-01  -6.21881896e-02  -1.33105303e-01   1.87222923e-01  -2.22312701e-01  -7.04642980e-02   1.85727120e-01   7.81242382e-02   1.83088260e-01  -2.25137244e-01   1.68785415e-01   2.33415041e-01  -9.77477549e-02  -3.16146359e-02  -2.24569491e-01   1.25240908e-01  -1.95868947e-01  -1.22125859e-01   7.06876476e-02  -1.29163033e-01  -3.45458417e-02   2.06365153e-01  -4.10323807e-02  -1.96216776e-01  -4.40915948e-02   6.19261876e-02  -1.46819852e-01   1.95675663e-01   4.84032095e-02  -2.22307671e-01  -9.36453640e-02  -1.38270762e-01  -1.35633114e-01  -1.34376868e-01   1.07746152e-01   2.00009899e-01   6.78068408e-02  -1.42718348e-01   7.74886045e-02   1.79971312e-01  -2.11831639e-01  -1.11603470e-01   1.35846680e-01   2.01869356e-01  -1.88040585e-01  -1.95893583e-01  -2.41162854e-01   1.10362794e-01   2.17068007e-01   5.28237146e-02   6.42676886e-02   1.75170453e-01  -1.16411194e-01  -5.67142712e-02  -1.02076592e-03  -1.19834909e-02   2.19266952e-02   1.87501671e-01  -5.16037058e-02  -7.68348107e-02   1.29586533e-01  -9.17362209e-03  -1.27430815e-01  -6.77730657e-02  -1.25173133e-02  -1.49330981e-01   1.60372592e-01   1.59943638e-01   1.90698125e-01   2.33106310e-01  -6.71778388e-02  -2.43287576e-01  -3.75307501e-02  -8.05536770e-02  -1.95760912e-01   1.96380223e-01   4.44518727e-02   4.11777857e-02  -1.68746948e-01  -2.03509620e-01   2.08721523e-01   2.99151277e-02   4.82978832e-02   1.13749873e-01  -2.42435182e-01  -2.55121002e-02   1.54284759e-01  -2.17522731e-01   5.59223093e-02  -2.30731476e-01  -1.82547242e-01   1.99585380e-01   1.61909797e-01  -7.50485857e-02   1.08051088e-01   1.45102749e-01  -1.44306474e-01   1.95548345e-01  -2.39802458e-01   1.03857617e-01  -7.67968867e-02  -2.22518721e-01  -9.27960879e-02   2.80702005e-02   1.91010652e-01  -1.79901337e-01  -8.94077173e-04  -7.75377607e-02  -9.73076648e-02  -2.17071796e-01  -1.43538995e-01   9.31257108e-02  -1.02374688e-01  -1.36288104e-01   6.88218307e-02  -2.66729181e-03  -1.85848761e-01   9.18628502e-02   1.56715229e-01  -2.04790060e-01  -1.04087762e-01   1.96141501e-01  -6.41042064e-02  -4.28338284e-02  -2.65243150e-02  -1.12055254e-01   1.31007556e-01  -6.68061970e-02  -1.53125467e-01   7.50880717e-02   1.12721502e-01   3.90627269e-02   4.43183992e-02  -9.16028132e-02  -1.66248142e-01  -7.11424678e-02   1.18539406e-01  -1.47432160e-01  -1.85606548e-01  -5.27424349e-02   1.52253220e-01  -1.59065414e-01  -2.24053900e-01  -1.93235117e-01   3.56915991e-02   1.49063048e-01   1.22366547e-01   2.04211241e-01  -1.77307129e-01   4.18168054e-02  -2.15965453e-01   1.01069137e-01   6.48040376e-02  -2.93944121e-02   1.51849908e-01   1.04129148e-02  -1.00126512e-01   1.29970725e-01  -1.95014796e-02  -7.19232495e-02  -1.64420185e-02  -1.21674650e-01  -1.12295964e-01   1.99197973e-01   2.24169004e-02   1.34581768e-01   6.57811808e-02   1.13503301e-02  -3.34587094e-02   5.88049526e-02   1.90768616e-01  -2.39092047e-01   1.23275646e-01   3.87699240e-03   2.29476834e-01  -2.29184312e-01  -1.59854408e-01  -1.27384134e-02   9.04569936e-02  -6.63969132e-02  -1.13237278e-01  -1.57567070e-01   2.42611363e-01   1.47240995e-01   2.72624190e-02  -2.14409622e-01   9.39892922e-02   1.14530256e-01  -1.02597385e-02  -1.48611327e-01   9.59832288e-02  -2.14573913e-01   1.68953088e-01  -3.25915904e-03   3.45357059e-02  -3.90840233e-02  -1.58533377e-02  -1.43397269e-01  -6.00699084e-02   1.05212682e-02   1.54121860e-01  -1.09106215e-02  -3.83915414e-02  -4.31634368e-02  -1.62160795e-01   2.35418404e-01  -1.45638600e-01  -8.51909546e-02  -1.81674829e-01  -1.99663520e-02  -6.37868585e-02  -2.11943902e-01  -2.16675271e-01  -1.13147870e-01  -1.70270922e-01  -2.32015512e-01   9.58428775e-02   5.66141635e-02   3.33614411e-02   7.87703528e-03  -5.58942488e-02  -5.00347409e-02  -2.71772153e-02  -1.13086667e-03  -1.87941435e-02  -1.89380063e-01  -1.38108170e-01  -7.43116754e-02  -8.99536935e-02   1.07635003e-02   7.01640661e-02   4.00156085e-02   1.36781574e-01   7.62345298e-02  -1.20750297e-01   1.66259345e-03   2.35732664e-01   8.63067526e-02   2.20418550e-01  -2.39708530e-01  -4.07427539e-03   1.00046887e-01   2.25518677e-01   1.76016245e-01   5.26458032e-02   4.34481420e-02   1.44018286e-01  -1.52492263e-01  -1.78264673e-02   8.62296075e-03  -5.81161302e-02  -1.04219617e-02   1.19690202e-02  -1.92346562e-01   2.32194178e-01   7.62291870e-03   2.10403306e-01   1.65599610e-01   1.95100283e-01  -1.03250538e-01   1.09135255e-01   1.87898649e-01   2.44423675e-01   2.18935516e-01   6.21176623e-03  -1.65067815e-01  -4.34622821e-02   5.28149413e-02  -2.20176843e-01  -1.75838211e-01  -3.97739826e-02  -4.32227843e-02   2.37616994e-01   1.38138954e-01   3.45626316e-02  -1.47230861e-01  -7.26971889e-02  -1.91989996e-01  -1.64737052e-01  -1.87251042e-01  -4.01607354e-02  -1.45616658e-01   1.88755119e-01   2.22558757e-02   6.98715026e-02   1.00048966e-01  -1.81315481e-01  -2.11194586e-01  -1.52198979e-01  -2.26674662e-01   7.27907733e-02   1.46370423e-01   1.55869269e-01  -2.04084147e-01  -1.64366121e-01   1.39596859e-01  -1.49820990e-01   1.70901186e-01   1.01118566e-01   2.18327237e-01  -1.89669602e-01   1.81717461e-01  -1.74923584e-01  -1.23225625e-01  -1.47262787e-01   9.53811335e-02  -4.01779327e-02  -1.49926258e-01  -3.77878363e-02   4.90049001e-02  -4.69793720e-02  -6.01942471e-02  -1.99309315e-01  -1.49579236e-01   9.34479686e-02  -1.71356225e-01   1.64715137e-01   1.02777185e-01  -7.10731245e-02  -2.25964408e-01  -7.57433351e-02   1.30223227e-01   2.30001379e-01   1.54699460e-01   2.27553658e-01  -2.35563549e-02  -2.77201256e-02   1.37845696e-01   6.38904642e-02  -4.14217692e-03  -7.75842937e-02  -9.55005102e-03  -2.46558491e-02   2.35968680e-02   1.73859196e-01  -2.38157817e-01  -1.43716692e-01   2.17657609e-01  -1.44052590e-01   2.08611539e-01  -1.12052522e-01   2.25624020e-01   9.92940154e-03   8.63113406e-02  -8.22459085e-02  -6.73964058e-02   2.43603590e-01  -7.05309261e-02  -1.99811408e-01  -1.52648356e-01  -1.09902062e-01  -5.84618320e-02  -5.05164370e-02  -2.06942434e-01  -6.29161769e-03  -1.12697890e-02  -5.85755081e-02   4.24564478e-02   1.34173812e-01  -6.74942517e-02  -2.15967334e-01   4.27399945e-02   1.13713589e-01   8.02979851e-02  -7.42672169e-02   8.39149004e-03  -7.81896630e-02   1.74435981e-03  -1.14488225e-01  -5.05493833e-02  -6.10294190e-02   2.10207053e-01   1.05093202e-01   7.25276907e-02  -1.76264201e-01   1.39076401e-01   1.76208870e-01  -3.99360116e-02  -8.44002918e-02  -7.73589154e-02  -4.68420632e-02   1.76680686e-01   1.31464104e-01   1.89489343e-01   1.98717292e-01  -1.00448385e-01  -2.43191413e-01  -7.15066064e-02   2.30695766e-01  -1.19719936e-01   6.79263731e-02  -8.29621380e-02   2.03527978e-02   1.38070530e-01   2.23937840e-01  -1.00079357e-01   2.23253432e-01  -9.02524257e-02   2.31921485e-01  -1.75293042e-01   2.31427310e-02   1.55806399e-01  -1.84331646e-01  -8.66691517e-03  -2.11256974e-01   1.69941711e-01  -1.28043390e-01  -1.92715673e-01   1.54757310e-01   1.80664050e-01   3.28031499e-02  -8.24678809e-02   2.74647862e-02   3.08897874e-02  -3.77202015e-02   1.41106123e-01  -1.42440301e-01   4.96472787e-02  -2.06411372e-02   1.96740393e-01  -2.20416472e-01   3.16348637e-02   1.01376963e-01   1.65844570e-01  -1.13630748e-01  -1.32849736e-01   1.83676543e-01   1.15856597e-01  -2.37479898e-01  -1.93672983e-01  -2.45866236e-01  -1.85208012e-01   6.43491804e-02   1.59646217e-01   2.41021745e-04   1.18234775e-01  -2.07206523e-01  -6.26462017e-02  -1.85359667e-01   5.30421308e-02  -7.94934679e-02   2.28187871e-01  -1.06770694e-01   1.79474284e-02  -7.31169449e-02   2.19750970e-01  -1.02277330e-01  -7.45090711e-02  -1.85438251e-01  -3.95596374e-02  -8.15457480e-02   1.72060951e-02   1.33626343e-01  -3.00529327e-02   1.41533579e-01   6.71752059e-02   2.42207391e-01   1.23703387e-01  -2.21069785e-01   2.35859468e-01  -2.06595415e-01   8.92898878e-02   1.70271610e-01   3.03444727e-02   2.31728760e-01   1.21781393e-01  -1.08258701e-01  -1.50835679e-02  -2.00648298e-01   2.34945051e-01  -6.59706407e-02  -2.07764636e-01   7.78278998e-03  -1.15340499e-01   1.92501914e-01   1.06836636e-01  -2.23702947e-01  -1.99596115e-01   7.08227920e-02   3.26912061e-02   1.26520256e-01  -8.03585677e-02  -1.49276674e-01  -6.98603687e-02   6.14962197e-02   1.51901662e-01   2.23135348e-02  -1.36095928e-01  -8.54887281e-02  -2.13211573e-01  -3.37162231e-02   1.45524937e-01   1.01077398e-01   2.40716189e-01  -8.36725651e-02   1.32102019e-01  -1.81988532e-01  -8.04314355e-02  -5.50799815e-02  -1.73937893e-01   1.29750562e-01   3.18822203e-02   1.05114173e-01  -1.68720040e-01   1.95991492e-01   1.35590452e-01  -9.77360512e-02   1.24027543e-01  -1.18684387e-01   1.45090810e-01   2.40548469e-01   2.10411885e-02  -9.71974364e-02  -7.97894354e-02   1.70637255e-01  -1.81136262e-01  -6.80183087e-03  -9.18623919e-02   9.32613244e-02  -7.69035324e-02  -1.40607623e-01   2.40734549e-01  -2.29255612e-01  -1.17255774e-01  -2.27452092e-01   9.28011661e-02   2.29681285e-01   1.95529375e-01  -1.64236635e-01  -2.27778608e-01  -1.60768187e-01  -1.41180613e-01  -1.10360534e-01   1.18144900e-01  -7.75387485e-03  -4.93240321e-02   2.22670653e-01   1.74207992e-01   1.92430571e-01  -1.48719482e-01   7.43435585e-02  -2.06807419e-01   2.05305512e-01  -1.03177100e-01  -7.51335434e-02   1.21678455e-01  -1.03268887e-02  -3.57609390e-02  -1.81956410e-01   4.56131824e-02  -8.97835109e-02  -1.05245492e-01   1.71779669e-02  -1.96586147e-01   1.19309026e-02  -1.30522525e-01   2.04781700e-02   1.17753205e-02   1.19070676e-02   1.59423057e-01   1.05224810e-01   1.65087217e-01  -2.03627930e-01   6.19154441e-02   1.10236770e-01  -1.45204669e-01  -1.39846433e-01   1.19046815e-01  -1.24811681e-01  -2.24511390e-01  -1.59230237e-01   1.14090915e-01   5.76952448e-03  -1.11221059e-01   5.63306472e-02   9.00672921e-02   1.22776469e-01   3.16728921e-02  -6.45200260e-02   6.94249149e-02   2.38865688e-01  -1.00728415e-01  -1.78859488e-01   1.43366514e-01  -2.07860331e-01  -1.75465942e-01   1.65025735e-01  -7.40913782e-02  -1.01773015e-01  -2.19162836e-01  -1.09806774e-01   3.87501904e-02   5.18087309e-02   2.22626810e-01  -1.80910950e-01  -1.46098558e-01  -1.72740123e-01   1.76184749e-01   1.89374927e-01  -1.43937088e-01  -1.07038249e-01   1.12586627e-01  -1.73702490e-01  -1.62021576e-01   2.43832750e-02   7.74042067e-02   8.13025516e-02   1.34818619e-01  -1.45950881e-01  -2.03657050e-02  -3.19972839e-02   1.29656920e-01  -1.40450399e-02  -3.32159592e-02  -1.07541219e-01  -1.33148868e-02  -1.87722687e-01  -2.24735805e-01  -1.47056893e-01  -9.43615867e-02  -9.17903783e-03   2.08307112e-01  -1.04703277e-01   3.79844306e-02  -1.12298911e-01   1.17913449e-01   2.25735226e-01  -2.41857407e-01  -7.23328185e-02  -2.20623022e-01  -2.16406712e-01  -1.17388866e-01   1.16861594e-01   3.73748417e-02  -4.40549827e-02   1.75232040e-01   4.66891568e-02   7.57615298e-02  -2.20485639e-01   1.85967459e-01   2.42501892e-02   2.02606105e-02   1.49856834e-01   7.75623091e-03  -1.83802285e-01  -5.21434151e-02  -1.81612434e-01  -1.87634524e-01  -8.34400436e-02   1.12002490e-01  -1.16630130e-01   4.18842766e-01   5.93729039e-01   2.04332386e-01   5.69999983e-01   2.23155704e-01   1.02004896e-01   6.00241697e-01   1.65404888e-01   8.81847888e-02   1.88878684e-01  -3.51300808e-02   3.34275720e-01   3.19593724e-02   5.77269018e-01   5.83793518e-01   2.77838277e-01   4.83674061e-01   5.56343735e-01   1.55577055e-01   1.90102182e-01   3.26744853e-01   3.11060018e-01   1.00835637e-01   3.02787032e-01   6.28800113e-01   1.30421304e-01   3.46843048e-01   2.42136218e-01   4.45899269e-01  -5.33541035e-02   2.50189011e-01   3.45640471e-01   3.73376307e-01   2.44821380e-01   3.22318214e-01   3.59737067e-01   8.00992396e-02   3.67837650e-01   5.05784106e-01   2.85182069e-01   3.10577137e-01   4.58396963e-01   4.38991875e-01   3.19593542e-01   4.03537981e-01   6.17842162e-01   4.87236437e-01   6.02146981e-01  -9.00212997e-02   2.76811276e-01   2.61961761e-01   3.44749369e-01   3.17596927e-01   1.98039789e-01   3.59917152e-02   4.99586714e-01   2.54177333e-01   3.52706718e-01   5.15529325e-01   5.37562536e-01   3.86532088e-01   2.20118362e-01   4.32196330e-01   4.79955341e-01   5.97189993e-01   4.13268693e-01   4.48648824e-01   3.38751996e-01   5.39947716e-01   4.44634397e-01   8.34109641e-02   5.81695564e-01   6.57092554e-01   1.00836865e-01   3.36694452e-01   6.31233022e-01   2.77649704e-01   6.26086805e-01   5.46984647e-01   1.75565411e-01   4.27177842e-01   4.54859899e-01   3.04338172e-01  -1.91355179e-02   5.51332544e-01   2.54198292e-01   5.24875713e-01   2.00468657e-01   1.55488318e-01   4.83010444e-01   1.77048792e-01   1.29319838e-01   5.48402112e-01   2.42166021e-02   3.15030884e-02   1.38649983e-01   2.87311040e-02   2.35780217e-01  -2.33785028e-02   3.93491970e-01   6.88797042e-01  -1.54936409e-01   2.29308996e-01  -1.89819769e-01  -1.14831698e-01   1.29401638e-01   5.39528490e-02   5.54462410e-02  -1.76112971e-01   2.35272908e-01  -1.61185631e-01  -1.92823279e-01   1.05710484e-01  -1.32102895e-01  -2.06898991e-01   6.89894596e-02  -1.74109166e-01   2.40141209e-01  -1.72725252e-02  -1.52953111e-01  -1.46195750e-01   1.07577573e-01  -1.30538656e-01   1.20071081e-01  -1.90961558e-01  -1.59377493e-01   3.64571089e-02  -1.78439400e-01   2.01249802e-01   1.97103240e-01   1.04514799e-01  -2.72608566e-02   1.41441038e-01  -2.06856926e-01  -1.55616909e-01   1.66024116e-01   2.06039427e-01   3.70055639e-02  -2.18242931e-01   2.18290942e-01  -1.36230201e-01   1.89092536e-01  -5.85725160e-02  -1.59556954e-01   9.68462858e-03   4.94642249e-02   2.10903615e-01  -1.04138977e-01   6.17141904e-02   2.23019553e-01  -5.79479532e-02  -1.33842256e-03  -6.19031258e-02   1.89398861e-01  -1.34746314e-01  -2.75651669e-02   2.23645792e-01   1.90461580e-01   1.95943605e-01  -2.37438988e-01   3.67905324e-02   1.00839352e-01  -2.32734030e-01  -1.73514414e-01  -1.11041312e-01   1.41500545e-01   2.27092642e-01   3.62349785e-02  -2.26991734e-01   6.48677186e-02  -7.04154178e-02  -1.10614465e-01   9.57221177e-02  -1.75743512e-01  -2.19982832e-01  -2.26686911e-01  -2.24766692e-01   2.37048830e-01  -2.26548655e-01   1.60266208e-01  -8.38718041e-02   1.69243485e-01   2.31925587e-01   1.37583325e-01  -1.71883782e-01   2.74788355e-02   2.39104107e-01  -1.75358309e-01   4.27711575e-02  -1.31516375e-01  -6.86679297e-02   1.42313947e-01   8.34805583e-02   6.24603396e-02  -6.25165103e-02  -8.88900015e-02  -2.40030346e-01   8.44529321e-02  -2.41190088e-01  -1.86420032e-01   8.05688990e-02  -1.12980637e-01  -2.43196531e-03  -1.66645696e-01   4.66255555e-02   9.47226696e-02  -2.15937741e-01  -4.23442552e-02  -2.76970706e-02  -1.78879218e-01  -4.29224253e-02   1.27184100e-01   1.99646944e-01  -1.29303063e-01   2.24153700e-01   1.81401464e-01  -4.45102302e-02   4.29129295e-02   1.74874276e-01   2.07188535e-03   1.80489916e-01  -2.26316611e-01   2.65011587e-02  -2.01546218e-01  -5.62059275e-02   2.42960007e-02   1.46005359e-01  -7.27757933e-02  -6.11014503e-02   4.28947067e-02   3.22454073e-03  -1.42791811e-01  -1.02484871e-01   9.87410134e-02   4.38619227e-03   2.40182155e-01   6.52103662e-03   4.22834033e-02  -7.44393532e-02   1.44532160e-01   2.38957260e-01   2.48148530e-02   8.20854004e-02  -1.69694943e-01  -1.19864074e-01  -2.06971466e-02  -5.47239901e-02  -2.05670967e-01   3.57683381e-02  -2.54690424e-03   1.65812485e-01  -1.31696949e-01   7.39976948e-02   2.16511958e-01   7.31326925e-02  -1.87618382e-01  -1.55647527e-01  -3.83734431e-02   1.44095131e-01  -2.28562302e-01  -8.39684206e-02  -1.30077653e-01  -1.27206651e-01   1.87414498e-01   1.46680432e-01   2.12553487e-01  -9.58160286e-02  -1.30011658e-02   1.53272256e-01  -1.23960835e-01  -1.28608500e-01   1.65108417e-01   2.29916504e-01   1.00784239e-01   1.41522333e-01  -1.81114211e-01   1.69689495e-01   1.92834832e-01  -1.70169630e-01  -1.95830463e-01   6.11971634e-02  -9.97642620e-02   1.45035081e-01  -1.02671070e-01  -1.01332575e-01   2.36907777e-01  -1.65215632e-01   4.92032219e-02  -1.44207992e-01  -2.13597983e-01  -1.63133898e-01   1.59860458e-01  -8.50374293e-02  -2.09741680e-01   1.28988239e-01  -8.01864429e-04   2.20344010e-01   1.03678993e-01   1.41330021e-01   1.45429602e-01  -1.96666465e-01  -7.45257450e-02   1.17572636e-01   8.41378204e-02   2.12138135e-01   3.76602690e-02  -6.71534108e-02  -1.52449748e-01  -1.73832664e-01   5.40049041e-02   2.14693934e-01  -2.74075163e-02   1.06575181e-01   1.59002916e-01   1.75803974e-01  -7.75666595e-03   5.05461479e-02  -8.00414587e-02   2.05609113e-02  -3.02823566e-02  -1.30387334e-01  -2.94749188e-02  -9.84259780e-02  -2.24296447e-01  -3.15100580e-02  -4.40447879e-02   3.61773835e-03   1.87819687e-01   1.54804423e-01   1.58018759e-01   1.97890949e-01   1.49442683e-01   2.03253823e-01   1.42345730e-01   3.16547722e-02   1.82867586e-01   1.60067162e-01  -1.45247852e-01  -2.37937485e-02  -1.45503192e-01   2.40367483e-01   4.33750865e-02  -2.38120543e-01   1.34344585e-01  -1.32893712e-01   1.59521922e-01  -5.38304590e-02   7.71036447e-02   9.46012188e-02  -1.61554776e-01   2.76244576e-02  -2.39990715e-02  -9.65341180e-02   1.28485673e-02   1.15794285e-01   1.60175100e-01   1.35509654e-01   4.02539609e-02   2.02568958e-01  -2.01207186e-01  -1.00273014e-01   1.88829311e-02  -1.31924918e-01  -5.42308361e-02   1.78906160e-01   1.87758808e-01  -1.22410345e-01  -1.16089968e-01  -7.74300820e-02  -1.52828151e-01  -2.36049099e-01   2.16573837e-01   3.53673322e-02  -2.33601414e-01   1.83285374e-01   8.21911780e-05   1.41741605e-01   1.55209593e-01   2.35221823e-01   6.95318067e-02  -1.46274395e-01   2.72751204e-02  -2.29813671e-01  -4.22417279e-02   2.20201531e-01   2.21176603e-01  -1.15503339e-02  -6.97980534e-02   1.98930201e-01   2.80970423e-02   9.87309204e-02  -2.29906508e-01  -3.43104167e-02  -8.15080701e-02  -2.39885485e-01  -1.80908218e-01  -4.12827017e-03   1.79237357e-01   4.77782763e-02  -5.07788920e-03   5.71861931e-02   2.43248027e-01  -3.10176233e-02  -2.98516351e-02  -1.26261581e-01   1.31687079e-01  -4.11704133e-02  -3.82159072e-02   2.20979050e-01  -1.44725946e-01  -6.93969129e-02  -7.54925214e-02  -1.73124447e-01   1.94970807e-01   5.62129836e-02   1.89928532e-01   1.71975380e-01   8.44607943e-02  -2.31895858e-01  -2.06662660e-01   4.76486002e-02   1.84501226e-01   1.84839737e-01  -1.32704925e-01   1.24395515e-01  -5.90068879e-02  -1.15198133e-02   5.40216423e-02   5.33528601e-02   1.69858575e-01  -1.26446268e-01  -1.28699648e-01   2.05575008e-01  -3.09090782e-02   7.66706436e-02   4.40489530e-02   2.52830044e-02  -4.37353260e-02   1.00570674e-01  -1.86848883e-01  -5.01103919e-02   1.85667171e-01   1.04624694e-01   5.03590741e-02  -1.05251133e-01  -2.79341649e-03  -8.90561073e-02  -4.42763575e-02  -8.42291680e-02  -1.80753356e-01  -3.09367350e-02  -1.42414120e-01  -1.91784963e-01  -1.30095751e-01   1.61394885e-01   4.21290534e-02   3.51150854e-02  -4.30418598e-02  -1.70520344e-01  -3.30574529e-02  -1.61738392e-01   6.09851734e-02  -2.15795308e-01   1.86913522e-02  -3.77597208e-02   1.75863301e-01   1.46939274e-01  -2.20656753e-01   5.44109103e-02   1.89711509e-01   1.97903660e-01   6.92990546e-02   1.32233523e-01  -2.18447350e-01  -1.52834996e-01  -1.18550108e-01  -7.19197751e-02   3.02492598e-02   8.08680803e-02  -1.62082069e-01  -1.19205201e-01  -1.57067670e-01  -1.85211717e-02   1.22756845e-02  -7.08423273e-02  -1.15288111e-01   1.38359785e-01  -1.03328222e-01   1.11052327e-01  -8.66430682e-03   1.43486101e-01  -3.15474167e-02   1.69067812e-01   1.65566782e-01  -6.30071555e-02   7.72365703e-02  -2.37644534e-01   1.02273149e-01   2.09625896e-01   7.33509933e-02  -1.76740274e-01   1.86694579e-01   1.41846019e-01  -7.90446692e-02  -2.39219645e-01  -1.94819112e-01   1.51946602e-01   4.51093766e-03  -4.37166091e-02   2.16971661e-01   1.57866578e-01   1.98058637e-01  -1.80234125e-03  -7.03565554e-02   2.35405862e-01   2.23584490e-01   1.24760586e-01   2.18085013e-01   3.26920999e-02  -8.45602072e-02  -8.82850834e-02  -4.97423558e-02  -1.39498517e-01  -1.23106270e-01  -5.83797459e-03   2.36587858e-01   1.93101433e-01  -2.19012318e-01  -1.36458804e-01  -1.28073277e-01   1.42891108e-01   1.58912707e-01  -2.23890289e-01  -1.71698451e-01  -3.59624531e-02  -5.23564737e-02   1.11867420e-02   2.13690129e-01   5.52226357e-02  -8.05794738e-02   1.54282378e-01   3.62445525e-02  -4.51522946e-02   1.16099482e-01  -2.41241754e-01   1.76711282e-01   7.01018576e-02  -2.34770150e-01   1.30138352e-01   2.44141850e-01   7.02197953e-02   2.30314570e-01  -3.32715191e-02  -7.78856647e-02  -4.79415496e-02   3.42064108e-02  -2.16550742e-01  -2.61223361e-02   3.85655420e-02  -1.41406077e-01  -2.07486009e-01  -6.28094110e-02   8.19832355e-02   9.48214437e-02  -1.56348910e-01  -1.69595260e-01  -1.62462838e-01  -1.71749456e-01  -2.13011437e-01  -1.12572661e-01   1.73978652e-01  -8.56820904e-03   1.62301093e-01  -1.74934182e-01  -1.41338420e-01   7.50846803e-02  -4.85633015e-02  -1.67715820e-01  -9.06315531e-02  -5.36443047e-02   1.96878462e-01   2.08807792e-01  -1.24600145e-01   9.60936448e-02   1.47409101e-01   1.19124188e-01  -1.95880432e-01  -8.04620348e-02   1.76530577e-01   1.34167435e-01   9.48380641e-02   1.51152674e-01   1.40162492e-02   2.05809537e-01   2.99244810e-02  -1.58856148e-01   1.63448280e-02   2.68647235e-02  -1.37768339e-01   1.89382841e-01   4.87594998e-02  -8.80001956e-02   8.61607527e-02   2.92361106e-02   2.06499386e-02  -1.07147023e-02   2.37683365e-01  -2.30958731e-01  -2.23788436e-02   1.29143686e-01  -1.28336434e-02  -2.40172239e-01  -1.89265648e-01  -1.58998114e-01   2.14499405e-01   2.41283836e-01  -1.78452708e-01   9.61253477e-03   5.91897535e-02   6.27425072e-02  -2.16460345e-01  -1.50817899e-01   2.32580887e-01  -1.95270024e-01  -6.34974387e-02   1.81152747e-01  -6.56091052e-03   4.72887060e-02   1.41956452e-01  -2.18796285e-01   1.10228529e-01   2.40688219e-01  -1.75986718e-01   2.24920321e-01  -2.02952957e-01   1.63154000e-01  -2.16435748e-01   8.62217382e-04   1.03988671e-01  -8.41846547e-02  -1.25059739e-01  -2.00855878e-01  -2.06549471e-01  -1.43031980e-01  -1.17400554e-01   1.12148465e-01   2.08748860e-01   8.39338126e-02  -1.71320997e-03   1.00769642e-01  -4.41833613e-02   1.75518984e-02   2.19704345e-01  -3.35360400e-02   9.09413819e-02  -2.89108753e-02   1.00841612e-01  -2.08571749e-01  -5.64157847e-02   2.23545239e-01  -1.71896033e-01  -1.81240477e-01  -2.24772117e-01   4.44659118e-02  -9.82742439e-02  -9.28498459e-02   1.42542074e-01   1.01565098e-01   2.34753118e-01   2.20075639e-01  -4.73911069e-03   2.04038042e-01   1.67239834e-01   9.54860357e-02   5.68443845e-02  -1.21143434e-01  -8.79612786e-02   3.13083108e-02  -1.69382079e-01   1.64251952e-01   2.06150823e-01  -8.98377111e-02  -2.26015331e-02   1.18073254e-01   1.27758361e-01  -1.81436096e-01  -2.20061557e-01   8.93182007e-02   1.46865527e-01  -6.42009991e-02  -2.98782254e-02  -1.94490105e-01   5.05345526e-02   1.70660108e-02   1.72300944e-01   1.77996220e-01  -2.22956063e-02  -1.19062831e-01   2.27055810e-01   7.07082105e-03  -1.21666532e-01  -2.40938053e-02   8.58875456e-03   9.14612826e-02   1.44763111e-01   1.17238697e-01  -1.26889557e-01  -1.66017016e-01   1.35341643e-01  -1.98693823e-01  -1.20066302e-01   1.10301627e-01  -6.38755659e-02  -1.34025524e-01  -6.11419561e-02  -1.78129337e-01   7.88156847e-02   6.12062976e-02  -6.96512622e-02   1.83619636e-01  -1.79183210e-01   9.00902994e-03   1.36959691e-01  -1.32005191e-01   1.59512893e-01   3.60120769e-02  -1.77778951e-01   1.44847462e-01   1.00998244e-01  -2.56059128e-01   3.50160785e-02  -1.07973285e-01  -2.29651094e-02  -9.79348264e-02   6.45960144e-02  -6.52936023e-02  -2.36990566e-01  -1.56734904e-01   9.10207924e-03   5.66663017e-04   2.22218295e-01   1.13210140e-01   9.01714053e-02   1.69497998e-01  -2.14653969e-01  -1.05267123e-01   1.45252318e-01   5.00473141e-02  -3.03381115e-02  -4.66303646e-02  -1.24163387e-02  -1.76638568e-01   1.18874222e-01   2.78296850e-02  -2.31280348e-01   1.21073232e-01   5.36025286e-03  -2.08151136e-01  -2.23500539e-01   1.77824281e-01   1.01367889e-01  -1.87223715e-01   2.96047167e-02   6.96097901e-02  -8.05276469e-02  -5.78649296e-02   2.17624416e-01   2.02525256e-01  -1.89293846e-01   9.00200571e-02   1.08491408e-01   9.37836534e-02   1.62934061e-01   1.53885828e-01   1.07268057e-02  -2.45391120e-01  -1.56651604e-01   1.81879088e-02  -9.38629815e-02   7.73401448e-02  -1.87001060e-01   1.50051390e-01   9.60203498e-02  -1.74481740e-01  -3.54314622e-02  -1.40606044e-04   1.43369195e-01  -1.11258519e-01   1.50896148e-01   1.36711016e-01  -2.20998250e-01   2.00947549e-01   6.88166296e-02  -1.52903000e-02   1.44043763e-01   8.57494902e-02   2.00836688e-01  -8.66834429e-02   2.33424700e-01  -1.10385626e-01  -1.65613937e-01  -1.91361552e-01   6.60666925e-03   8.03868435e-02  -1.45391165e-01  -1.19713959e-01  -1.92171063e-01  -1.26377782e-01  -2.27551694e-01   7.38659722e-02   1.16291615e-01  -3.05208287e-02   8.92142210e-02  -1.82985724e-02  -9.19356848e-02  -2.06097741e-01  -1.19756749e-01  -4.09881947e-04  -3.06608398e-02  -1.18472752e-01   1.23635339e-01   4.68222036e-02  -5.20534751e-02   1.98708126e-01   3.68631443e-02  -1.07309060e-01  -1.21216619e-01  -1.93413239e-01  -2.07082530e-01  -5.03082334e-02   1.53487682e-01  -2.11030397e-01  -2.17110630e-01  -1.03656469e-01   2.09577184e-01  -1.70391637e-01  -1.06991207e-01  -1.50102342e-02   8.15616133e-02  -1.53005896e-01  -9.23647740e-02   4.15706964e-02   2.29852043e-01  -2.52520547e-01  -8.43690307e-02   2.05886999e-01  -1.63650370e-01   2.56891854e-02   1.34574286e-02   7.56714389e-02   1.77619810e-01   1.75493694e-01  -1.80098780e-01  -7.21593893e-02   2.32372041e-01  -7.91233740e-02  -2.16444940e-01  -2.11875300e-01  -2.13824749e-01   2.78034180e-02  -2.58800901e-01  -1.27027312e-01   4.23505793e-02   7.73507431e-02   1.14781025e-01  -1.72495631e-01   2.12196636e-01  -2.07509051e-01  -2.33726478e-01  -2.16380949e-01  -2.41103437e-02   2.16913005e-01   4.99899386e-02  -1.98918019e-02   3.06460442e-02  -2.00219030e-01   3.73851876e-02   7.92979041e-02  -4.49869047e-02   9.35165573e-02   1.21378291e-01  -2.13755243e-01   1.05427852e-01  -1.13680285e-01  -1.67010164e-02   7.53866343e-02  -1.96597416e-01   1.22702577e-01  -2.39776954e-01  -1.48123223e-01   1.77634703e-01  -2.48995422e-01  -1.22558223e-01   3.02735213e-02   2.15268560e-01  -1.30217439e-01  -1.38328120e-02   1.65431609e-01   9.86952250e-02  -6.15428726e-02   1.95144774e-01  -1.36095367e-01   2.03397977e-01  -1.40008473e-01   4.05249413e-02  -2.65600583e-02   1.57412653e-01  -8.04876770e-02   1.40678777e-01  -1.13629449e-01   4.25766687e-02  -1.82227986e-01  -1.73207974e-01   1.74618746e-01  -4.04349035e-02  -2.86894962e-02  -1.07883041e-01  -3.40319553e-02   5.14846417e-02   2.81339502e-02  -1.55949126e-01  -1.44055904e-01  -1.71944838e-01   2.18411219e-01   9.99233392e-02  -1.16515431e-01   8.85487025e-02   1.50931861e-02   1.24942966e-01  -2.11278823e-02  -1.49434615e-01   1.12091687e-01   2.20689437e-01  -1.86110183e-01   2.40796065e-01  -1.35607864e-01  -1.82232028e-01  -1.79183767e-01  -1.83095127e-01   1.55497532e-02   1.13971171e-01  -5.74328902e-02   1.85883740e-01   8.80848165e-02   1.95491838e-01   1.82854207e-01  -1.59684618e-01   1.28761160e-01   7.83381802e-03   1.10918895e-01   7.55554578e-02  -9.01956633e-02   2.17554628e-01  -1.95860950e-01  -8.09073608e-02   1.09812239e-01  -1.77068143e-02   1.89277891e-01   8.79696814e-02   1.29916729e-01   7.33386236e-02  -9.57469493e-02   3.00554897e-02  -8.70366127e-02   1.37922953e-01  -1.71696331e-01  -5.72784712e-02  -1.49043212e-01   3.27278855e-02  -8.59396078e-02   2.03259945e-02  -1.24205928e-01  -1.63032916e-02   2.35416229e-01  -1.04200096e-01  -1.63887021e-01   4.16654976e-02   1.18926355e-01   2.88586798e-02   1.96250608e-01  -2.36607982e-01   1.44637727e-01   1.66798996e-01   4.40863212e-02   6.17019109e-02   1.51521343e-01  -1.26843370e-01   7.29609882e-02  -4.68860836e-02   1.42579167e-01   7.50252985e-02   1.56837018e-01   1.38672901e-02   2.43531727e-01  -1.37187824e-01  -2.81850522e-02   2.14771270e-01   2.13809349e-01  -1.49470686e-02   1.68766863e-01  -2.41395554e-01   1.57750146e-01  -1.97668869e-01  -6.57106582e-02   2.13458715e-01  -2.36331135e-01  -1.97400966e-01   2.29744066e-01  -2.87063858e-03  -2.35986416e-01  -2.02735961e-01  -4.96597052e-02  -1.14083238e-01  -6.88977089e-02   1.49039084e-01   4.98477436e-02  -2.17249336e-01  -1.99183619e-01   1.45556856e-01   5.70925219e-02  -1.53839389e-01  -9.99418912e-02   9.19647441e-02   9.32670679e-02   1.82210388e-01   1.70055882e-01  -1.56697965e-01   8.77194343e-02   1.55140179e-01   4.99538967e-02  -2.05787953e-01  -2.39442714e-01  -2.27635648e-01   2.64227513e-03   5.09251452e-03   5.79706803e-02  -1.80970083e-01   1.79322644e-03  -8.60494670e-03  -1.42435873e-01  -9.29981309e-02   7.17977307e-02  -1.48210083e-02   1.54758888e-01   6.92315181e-02   4.64660194e-02   1.84939421e-01   1.35157967e-01   2.35300253e-01   2.18023023e-01  -1.83871266e-01  -1.02933057e-01  -1.89588503e-01   6.09923038e-02  -1.75110070e-01  -2.21816545e-01  -6.61591665e-02   6.46649619e-02  -1.96795011e-01   2.99109722e-02  -1.96486550e-02   1.43111540e-01  -8.18446363e-02   1.88370750e-01   1.86430426e-02  -2.14530564e-01   2.23793924e-01   7.09371573e-02  -9.30429651e-02  -4.78418831e-02   2.34659687e-01  -7.96550917e-02   1.77509255e-01  -1.78694294e-01  -1.79133866e-01   8.03656804e-02  -2.15059571e-02  -1.13708262e-01   3.58578914e-02  -1.30217990e-01  -1.84034611e-01   2.15270550e-01  -2.21263351e-01   9.80009266e-02   2.83097328e-02   4.93207061e-02   6.06317062e-02   2.52944292e-02  -1.42313190e-03   1.17257939e-01  -2.25230232e-01   2.40587616e-01   8.93809726e-02   1.72704253e-01  -7.46112106e-02  -1.61762406e-01  -7.28749985e-02   1.70816813e-01  -2.40828152e-01  -2.01862033e-02  -6.20602442e-02   1.68529696e-01  -3.65546253e-04  -1.37841539e-01   1.36650973e-01   1.70899741e-02  -3.84820907e-02  -4.76130520e-03   1.28053301e-01  -3.60441569e-02  -9.84747154e-02  -2.12266723e-01  -1.41218987e-01  -1.90603861e-01  -3.20181043e-02   1.68758719e-01   2.07841923e-01  -6.59447634e-02  -2.40619812e-02   2.18676249e-01   2.39634728e-01  -2.41174985e-01  -1.04560952e-01  -1.01630925e-01  -1.60361678e-01   1.86582621e-01   8.30825027e-02   1.45713511e-01   1.65326720e-01  -1.56275523e-01   3.67519845e-02   2.04838268e-01  -1.73954424e-01   9.60463204e-02  -1.39836032e-01   1.54289839e-01   1.44123924e-01  -1.03152539e-02   8.66867949e-02   1.49615255e-01  -1.71087678e-01   1.68886821e-01  -2.09547491e-01  -1.95393668e-01  -2.10063829e-01   1.87429094e-01   4.92924012e-02  -2.22841813e-01   1.85667088e-01  -6.10301283e-02   4.67809700e-02  -1.22245840e-02   9.72060042e-03   1.35031359e-01  -2.37473467e-01   1.00718295e-01  -1.22051405e-01  -1.42749612e-01  -1.45470828e-01   1.29732319e-01   4.52876616e-02   8.23785552e-02  -1.59692027e-01   1.44480504e-01  -1.75954624e-01   6.11388927e-02  -8.69819219e-02  -8.77219057e-02  -9.26660723e-02  -1.97858696e-01  -1.86803532e-01  -5.07699288e-02   2.11128643e-01  -1.11969709e-01   1.80675725e-01  -2.04277776e-01  -1.32999114e-04  -1.26150463e-01  -1.42683545e-01  -9.49132676e-03  -1.20213385e-01   8.04189591e-02  -1.65374457e-01   8.10974196e-02   4.34715350e-02   9.07996016e-04   7.96985327e-02   2.31614936e-01   3.48355204e-02   1.90683965e-01  -5.73200278e-02   1.14455984e-01  -1.25536951e-01  -2.42844631e-01  -1.29585482e-01   1.25707797e-01  -1.68124438e-01  -4.65068097e-02  -8.72013965e-02   1.24455450e-01   9.12080327e-02  -2.52091271e-02   1.08717561e-01  -7.11458330e-02  -1.48554986e-01   5.39129633e-03  -1.86540271e-01  -1.83409304e-01  -6.02295108e-02   1.31145032e-01   1.24641035e-01   2.08645546e-02  -1.76896208e-01  -1.77025392e-01   2.35072293e-01  -1.98729751e-01  -1.78825695e-01   1.67880425e-01  -1.68044553e-01  -1.67105733e-01   1.20924437e-01  -7.10365970e-02   2.16196850e-01   2.31577489e-01  -2.42199528e-01  -1.95399157e-01  -1.08198956e-02  -1.05547364e-01   1.07852410e-01  -2.24698066e-01   1.16427088e-01  -2.21676169e-01  -2.07777465e-02   1.61032440e-01  -4.23962782e-02  -1.42845157e-01   1.00642608e-01  -2.33238857e-01   1.81624487e-01  -1.16698215e-01   2.27636350e-01  -1.60267208e-01   1.63213656e-01  -2.40196843e-01  -2.18434123e-01  -2.23022671e-01  -1.36537265e-01  -1.86380773e-01  -5.04162960e-02   1.46610567e-01  -5.90551824e-02   1.56009081e-01   1.43382476e-01   1.33799355e-01  -2.09185402e-01  -2.42780317e-01   2.34322680e-01   3.88829098e-02  -1.19121146e-01  -4.32296262e-02   1.76416027e-01  -1.88338186e-01  -1.30688276e-01   1.41796088e-01  -3.12708044e-02   1.15069214e-01  -7.90344504e-03   1.20109723e-01   2.41314511e-01  -6.67304518e-02   7.94959838e-02   6.79884325e-02  -8.52528733e-02   2.38548171e-01   1.56566210e-01   2.09460958e-01  -7.91886594e-02   1.56159096e-01  -3.08706691e-02  -5.67091531e-02   1.27533300e-01   2.29609096e-01   2.13753298e-01  -1.23379494e-01   2.22731210e-01   1.29493280e-01  -4.45153009e-02  -8.52720889e-02  -7.12441828e-02  -5.41353588e-02   1.52364121e-01  -1.40755155e-01  -5.48258328e-02   7.59365902e-02   1.97385671e-01  -1.03582355e-01  -1.90700429e-01  -2.20037209e-01   4.79201181e-02  -2.17658821e-01  -1.90543467e-01   6.60568182e-02   1.55597209e-01  -2.42273980e-01  -7.99001682e-02  -2.90128805e-02  -8.61370812e-02  -1.74311282e-01   1.99985700e-01  -2.36316415e-01   6.25566463e-03  -1.15308480e-01  -1.18995783e-01   9.32282526e-02   2.07867949e-01  -1.46013499e-01  -1.32771391e-01  -1.28751345e-01   1.00839518e-02  -7.91367212e-02  -5.44499330e-02   1.89855795e-02   2.43301213e-01   1.60657087e-01  -4.22811978e-02   1.32743927e-01   1.65688166e-01   1.43424134e-01   1.70950358e-01   1.02011706e-02  -1.44013302e-01  -2.36687339e-01  -8.62659614e-02  -9.55670241e-02   1.39602894e-01   8.87528308e-03  -1.38177865e-01  -1.57477941e-01  -7.34783022e-02  -8.06746565e-02   1.53248158e-01  -1.31388745e-02   1.69391573e-01  -1.35915960e-01  -2.00630408e-01  -1.52350234e-01  -9.75854909e-02   1.20016475e-01   1.90312940e-01  -1.92606893e-01  -2.18845137e-01   3.34185958e-02   1.15306532e-01  -1.78100473e-01   1.31239002e-01  -1.97817226e-01   2.17356204e-01   2.11403505e-01  -8.10965477e-02   1.42748513e-01  -7.22685556e-02  -1.30610657e-01   1.32681095e-01   9.30146652e-02  -1.01272893e-01   1.26390609e-01  -2.21272806e-01   1.61391664e-01  -1.77549027e-01  -1.27936275e-01  -2.34859133e-01  -1.96140247e-01   1.69327271e-01  -7.05848029e-02  -4.72693977e-02  -2.36268260e-01  -2.34911076e-01   1.55206593e-01   4.15622647e-02  -1.88293537e-01   1.79600049e-01  -1.64577769e-01  -5.44672779e-02   8.23501100e-02   1.64917856e-01   1.22259322e-02  -2.24331153e-01  -1.12576162e-01  -9.67401237e-02  -8.92974976e-02  -1.85708513e-01  -1.07366010e-02  -1.03474759e-01   1.09370959e-02  -7.92405968e-02  -9.46293098e-03   2.41295455e-01  -1.44311473e-01  -1.78475528e-01  -5.71436214e-02   2.04864719e-01  -2.00436929e-01  -1.22174356e-01  -2.49774814e-02  -2.22605878e-01  -3.10865827e-03   2.09424654e-01  -1.67119282e-01   1.06502610e-01   7.44746046e-02  -6.53718869e-02   1.35995459e-01  -6.18737528e-02  -1.86684650e-01  -8.89311932e-03  -2.31898576e-01  -1.44202291e-01   9.47214833e-02  -2.23978132e-01   2.16899426e-02   3.79430487e-02   1.49450745e-01  -2.04605659e-01  -2.15974588e-01   1.52156026e-01   1.29961788e-01  -1.80172595e-01   2.23949359e-03  -1.38805392e-01  -8.78108466e-02   1.30970769e-01   2.23384248e-01   1.71901719e-01   1.42384820e-02  -8.11792884e-02  -1.36071304e-01   2.22986415e-01   6.04144574e-02  -1.01037356e-01  -2.03544410e-01  -2.35885598e-01  -9.50597346e-02   5.43490982e-02  -5.43694515e-02   6.41601239e-02  -1.16842911e-01   6.66610755e-02   7.84392389e-02  -1.35782605e-01   1.30501845e-01   1.84012396e-01   9.81589714e-02   1.62955052e-01   1.81139628e-01   1.68049170e-01   5.80127004e-03  -1.92209838e-01   5.08387073e-02   1.97841322e-01  -1.42872547e-01   1.21355107e-01  -2.45749951e-01  -3.53458730e-02   2.25161419e-01  -2.81059149e-02   2.10660356e-01  -1.88836621e-01  -2.11081770e-01  -8.39599270e-02   1.42391327e-01   7.57045068e-05   8.87617532e-03   2.69177737e-02  -3.32949103e-02   7.17677393e-03   1.84382632e-01   1.40263637e-01   1.40903834e-01  -2.59194549e-01  -1.82510631e-01   5.35316295e-02  -2.97601273e-02  -7.28593420e-02   2.08911618e-01   8.87272200e-02  -2.26904841e-01   1.00450436e-01   1.17549719e-01  -2.21247239e-01   4.13992617e-02  -2.31668581e-01   1.95613494e-03  -5.78944974e-02  -1.60733904e-01  -3.21805425e-02   6.32816234e-02   9.93736020e-02   1.88841048e-01   6.18712980e-02  -1.30049168e-01  -1.53306894e-01  -4.26187466e-02  -1.73134672e-01   2.03136365e-01  -1.99864102e-01  -1.59726704e-01  -1.19517795e-01   2.36359880e-02  -1.84109445e-02   6.36061735e-02  -2.51045945e-01  -1.44118171e-01  -1.81301123e-01   9.99813860e-02   3.89918705e-02]
[ -2.57059646e-02   1.79422081e-01  -3.00549620e-02  -1.20298979e-02   1.25560176e-01   5.74995099e-02   2.06585270e-02   2.47245095e-02  -9.99314512e-02  -4.22133339e-02  -8.64472864e-02  -9.04633981e-02  -1.63050114e-01  -1.55402309e-01  -3.94720514e-02   9.53580911e-02   1.53750116e-01   6.24299627e-02   1.06275843e-01  -6.70201990e-02  -5.27313135e-02   3.30071117e-02   1.54169647e-01  -1.08190325e-01   5.98637712e-02  -4.47594038e-02   1.22842019e-01   6.12850130e-02  -1.32790423e-01  -5.83018789e-02  -5.66047790e-02  -9.56799273e-02   1.58771656e-01   4.55038909e-02   7.75300184e-02   1.08384962e-02   5.56969163e-02   1.41041792e-01   2.35933961e-02  -1.30708406e-01   1.38593033e-01   1.78106374e-01   2.79225673e-02  -7.22137419e-02  -1.82980691e-02  -9.09101642e-02   1.71514292e-01   1.11930298e-01   8.98568328e-02   7.59752239e-02   4.47186066e-02   6.05791910e-02  -8.12648406e-02   5.63516775e-02   1.83204906e-02   2.61687025e-02  -1.30489383e-01   1.80809468e-01   1.54732270e-01  -1.02045688e-01  -4.83461525e-02   1.43179970e-01   4.67984114e-02   1.80675670e-01  -1.95965466e-02   1.50581744e-01  -9.07364144e-02   1.46795557e-01   1.06120877e-01  -9.66514230e-02  -3.43217505e-02  -1.44848421e-01   1.03734384e-01   1.67609839e-01   9.97942425e-02  -8.94469824e-02   1.33506447e-01  -1.21407083e-01  -1.14265910e-01  -2.67206045e-02  -7.89820131e-03   2.00769476e-02   1.01318369e-01   1.78681574e-01  -9.11885923e-02  -1.34049541e-01   9.65248973e-02   9.48210141e-02   1.79991016e-01   1.10640509e-01  -6.89480199e-03  -7.12840992e-02  -6.99142187e-02   1.11221014e-01   2.84675029e-02  -9.49999230e-02   5.98881282e-02  -1.26652109e-01  -2.71835643e-02   1.53403419e-01  -3.80284237e-02   2.89434377e-02  -1.03502257e-02   1.10730133e-02  -3.84960799e-02  -1.15584636e-01  -1.47523209e-01   1.64119701e-01   1.28554839e-01  -9.29317700e-02  -1.30865174e-01   1.20879465e-01   4.18251051e-02   4.12166367e-02  -8.06470376e-02   1.41420268e-01  -8.26613125e-02   2.63844645e-02  -1.45331963e-01  -1.00477759e-01   3.36910800e-02   1.67426813e-01   8.94366302e-02   1.13605644e-01  -4.47295320e-03   1.38453480e-01   3.60628910e-02  -4.31243712e-02   1.86285563e-01   8.75854053e-02   1.19219834e-01   8.23026089e-02  -4.14401778e-02   9.33668998e-02  -5.86822213e-02  -1.13491968e-01  -1.33612754e-01   1.05180794e-02   1.04450708e-01  -2.08688890e-02  -2.81966946e-02   1.44329263e-01  -1.32911406e-01  -1.03062662e-01   1.69021341e-01   8.36376658e-02  -7.70687164e-02   1.65147859e-01  -8.27195803e-02   1.59478028e-01   3.03958623e-02   1.18098622e-01  -6.12161279e-02  -3.52968614e-02  -1.39751098e-01   1.06519193e-01   5.41504756e-02  -5.29430479e-02  -1.57634521e-01   1.23463222e-01  -1.47523558e-01   1.56751384e-01   1.09214835e-01   1.02107183e-01  -4.06829785e-02  -3.69363294e-02  -3.40295497e-02  -1.01445990e-01  -2.46783835e-02  -7.28624467e-02   1.17040469e-01   9.76661214e-03   2.19874086e-02   1.58466798e-01  -1.50201367e-01   3.68070988e-02   1.68213398e-01   7.90200563e-02  -3.46739204e-02  -9.70331506e-02   1.22707256e-01   1.23272065e-01  -4.28929924e-02   2.91235884e-03  -1.48411858e-01   1.33856475e-01  -1.88719714e-02  -7.12273529e-02   7.19447503e-02   1.08577998e-01  -6.26293252e-02   1.45528468e-01   2.95295188e-02   2.90401613e-02  -1.04770531e-01  -5.61371804e-02  -7.67762967e-02   3.54197483e-02   1.81207119e-01  -1.52518311e-01   1.26711882e-01   6.40114743e-02   1.11413171e-01  -1.63263878e-03   8.11908187e-02  -1.06134331e-01   1.58088410e-01  -6.89915560e-02  -1.44359043e-01  -2.67165368e-02   1.79091602e-01   1.13675358e-01   1.55881852e-01   4.17759436e-02   1.68173709e-01   8.16409639e-03   1.96220094e-01   1.67883018e-01   8.09227529e-02  -7.74655170e-02   1.77910097e-02   1.38959182e-01   1.69886835e-01   7.97249342e-02  -2.67132204e-02   1.81445637e-01  -1.15204349e-01  -1.23727059e-01   1.90313645e-02   1.36766680e-01  -1.38715240e-02  -4.16466709e-03  -5.20751514e-02  -1.01647595e-01  -1.15960460e-01   1.23086322e-01   1.57932458e-01  -1.27333864e-02  -3.88921410e-02   4.77926725e-02  -6.36825544e-03   1.21493599e-01   6.54970621e-02   4.31331230e-02   1.86074712e-01  -1.00688371e-02   1.76103158e-01   1.15976741e-01  -1.31202239e-01  -9.11265050e-03   1.86758950e-01   1.25569530e-01  -6.45051609e-02   1.21486431e-01   2.56707903e-02  -9.72727997e-02  -4.41645163e-02  -1.06998468e-01   9.98216754e-02  -2.12484344e-02  -1.32796593e-02   1.68742268e-01   1.30728577e-01  -4.93464236e-02  -1.13260305e-01   1.09799936e-01  -2.19230843e-02   1.55184516e-01   1.80148524e-01   1.36436142e-01  -1.17847864e-01  -1.18946106e-01   7.99499370e-02  -1.50708933e-01   1.08455276e-01   1.00027265e-01  -6.35810249e-02   7.66277244e-02  -4.38971249e-02   7.37667334e-02  -1.92075203e-02   1.10208017e-01   2.95593348e-02  -1.25239671e-01   1.10157720e-01   2.35042441e-02  -3.06542074e-02  -9.22758334e-02  -2.11499629e-02   6.29194133e-02   7.18261303e-04  -1.51447910e-01  -5.14734795e-02   1.76869355e-01  -9.99719837e-02   8.99991631e-02   4.44798682e-02  -1.69460065e-02  -8.63112972e-02   1.58242282e-01  -1.28500096e-01   1.59133331e-01  -1.19846467e-01  -5.10548501e-02   1.45680346e-01  -2.93488319e-02  -9.92204711e-02   1.58902014e-01  -5.68950836e-02  -1.32626691e-01  -1.08297322e-01   6.30227231e-02  -9.32548728e-02  -1.32218417e-02  -2.12638982e-02   9.25394673e-02  -9.87403821e-02  -3.40359077e-02  -1.40682963e-01   8.75970605e-02   3.37441238e-02  -1.08112604e-01   1.87113726e-01  -1.98538821e-02   1.70860449e-01  -2.60787139e-02   4.10172733e-02   1.51161183e-01   1.07691108e-01  -4.55951499e-02  -1.66232238e-01  -7.39258547e-02  -4.16242364e-02   9.47148716e-02   1.56498150e-01  -8.88261234e-02  -1.62939616e-01   1.78983865e-01   2.26496335e-02  -2.60742720e-03   7.10080951e-02   1.56365967e-02   1.18759527e-01   5.48594450e-02   9.78001784e-02   3.27116349e-03  -1.51606535e-01  -3.38266659e-02   1.04524743e-01   1.20257934e-01  -3.98150279e-02  -5.82888126e-02  -7.28235301e-02   2.63278310e-02   1.47073519e-01   1.38015504e-01   1.56593122e-01  -3.11719930e-02   1.04378095e-01   1.63080736e-01  -1.45749760e-01   4.48301112e-02  -1.22658590e-01  -1.75386994e-02  -5.38274289e-02   7.20952443e-02  -1.60364173e-01  -1.61922992e-01  -9.23850036e-02  -1.66409363e-01  -1.28704476e-01   3.72424972e-02   1.18851456e-02  -1.27462067e-01   1.19763266e-01   1.26624798e-01   1.12591403e-02  -6.88764189e-02   8.36596719e-02  -7.88996062e-02   1.54783115e-01  -1.43643353e-01  -8.44601475e-02   8.77474964e-02   8.83327601e-02  -8.20142254e-02   9.78508061e-02  -1.18394872e-01   6.98427508e-03  -9.43417910e-02   1.75962150e-01   2.82734027e-02   8.89559952e-02  -9.29104280e-02   1.17500220e-01   1.46100396e-01   4.27688715e-02  -1.16019036e-01   3.39993857e-03   1.25619076e-01  -1.54787953e-01   1.84836769e-02   9.72548836e-02  -1.13004029e-01   8.73763205e-02  -4.54675808e-03  -1.08447822e-01  -7.08182185e-02   1.70714562e-01   1.19961614e-01  -8.72697534e-02  -1.37276398e-01   6.68838643e-02   4.14053787e-02   6.92167847e-02  -2.76648396e-02  -1.63881467e-01   6.65390361e-02   1.47903258e-01   1.60877216e-01  -7.46125368e-02   1.43475910e-01   1.76270675e-01   1.48118864e-01  -1.12977688e-01   1.59269025e-01   1.21560542e-01   6.42475345e-02   2.59390644e-02  -3.09812633e-02  -9.84915011e-02   1.12139084e-01  -1.11446491e-01   7.40214097e-02  -1.39392202e-01   3.91842126e-02  -1.29181431e-01   2.85602220e-02  -1.51046176e-01   1.34388665e-01  -1.94383821e-02  -1.38421359e-01   6.67797113e-05  -5.75057298e-02   1.12250985e-01  -4.94870554e-02   1.09228885e-02   5.96404102e-02   9.65678830e-02  -6.21644155e-02  -7.32480301e-02   4.10558651e-02   8.45596568e-02   8.85168016e-02  -1.20489715e-01  -7.14310151e-02   4.20041643e-02  -3.35374564e-02   1.68576125e-01  -1.51434034e-01   1.69851336e-01  -8.57022485e-02  -1.28442593e-01  -9.83165704e-02  -8.98019495e-02   6.92898394e-02  -1.58682825e-01   8.94522412e-03   5.62206228e-03  -5.07014935e-03   4.56235407e-02   7.48547214e-02   1.22778774e-01  -2.72588904e-02  -4.99448920e-02  -7.97125001e-02  -8.23961801e-02  -7.73843622e-02   1.30611195e-01   6.94621494e-02   1.28647814e-01   7.87622697e-02  -1.40813257e-01   6.39361383e-02  -3.07720827e-02  -5.61721314e-02   1.75156169e-03  -9.12584813e-02   1.03769942e-01   6.77097555e-03  -3.40505476e-03   8.79249838e-02  -4.46646203e-02   1.43665295e-01  -4.79893912e-02   1.32783159e-02   1.19162537e-02   3.02895230e-02   1.56426201e-02   6.87586313e-02  -1.30664718e-01  -1.48486444e-01  -6.57790835e-03  -9.37734902e-02   1.35807245e-02  -6.95412999e-02   1.83200062e-01  -1.50668353e-01  -5.78009064e-02  -1.17685999e-01   1.22552305e-02   5.19102843e-02   1.17181488e-01   3.48842132e-02  -6.98497857e-02   5.78637126e-02   5.42172673e-02  -5.59336856e-02  -1.38980956e-01   1.09928801e-01  -1.44771295e-01   8.37357160e-02  -4.82774707e-02   1.68556048e-01   1.20753543e-01  -6.69894286e-02   9.74258244e-02  -5.22449622e-02  -2.40515085e-03   1.58104167e-01   1.09908276e-01   1.01421566e-01  -3.42539644e-02   1.01861854e-01   1.89435149e-01  -4.40902423e-03  -6.91373128e-02  -1.14413954e-01   1.39474853e-01  -4.37822382e-02  -3.47018773e-03   1.12241850e-01  -1.43786337e-01   1.26005740e-01   1.39098338e-01  -2.46084151e-03   1.38729131e-01   9.88782375e-02  -1.03087689e-01   9.10013750e-02   1.03190042e-01   5.22723595e-02   1.32506857e-01  -1.04076369e-01  -6.42318037e-02   4.86041266e-02   1.45164173e-01   1.99454420e-02  -1.08324631e-01   1.28207447e-01  -1.21018406e-02   1.43502549e-01  -1.18002175e-01   1.58890357e-01  -4.44772371e-03  -1.24891700e-01   1.65021017e-01   1.39930644e-01   8.70752128e-02   1.66813529e-01  -9.89048534e-02  -1.13396707e-01  -6.25827991e-02  -1.39140012e-01  -1.87620313e-02   1.60339720e-02  -3.47789579e-02   4.62182451e-02   5.29395775e-02   8.27540563e-02   1.22792166e-01  -7.69808992e-02   9.51257411e-02  -1.28180516e-01   1.84385637e-01  -1.13167357e-01   6.67980139e-02  -5.57266355e-02  -1.21858627e-01   4.57427666e-02  -1.12364163e-01  -3.70172813e-02   1.82676230e-01  -1.29958520e-01   1.01036701e-01   2.22459325e-02   2.31997524e-03  -9.62953730e-03   9.28967721e-02   5.83043082e-02   7.17649604e-02   1.24925177e-01   1.23037711e-01   6.86518304e-02  -9.78095491e-02   1.53364663e-02  -1.52807225e-01   1.22612299e-01   1.46496040e-01   1.49795953e-01   1.44632280e-01   2.24503529e-02   1.10275943e-01  -4.93259873e-02  -1.01085736e-01  -6.33825915e-02   1.59560389e-01  -1.32275621e-01   1.94587669e-01   8.17615117e-02  -1.02902382e-01   6.74029386e-02  -1.97837883e-02  -3.36985801e-03  -1.23590006e-01  -4.55892791e-02   7.51335363e-02  -2.55234212e-02  -7.68726821e-02   1.54357433e-01   1.81283378e-02   1.76428789e-01  -8.33183689e-02  -3.14558246e-02   4.67041685e-02  -7.01041869e-02   1.24087443e-01  -4.70126058e-02  -1.20250538e-01  -4.97624797e-02  -8.19651859e-02   1.60576530e-01  -8.44806307e-02   1.00651811e-01   6.38147869e-02   1.45652548e-01   1.78591798e-01  -3.41317684e-02  -1.44511627e-01   8.01045808e-02  -1.03092346e-01   1.73927373e-01  -8.88880140e-03   2.26370503e-02   1.47199741e-01   6.71665895e-02   7.01287511e-02  -1.29715264e-01   4.82985844e-02   1.28128589e-01  -8.12374645e-02  -4.73253830e-03  -1.14162154e-01  -1.24332336e-01  -7.20505312e-02   7.71308633e-03  -5.32790562e-02   9.83353873e-02   9.74836649e-02  -2.95284445e-02   3.09957217e-02  -4.76295859e-03  -6.07028674e-02   1.27531297e-01   5.64379066e-02  -2.89258565e-02  -4.36846886e-02   1.61750707e-01  -3.22942046e-02   5.78211384e-02   1.62471081e-01   5.42047276e-02  -1.29167311e-01   8.75768937e-02   1.40100076e-01  -1.23713750e-01   2.49477300e-03  -7.56838998e-02   1.18452192e-01   3.48505029e-02  -1.15426913e-01   1.41896193e-01   1.62019852e-01   5.25162608e-02  -2.86099663e-03   8.62041350e-03  -1.42232512e-01   6.25213380e-02  -1.38046339e-01  -1.53130870e-01  -1.01568253e-01  -4.52144417e-03   5.82858087e-02  -1.05879719e-01  -1.13186076e-01  -3.67704572e-02  -1.08698581e-01  -1.68175841e-01  -1.50776653e-01  -3.53559016e-02   1.49883949e-01   2.96935605e-02   5.64877350e-02   1.14922817e-01   1.19777028e-02   5.46548331e-02   5.80034577e-02  -1.68766567e-01  -8.47027663e-02   9.51836004e-03   1.29182191e-01  -1.60163426e-01  -1.34270721e-01   1.25864090e-01   4.66404739e-02   1.20855374e-01   7.15421948e-02   7.70552343e-02   4.40293165e-02   9.73844092e-02  -1.07398843e-01   2.07797654e-02   9.47229493e-02   1.92596448e-02   1.67781893e-01   1.18842649e-01   5.44835550e-02  -1.13171664e-01  -1.64070123e-01   1.70957391e-02  -4.15801137e-02   6.38779659e-03  -1.14928164e-01  -4.33363857e-02  -9.35591371e-02  -1.04178884e-01  -1.46888646e-01   2.25770941e-02  -3.59246113e-02   1.56363445e-01  -2.83366454e-02   2.37955201e-02  -4.80498299e-02   1.38323277e-01   4.63003343e-02   1.36049716e-01   1.38117417e-01   5.97071668e-02  -8.32118397e-02   8.85391205e-02   1.57692777e-01   1.14812223e-01  -8.30660247e-02  -8.13455685e-02  -1.31180090e-01   7.33316598e-02  -6.58074259e-02   1.37572173e-01  -2.26263229e-02   1.14056498e-01   1.24001302e-01   4.78048018e-02  -6.30087826e-02  -1.05726842e-01  -8.41761664e-02   9.64157579e-02  -7.17951843e-02   1.74474035e-01  -2.98939058e-02   1.53834236e-01  -1.48047702e-01   1.28504675e-02  -4.82815096e-02  -1.44496218e-01   5.68557871e-02  -6.97039817e-03  -8.78130085e-02  -1.53903403e-01   9.25386760e-02  -9.22289557e-02  -1.62330777e-01  -8.95146130e-02  -1.21868478e-01   2.47045519e-03   6.32796115e-02  -3.27899129e-02   4.69484421e-02   3.75272485e-02   8.49248603e-02   9.10468934e-02   1.01800729e-01  -3.22768630e-02  -1.55369730e-01   1.49518000e-01   1.22254161e-01  -1.36780291e-01   1.31695371e-01   1.52218499e-01   7.98734724e-02   1.47293876e-01  -3.91385291e-03   1.58255690e-01  -4.60200232e-02  -1.12847983e-01  -1.13606360e-01  -1.71062658e-01  -2.55479811e-03  -1.28211949e-01   8.06944142e-02   1.21229210e-01  -9.79925899e-02  -1.67799880e-01   1.02721094e-01  -1.23527885e-01   1.74416485e-01   1.67602917e-01  -1.68167478e-01   7.30710584e-02   1.47729042e-01  -1.02238302e-01  -8.22843200e-02  -4.22459477e-02  -1.10325568e-01   4.29924330e-02   1.13391201e-01  -2.12537131e-02   1.74960558e-01   4.61116832e-02  -8.97821082e-02   1.46100529e-01  -2.35968950e-02  -1.46745339e-01  -1.90207408e-02  -5.82734688e-03  -1.67589689e-01   7.16581420e-02   3.48337805e-02  -1.00621163e-02   6.14019868e-02  -1.23991336e-01  -5.80380354e-02   3.54332760e-02   1.26733618e-02  -8.11992997e-02  -1.46594622e-01  -9.89946299e-02   2.53387193e-02   7.57299554e-02   3.92771776e-02   5.50105728e-02  -9.24427271e-02   1.09868746e-02   4.27841604e-02   2.44193120e-02  -4.46377619e-02  -2.13039936e-02   3.91487647e-02  -1.44435427e-01   1.06033277e-01   6.42921456e-02   1.28587433e-01  -9.53857802e-02  -6.95875498e-02  -1.99540349e-02   1.10615327e-01  -1.25482322e-02  -1.22598632e-01   1.25468542e-01   1.20303572e-01  -4.78375832e-02   1.42588784e-01  -1.44253010e-01   1.27185578e-01   3.98441930e-02  -1.47381190e-01  -1.04778956e-01  -9.02332176e-02  -1.44634514e-01   9.44508243e-02  -2.36982645e-02  -1.12043356e-01   1.23009102e-01  -7.05387565e-02  -1.55372301e-01   9.81189092e-02  -1.28334396e-01  -2.65408429e-02   1.72859969e-01   1.80115387e-02   1.05510444e-01   1.43507705e-01  -3.52789673e-02  -9.92883841e-02   1.03789224e-01   1.61595657e-01  -9.86068049e-02   8.84888946e-02  -9.90664308e-02   7.84354957e-02  -8.37122792e-02  -1.38792344e-01  -4.41821737e-02   2.47294979e-02  -5.45813607e-02   1.46947993e-01   6.95564483e-02   3.03942727e-02   1.33825649e-01  -2.00156998e-02   1.68940171e-01   1.30680386e-01   1.17621362e-01  -1.33490521e-01   3.86234220e-02   1.68719061e-01   1.11280555e-01   1.50860726e-01  -7.78935437e-02  -1.63510875e-01  -1.06178304e-01   1.57280319e-02  -6.51430047e-02   4.54812818e-02   5.33374314e-03  -3.03665952e-02   1.70005679e-01  -1.25547268e-01  -8.41021066e-02   1.67989866e-01  -2.37514930e-02  -1.55653717e-01   1.17238981e-01   7.19019236e-02  -1.71862359e-01  -1.38339171e-01   5.53477968e-02  -1.00331982e-01  -3.88078031e-02  -1.17849920e-01   1.22144556e-01   9.88209646e-02  -1.50423467e-01   6.27567698e-02  -1.43292166e-01  -1.27769344e-01   8.10648821e-02   1.14985876e-01   2.79391271e-02  -9.65627737e-02   6.37339786e-03  -7.01324660e-02  -4.45188710e-02   7.62458210e-02   8.01339365e-02  -1.63186550e-01  -5.30626456e-02  -1.46297102e-01  -1.07269817e-01  -1.47260976e-01   1.64009569e-01   6.91842406e-02   1.25731255e-03  -4.79206952e-03   1.57644169e-01   5.92299748e-02  -9.17463112e-02   7.22495033e-02   1.56716961e-01  -3.58398738e-02   1.90560527e-02   6.16694998e-02   1.24754224e-02   6.24798029e-02  -1.35596863e-01  -1.03895878e-01   1.05377220e-01   5.67777623e-02   1.88198694e-01   1.41510595e-01  -4.88340969e-02   2.36524686e-02  -6.70597366e-02  -3.64757433e-02   2.49094122e-03  -1.38827908e-01  -9.19371062e-03  -8.17724477e-02   5.15115503e-02   2.71027679e-02  -1.10142537e-01  -6.48872123e-02   5.88505596e-02   1.67349589e-01   9.65547718e-02  -7.91788351e-02  -3.44246845e-02   1.07327876e-01   7.94853792e-02  -1.51302344e-03   5.76659793e-02   5.69811811e-02   1.73501580e-01   1.44968537e-01   1.57208157e-01   1.41161827e-01   7.77536148e-02   4.59696222e-02   7.13160775e-02  -1.31388212e-01   1.50145712e-01  -6.37029060e-02   2.93027305e-02  -7.26852272e-02   1.57418141e-01   2.80917642e-02   1.95710773e-03  -1.22091884e-01   1.70814699e-01   8.90246355e-02   5.63359065e-02   2.56912123e-02   1.70646202e-01   6.17845769e-02   3.42080087e-02   1.43923021e-02   4.67852910e-02  -8.27997823e-02  -7.92964507e-02  -1.42743588e-01   8.74122765e-02  -5.06147344e-02  -1.13800281e-01   1.79385716e-01   1.42877329e-01  -8.78601750e-02   1.26337338e-01  -1.29279226e-01  -8.10614590e-02  -1.37894521e-01   1.28962894e-01   1.72535552e-01  -3.70779129e-02  -1.18892035e-01   7.97900947e-02  -6.48684337e-02   1.79885329e-01   9.92497571e-02   1.12243159e-01   5.52046530e-02   1.38765004e-01  -6.05806642e-02   9.90945702e-02   2.28354562e-02   7.74953289e-03  -3.40078904e-02   1.37678975e-01  -7.05562982e-02  -5.94163159e-02  -1.30827600e-01   1.03657962e-01   1.03234568e-01   1.29334238e-01   1.91854589e-03  -1.19985451e-01  -1.44988053e-01   1.30628195e-01  -4.78225350e-02   1.82626878e-02  -3.06525799e-02   8.20940887e-02   1.57725223e-01   1.20363284e-01  -4.07697610e-02   8.91523570e-02  -1.55525062e-01   1.08671909e-01   9.66716197e-02   1.54499107e-01  -1.22707986e-01   6.68946232e-02  -7.67612913e-02  -7.34135002e-03  -7.68157454e-02   1.69313463e-01   1.20245673e-02  -3.95041282e-02  -1.77329238e-02   9.75770533e-02   4.96252673e-02  -4.29642719e-02  -4.00105344e-02   1.86614626e-01   1.15215116e-01   1.60817918e-01   1.48888925e-01  -3.55211379e-03   7.03595740e-02  -6.82585808e-02   1.03944536e-01   1.76478680e-01  -1.60865024e-01   2.78904112e-02  -1.36972236e-03   1.65600813e-01  -5.04091118e-02  -6.62269873e-02   7.38249908e-02   1.69631937e-01   4.86345828e-02  -9.91230102e-02   1.79848600e-01  -5.02728613e-02  -1.12699494e-02  -1.04272734e-01  -5.65308513e-02  -1.31698164e-01   7.78351171e-02  -2.78351552e-02   4.85148630e-02   1.19661412e-01   5.37990707e-02  -3.72700887e-02   1.59568345e-01   1.06016150e-01   8.69849965e-02  -7.90965157e-05   1.25736112e-01   1.22893753e-01  -7.01508161e-02  -3.35325335e-02   4.56396062e-02  -6.28804144e-02  -3.59106923e-02   3.14473329e-02  -1.45189441e-01   6.48493080e-02  -3.29079020e-03   1.02389551e-01  -4.21965491e-02  -5.54683753e-02  -1.31349286e-01  -8.99326441e-02  -1.06384917e-01  -5.45645981e-02  -1.37414903e-01   1.50548769e-01  -7.62368572e-02   6.05785853e-02   1.72192205e-01  -3.36617631e-02   1.69647431e-01  -4.89508360e-02  -1.38642766e-01  -1.48612147e-01   1.06822578e-01   2.03706202e-02   1.60329045e-01   7.37245450e-02  -2.50899065e-02  -7.89629983e-02   6.01229386e-02   2.56562291e-02  -7.24780794e-02  -6.67611812e-02   8.10869663e-02  -1.01862476e-01  -8.98639954e-02  -1.66282606e-01  -1.67474407e-01   1.74038516e-01  -9.56726802e-02   1.21467983e-02   7.60537853e-02  -3.14127314e-02  -1.50603230e-01  -7.99124833e-02  -1.23682475e-02  -8.43428988e-02  -4.56151712e-02  -3.50601963e-02   8.01280997e-02  -3.40628013e-02   5.89955412e-02   9.53344909e-02  -2.69038689e-02  -5.32893772e-02   2.02498936e-02  -7.69060791e-02  -1.71587474e-01  -1.30707309e-01   1.18434306e-01  -1.01567040e-01   1.61867270e-01  -2.82241062e-02  -1.45973968e-01   8.99050391e-02   5.43733400e-02  -1.18386167e-01   3.62920685e-02   1.67286290e-02  -1.18317344e-01   7.62905192e-03  -6.42227009e-02   1.35305837e-01   3.91086830e-02   1.40217870e-01  -1.67975453e-01   1.71373287e-01  -1.09404043e-01   5.54762099e-02   1.85679297e-02   1.64083108e-01  -3.87244863e-02  -7.36855523e-02  -9.79374983e-03  -1.86933236e-02   1.66220253e-01   8.00086209e-02  -4.86876242e-02  -9.52541960e-02  -5.62869247e-02  -1.49680694e-01   8.84063142e-02  -2.37185642e-02   7.58852793e-02   3.83356987e-02   5.50904917e-02   5.95662654e-02  -1.23483149e-01  -3.22589382e-02  -3.57165314e-02   1.12482962e-01  -6.22035367e-02   4.20258896e-02   5.14483235e-02  -4.39256190e-02   8.63257989e-02  -2.48112632e-02   5.60512250e-02  -1.49888930e-01   6.38940616e-02   1.42972502e-01  -1.11295146e-01   1.10099397e-01  -1.10425008e-01  -1.45612332e-01  -1.10123434e-01   3.35876325e-02  -1.02224714e-03  -7.06146411e-02  -1.66446326e-01   9.69741495e-02  -8.31812542e-02  -3.14520430e-02  -1.70852334e-01  -8.72198398e-02   8.86021587e-02  -1.68746699e-01  -1.09576069e-01  -4.58209168e-02  -4.71042450e-02   1.68170720e-01   7.99704160e-02   8.61967480e-02   1.68745055e-01  -7.01730808e-02  -8.15860024e-02   9.68840584e-02   1.07696475e-01  -7.55644931e-02   2.53332480e-02   6.42966751e-02   1.26585452e-01  -9.45281938e-02  -8.14888106e-02  -3.07348680e-02  -3.21563146e-02   2.92195205e-02  -1.04271377e-01  -2.46735991e-02  -1.69837779e-01   7.97084662e-02   3.45706206e-02  -8.68254433e-02   7.91492512e-02  -1.23011305e-01   6.25973798e-02  -1.36322521e-01   1.17978497e-01   1.40392156e-01  -1.71191955e-01   1.46779267e-01  -8.52625746e-02  -4.47523559e-02  -8.95683811e-02  -1.43921704e-01   1.09738510e-02   8.80786912e-02   1.43453325e-01   3.00698227e-03   1.57419532e-01  -6.42227314e-02   7.16758617e-02   1.14438164e-01   8.05207684e-02   1.42560632e-01   1.23492965e-01  -1.00285114e-01   7.77451479e-02  -1.99752455e-02  -8.98132832e-02  -2.09217046e-02  -4.75839563e-02  -1.34773252e-01  -1.15783589e-01   6.73167277e-02   1.25185912e-01  -1.19417685e-01   1.34395937e-01   1.60837444e-01  -4.06842094e-02   1.07364825e-01  -1.27561584e-01  -1.13954287e-01   6.04964873e-02   1.14756282e-01  -8.88732474e-02  -4.49845621e-02   1.35247844e-02  -5.81604612e-02  -1.35537337e-02  -1.15422908e-01   9.08598550e-02  -1.72265929e-01   4.78072420e-02   7.25262819e-02  -1.28706640e-01  -1.16565226e-01  -2.25675466e-02   1.36650028e-01   8.67335128e-03  -7.90352041e-02  -1.56167935e-01  -8.46125645e-02   8.33787225e-02   4.02936960e-02   1.46911070e-01  -5.59101116e-02   9.12158705e-02   8.46216115e-02   5.48644179e-03   2.13644167e-02   5.52394353e-02  -6.18760072e-02   4.66463174e-02   5.44616902e-02  -1.08271839e-01  -1.53784420e-01   1.55482783e-01   3.51842150e-02   1.02396535e-01  -2.38243051e-02  -1.80746101e-03  -1.37190560e-02  -7.02071712e-02  -1.71144705e-01   1.27559400e-01   1.36966486e-01  -1.39981667e-01   1.04297615e-01   1.84782336e-02  -1.50438480e-01   1.54729229e-01   7.85329983e-02   3.58790046e-02  -7.31329380e-03   8.26373256e-02  -1.70143475e-02   1.11104692e-01   2.94658224e-02   4.38755064e-02  -8.37327159e-02  -1.19192658e-01  -1.26296349e-01  -1.59597121e-01  -1.22523645e-01  -1.28918965e-01  -6.29521102e-02   8.22018617e-02   1.56933646e-01  -2.84465273e-02  -1.72805127e-01   9.80742975e-02   1.34793123e-01  -2.20699105e-02  -5.55154813e-03   5.85245968e-03  -1.39143791e-01  -1.17059268e-01   1.55948169e-01  -1.62165080e-01   1.57297376e-01  -1.47892193e-01   1.21536084e-02  -9.96027161e-02  -1.15838349e-01   2.21123938e-02  -8.62623837e-02  -3.60787968e-02   5.24043994e-02  -1.64274094e-01  -1.76932548e-02  -4.57634162e-02  -1.51087415e-01  -4.59889033e-03  -8.56909035e-02   1.24472004e-01  -5.67622295e-02   1.60253631e-01  -1.27318682e-01  -6.98558534e-02  -7.08694040e-02   1.29758989e-01  -8.94120201e-02  -7.37205472e-02   1.44910206e-01  -1.44903113e-01  -1.60473116e-01  -6.16316387e-03   1.44720104e-01   1.40421044e-01   1.34091076e-01  -1.47587654e-01   1.80753731e-02   8.79481064e-02  -1.45358457e-01   4.90798170e-02  -1.45705217e-01  -1.46930794e-01  -1.36762175e-01  -1.29120981e-02   1.53178136e-01   1.04266651e-01  -8.85724776e-02   1.60639051e-01   1.54944315e-01   8.43712776e-03  -9.83325373e-02   3.82506612e-03   1.54230541e-01  -1.09600125e-01  -4.26531493e-02  -8.00433995e-02   3.52239543e-02  -4.42009189e-02   9.67190123e-02  -5.82524707e-02  -1.26807917e-01   2.65496330e-02   1.37534506e-01   4.07931520e-02   2.71308511e-03   2.08661913e-02   1.53440798e-02   7.09673902e-03   7.08307619e-03   1.76480166e-01   1.69693527e-01  -7.80464072e-02   6.76388937e-02  -3.02757908e-02   1.63903507e-01   1.09707095e-01   9.82309032e-02  -6.00627561e-02  -7.62902290e-02   1.24927732e-01   1.70774905e-01   1.08570563e-01  -1.10957113e-01  -3.26835793e-02  -9.99063676e-02   1.59186977e-01   8.93430171e-02  -6.33429063e-02   5.28802881e-02  -8.14209562e-02  -7.61357745e-02   3.51559318e-03   7.80252585e-02  -4.33688306e-02  -1.74583994e-02  -5.25572981e-02  -7.10278451e-02  -2.83743593e-02   1.15348910e-01   5.63998443e-02   6.56051189e-03  -6.94036437e-02  -7.66667018e-02   3.50673513e-02   1.04040118e-01   4.73689907e-02   2.52977375e-02  -9.00864853e-02   1.09620888e-01   1.50632996e-01  -1.99310811e-02   1.05761628e-01  -1.35265848e-01  -1.55915332e-01  -1.57314937e-01   1.02079703e-01   1.42952556e-01  -1.36671461e-01  -1.63551342e-01  -1.25170142e-01   2.85329180e-02  -3.75200459e-02  -2.45314390e-02  -5.05918759e-02   3.72713030e-02   6.58964829e-02  -4.04676368e-02   1.70534448e-02  -2.34458875e-02   2.49123461e-02  -1.59955043e-01  -1.54644728e-02   5.10606068e-02   4.27110707e-02  -6.22837298e-02  -1.52347435e-01  -1.25616220e-01  -4.89089038e-02  -2.31502042e-02   1.11241656e-01   8.91458282e-02  -1.59955274e-01   5.16270082e-02  -2.21579610e-02   9.57091127e-02   1.96675665e-02  -3.96938658e-02  -1.10932897e-01   1.49590754e-01  -4.18748130e-02  -2.74817755e-02  -8.51625304e-02  -7.23010086e-02  -1.45343890e-01  -1.53932916e-01   1.26243052e-01  -1.42030338e-01  -4.33446842e-02  -1.16530816e-01   7.81424796e-03   1.54069701e-01   8.42367501e-02   1.50856278e-01   1.09641323e-01   7.79368447e-02  -1.34527306e-01  -9.63705649e-03  -1.65958801e-01   4.99830956e-02  -4.13061025e-02   3.99787106e-02  -1.62858299e-01  -1.04980602e-01   1.63438602e-01   4.90512745e-02   1.31922010e-01   1.19205244e-01   1.77107750e-02  -1.63727782e-01  -5.01801361e-02  -1.05277811e-01  -3.87571499e-02   1.17315413e-01   9.74009768e-03   1.78854451e-01  -1.38368722e-01  -1.65912477e-01  -4.50265377e-02  -3.12389717e-02  -1.01149107e-01   2.76790468e-02  -1.11404320e-02   8.16970904e-02  -1.30093590e-01  -6.74543824e-02   6.86838253e-02  -7.13165890e-02  -1.60414127e-01   1.15997003e-01  -2.86216996e-02   1.01489632e-01   7.47813318e-03  -1.28551320e-01  -3.80855807e-02  -3.34621427e-02   1.66776577e-01   7.15363238e-02   1.28759219e-01  -7.98189291e-02   6.58281256e-02   7.87904230e-04  -7.51184546e-02   4.53005887e-02   1.18094998e-01  -1.34759048e-01  -1.66703849e-01   9.94456181e-02   5.72493011e-02   1.51629238e-02   9.08690078e-02  -1.82631226e-01  -1.29203097e-01   1.32030753e-01   2.80372649e-02  -8.42718328e-02   4.61204878e-02  -4.60703436e-02  -9.49358306e-02   5.61555008e-02  -7.53284326e-02   1.22717082e-01  -1.18059378e-01  -5.80135051e-02   7.79415593e-02   1.42643463e-02  -1.60159990e-01   1.51786009e-01  -4.00287864e-02   1.13975431e-01   1.04845205e-01   1.23932007e-01   1.31891376e-01   3.99630604e-02   9.50801006e-03   7.01847849e-02  -6.71176562e-02  -1.58412474e-01  -2.55495239e-02  -1.76611584e-01   8.10614266e-02  -6.37345778e-02  -1.10755207e-01  -1.31121471e-01  -8.72611184e-03  -1.82252376e-01  -1.76681362e-01   1.05659923e-01   1.28899143e-01  -5.20740971e-02  -9.10401595e-03  -1.72964728e-01   1.53174425e-02   1.56073335e-01   7.87534331e-02   1.02591860e-01  -1.63967222e-01  -8.53944349e-02  -1.61389626e-01   6.96663667e-02  -1.35352108e-01  -1.07782927e-01  -1.07129201e-02  -1.72887998e-01   7.24101905e-03   1.04783290e-01  -1.06278484e-02  -1.25830447e-01  -8.00366491e-02  -5.71034923e-02   4.58565362e-02  -1.25855796e-01  -1.09380694e-01   1.90245007e-02   4.44812508e-02   1.19848764e-02  -1.61463525e-01  -1.36919126e-01  -8.55237402e-02   8.04199632e-02  -1.31974149e-01   1.21056895e-01   7.11616819e-02   5.61918080e-03  -8.27611112e-02  -1.22910407e-01   2.16136036e-02   8.55908172e-02   1.38623809e-01  -1.05820817e-01   1.45699170e-01   1.50759823e-01   3.03007588e-02  -2.24656122e-02   3.81672739e-02   1.38929465e-01  -1.82612423e-01   3.36458435e-02   7.58591557e-02  -1.30312825e-01   4.04098028e-02  -2.34895497e-02   9.08197066e-02   6.87151453e-02  -1.46742048e-01   2.73444498e-02  -1.80572466e-01   8.15929715e-02  -1.59509158e-01   6.14370377e-02  -1.29151406e-01   7.11310754e-02  -5.86069418e-02   1.32579205e-01  -8.52517853e-02   1.52411277e-01  -4.27217491e-02   8.17701475e-02  -1.15191907e-01  -8.73915850e-02   1.05457794e-01   4.29069386e-03   4.53213170e-02   1.29766465e-01  -3.27258999e-02  -7.88919202e-02   1.47759256e-01  -1.49322554e-01   6.83125900e-02  -1.36332980e-01   5.03396677e-02  -1.26963560e-01   7.62405578e-02  -1.56940337e-01  -1.05524929e-01  -7.43005806e-02  -1.58845083e-01   1.44185156e-01  -3.43705254e-02  -7.47361193e-02   1.05476199e-01   1.36409592e-01  -8.58721089e-02  -7.15945465e-02   1.13591638e-01   1.53152235e-01   9.70416391e-02  -3.45362828e-02  -2.73109964e-02   1.52952376e-01   1.09881756e-01  -2.30444719e-02  -7.57975105e-03   6.16997797e-02  -6.26875268e-02   8.91840186e-02  -1.16861955e-01   1.57992543e-01  -7.75659610e-02  -1.26013189e-01  -1.53735341e-01  -1.38246279e-01  -1.53895991e-01  -2.84382766e-02   9.40728896e-02  -1.27268685e-02  -1.09127267e-01   5.84510651e-02   1.62098524e-01   5.05459187e-02  -9.56339885e-02  -6.75004720e-02  -4.94747975e-02   1.49046618e-01   1.55684706e-01   5.08734299e-02  -9.33778372e-02  -1.93401017e-02  -9.53673881e-03  -5.24804317e-02   1.44326503e-01   3.60217035e-02  -8.19447412e-02  -1.63458148e-01  -9.62411604e-02   9.52323352e-02   1.28499327e-01   1.25901335e-01  -4.07399189e-02  -5.42574114e-02  -9.77319817e-02   1.52795208e-01  -5.14726889e-02  -1.45598621e-02  -1.02556814e-01   8.62117490e-02   1.09860576e-01   1.32878845e-01  -1.51573981e-01  -1.11032799e-01   3.55993398e-02  -1.30462446e-01   9.78710208e-02  -1.01360101e-01  -8.71164744e-02   1.46202984e-01  -7.13563968e-02   6.48032085e-02   7.87144912e-02   1.62241466e-01  -4.41873732e-02   1.76494872e-01   1.28455551e-02   1.76269756e-01   1.75907772e-01   5.34347419e-02   8.76648722e-02  -1.72789367e-02  -8.51241942e-02  -1.03630190e-01  -6.46905983e-02  -8.90017186e-03  -1.43198568e-01   9.67733024e-03  -1.39067127e-01   2.45821710e-02  -9.98090270e-02   1.58158602e-01   1.06418401e-01   1.45682121e-01   1.49083405e-01   9.44355138e-02   8.13438797e-02   5.56642745e-02   5.12334728e-02  -1.47036070e-01   5.45273046e-03   4.34118790e-02   2.25969927e-02  -1.65275166e-01   1.50375210e-01   1.73550100e-02   1.66120402e-01  -5.87171000e-02   9.50359735e-02  -3.35734248e-03   1.18610320e-01   7.63026169e-02   4.86980272e-02  -1.29728323e-01   5.87382365e-02  -4.36330926e-02   5.58537252e-02   6.78132665e-02  -6.19405939e-02   1.65705929e-01  -3.01310419e-02  -6.90532577e-02   3.72484240e-02  -1.24715572e-01   1.54164700e-01   5.75950720e-02  -5.11714836e-02   5.52404069e-02   1.20559377e-01  -1.54242446e-01   1.79386805e-01  -1.22022605e-01  -8.26076721e-03  -1.46169504e-01  -1.49267349e-01   6.98043918e-02  -1.30511933e-02  -1.23976510e-01   4.01667140e-02   4.31415152e-02   3.28783365e-02  -1.62716394e-01   1.55676262e-01   6.19530148e-02   1.53505675e-01   3.71307672e-02  -1.07298364e-01   3.85071067e-04  -1.51155342e-01  -8.73583423e-02  -1.61936538e-01   8.71186800e-02  -1.28652167e-01   1.70111464e-01   1.18394286e-01  -4.38805011e-02   2.92116841e-02  -1.40261605e-01   1.70461521e-01  -4.31291400e-02   3.61986610e-02  -1.57230547e-03   5.05162725e-02  -7.62281877e-02   7.14212238e-03   2.48473200e-02  -1.26471985e-01   5.12201686e-02  -1.65658934e-01   4.25921991e-02   7.31729312e-02   1.35047932e-01   1.58315374e-01   6.88870738e-02  -1.56469307e-01  -2.05123289e-02  -1.49851761e-01  -9.74135137e-02   1.60260705e-02   1.67470425e-01   1.42153707e-01  -4.31046009e-02   9.47892350e-02   5.23243266e-02  -7.65066637e-02   8.73165551e-02   1.17754303e-01  -1.57726392e-01   1.41281930e-01  -6.81121182e-02  -3.91459271e-02  -1.29672828e-01   7.73295782e-02  -1.00779107e-01  -4.12102411e-02  -8.28132578e-03   4.13182382e-02  -1.69315958e-01   5.12971716e-02   5.90367621e-02   4.93526777e-02   6.46408870e-02  -2.23409747e-02  -1.11156169e-02   1.50224282e-01   4.49590741e-02  -7.14460584e-02  -3.56746798e-02   4.58476457e-02   1.05728999e-01  -1.47491116e-01  -5.87367736e-02   1.55672492e-01   4.48088066e-02  -1.53338073e-01   1.11797004e-01  -1.61121447e-01   4.40936867e-02  -6.55824522e-02   9.21362389e-02  -5.17829192e-02  -1.05194500e-01   1.62578507e-01   5.64678024e-02   1.26862325e-01  -2.69570828e-02  -2.44965577e-02   4.34483691e-02  -2.48124948e-02   1.59955037e-01  -1.61851294e-01  -7.22612633e-02   1.11774483e-02  -1.64159384e-01  -1.09483790e-01   6.73511260e-02  -1.05600199e-01   2.31515152e-02  -2.52573586e-02  -1.48812973e-01  -9.84504280e-02   2.38173440e-02   5.93959510e-02   1.09843108e-01   1.34210230e-01  -3.27312894e-02   6.87786897e-02  -9.71996152e-02  -6.54602686e-03  -1.54046211e-01   7.17341718e-02  -1.59932904e-01  -7.49688745e-02  -7.29649749e-03   1.05886959e-01  -2.62871493e-02   7.10793467e-03  -1.04870127e-02  -1.45181606e-01  -1.42663967e-01  -7.60607988e-03   9.27618493e-02  -1.65909769e-01  -1.66541823e-01  -7.93716030e-02   1.44836320e-01  -3.46361223e-02   1.62302345e-01   1.68322799e-02  -1.70102978e-01   2.11539882e-02  -2.03103678e-02   1.08990171e-01  -6.31252506e-02   3.03805727e-02   1.53621224e-01  -2.75536395e-02  -8.06692400e-02  -1.20647331e-01  -5.11462000e-02  -1.26420134e-01  -1.09800964e-01   4.35637455e-02  -1.61640940e-01  -1.50420176e-02   2.32889885e-02   8.42816478e-02  -5.17897667e-02   1.05786097e-01   1.24200153e-01  -1.59055407e-01   1.50601761e-01   1.28631255e-01  -4.34778030e-02  -6.82620950e-02   1.48225696e-01  -1.40252358e-01  -1.68342145e-01   1.45743365e-01   9.51984105e-02  -1.51555687e-01   1.42346463e-01   6.74019637e-02   1.63586981e-01  -1.61426742e-01   1.03858990e-02   2.96870309e-02  -2.08376817e-02   7.36927959e-02   5.41114725e-02  -3.63896329e-02  -5.63541088e-02   1.06622928e-01  -2.98919428e-02  -4.06922160e-02  -1.81621386e-01   2.99206979e-02   5.38579468e-02  -2.45197410e-02   5.38035677e-02   1.19850670e-01  -8.11665411e-02   4.56314150e-04  -1.26363788e-01   4.52472666e-02   4.66302560e-02   1.25683854e-01  -6.80860124e-02   1.58044447e-01   8.12802879e-02  -1.60215757e-01  -3.60299641e-02  -1.27381075e-02   4.85990208e-02  -9.20507143e-02  -1.27682713e-02   6.21534375e-02   8.62540744e-02   4.89607440e-02  -6.12107425e-02   3.99150529e-02  -4.82628502e-02   4.16094573e-02   1.07422819e-01   6.34626759e-02  -1.72658519e-01  -1.80821896e-02  -9.95617905e-02   1.13830255e-01  -1.54012966e-02  -1.54149249e-02  -1.34073492e-01  -1.07004073e-01   5.20919280e-02  -1.53843923e-02  -8.79060229e-02   6.37015038e-02   7.95370724e-02  -1.40213593e-01   1.61208086e-01   9.34637276e-03  -6.81994928e-02   1.23414499e-01   1.09851055e-01   2.64463737e-02   1.99799679e-02  -2.89390630e-02   6.90450857e-02   2.69097287e-02  -9.60648072e-04   3.02293217e-03   7.82869793e-02  -9.98510343e-02  -7.93810594e-02  -7.02936549e-02   5.66361578e-03   3.11894223e-02   6.23372524e-02   1.17540148e-01   1.93874425e-01  -1.49021360e-01   7.01135911e-02  -3.40345101e-02   6.56894270e-03  -1.04193517e-01  -3.78299831e-02  -5.99221456e-02   1.69547374e-01   1.62442176e-01  -9.38019619e-02  -2.95151364e-02  -9.61246178e-02  -4.66298528e-02  