[ -4.08163909e-01   5.73291898e-01   1.08383369e+00  -1.15595841e+00  -2.83777184e-01   6.52775051e-01   1.50970789e+00  -7.95751426e-01   7.82374541e-02  -3.34212524e-01  -1.35786584e+00   1.44584118e+00  -2.83119503e+00  -1.79277212e-01  -9.53928727e-01   1.94803141e-01  -5.83341549e-01  -2.13426844e+00   4.93900421e-01   1.61360278e+00  -6.91135746e-01  -9.17900698e-01   1.84551654e+00   7.34343890e-01  -1.03937959e+00  -7.81399205e-01  -7.71838527e-01  -9.62180490e-02   7.66072696e-01  -1.58409575e-01   1.55539799e+00   1.42090204e-01  -6.13853163e-01  -6.63792048e-01  -7.16849978e-01   5.00979326e-01  -3.71029371e-01  -1.83627803e-01   4.77303828e-01  -3.47403662e-01  -4.60510129e-02   1.76916073e+00   6.72165502e-01   1.02985810e+00  -8.73026917e-01  -7.31864963e-01   6.62982494e-01  -3.51626368e-01  -6.06278596e-01  -1.30647856e+00  -1.64518308e+00  -1.05645487e+00   1.08421638e+00  -8.86849684e-01   3.68889584e-02   7.81582732e-01   8.18377018e-01  -9.76145249e-01  -7.17734302e-01  -1.51968585e+00  -1.26148066e-01   2.08361783e-01  -4.69629870e-01  -4.32427939e-01   4.64965770e-01  -1.19156604e+00   1.12063707e+00  -6.77556871e-01  -1.83354568e+00  -8.52543225e-02  -5.73165829e-02  -7.85334737e-01  -1.08388287e+00  -2.28104470e+00   8.09075534e-01   1.47216337e+00  -2.88508647e+00  -1.44525482e+00  -1.07705602e+00  -4.74785804e-01   2.30348450e+00   6.88573423e-02  -1.97976846e-01   1.32283653e+00  -2.95524461e-01   7.08068717e-01   1.93033929e-02  -5.42401164e-01   4.77700329e-01  -2.00050519e+00  -9.98255473e-01  -5.84421515e-01  -5.77495582e-01  -1.07974196e+00  -1.05167399e+00   7.87650052e-01  -1.18791572e+00  -2.95695098e-01  -3.31171870e-01   4.46216624e-01  -4.53718066e-01  -1.28454075e+00  -2.28073567e+00   3.41374674e-01  -1.87492919e+00  -3.34789553e-01   1.59722032e+00   9.85021146e-01   6.70314229e-01  -4.45164724e-01   4.97059230e-02  -5.74285282e-01   4.21011129e-01  -2.83201162e+00  -6.64715766e-01  -8.37897970e-01   1.15213471e+00   1.21427958e-01   1.94399144e+00   6.02413479e-01  -9.61212232e-01  -1.74548635e+00   5.62917360e-02   1.41482627e+00  -1.66180884e+00   3.42297336e-01   3.07879025e-01   9.26099516e-01   2.50009275e-01  -2.03327954e+00   9.10568563e-02   6.57193085e-01   2.36718037e-01   6.41946240e-01   7.30798188e-01  -1.15879778e-01  -7.02821181e-01  -7.67854082e-01   1.37779661e+00   2.48899281e+00   2.09734969e-01   1.30569828e-01   1.21418445e+00  -1.20197966e+00  -2.11433729e-01  -1.92656462e-01  -4.81435467e-01  -4.58357175e-02  -4.89547588e-01  -3.51503168e-02   1.20125178e+00  -2.12088051e+00   9.06774753e-01   4.96031866e-01  -3.51166071e-01  -1.60107148e+00  -1.31974981e+00  -8.76951000e-01   6.24368576e-01  -8.90844221e-01  -8.59766009e-01   7.18858111e-01   4.50164165e-01   1.01529221e+00   9.03275799e-01  -1.03057501e+00   1.14814661e-01  -6.29485297e-01   3.17807759e-01  -1.80390062e-01  -6.02880616e-01   2.75181125e-01  -3.54665841e-01  -4.19311345e-01  -1.44048895e+00  -2.71390389e-01  -5.91229797e-01  -4.53099407e-01  -7.41212999e-01   2.01111631e-01  -2.38623536e+00   7.76546435e-01  -3.82178130e-01   3.36918103e-01   1.26838311e+00  -7.75694869e-01  -8.32525419e-01  -1.83766850e+00   1.66467014e+00  -1.64407152e+00  -5.45812261e-02   1.05881680e+00  -1.07318538e+00   2.80406754e-01   2.03106990e+00   1.40528351e+00  -1.87104712e-01  -4.17994764e-01   8.26372583e-01  -6.44385860e-01  -2.31863382e+00   6.74747472e-01   2.56239571e-02  -2.09724229e-01   1.69603389e-01  -1.33458193e-01  -2.04436707e-01   2.11229432e-01  -3.19000805e-01  -1.32289508e+00  -6.36349665e-01   1.25106033e+00   4.56337487e-01  -5.28888753e-04   7.81468785e-01   3.88082769e-01  -1.70189851e+00   1.91404576e+00  -5.13367264e-01   1.88880571e+00   5.14564274e-01  -1.45577688e+00  -1.93547245e+00  -4.70904101e-01   2.31065157e+00   4.53179737e-01  -4.68996616e-01  -8.79539406e-01   5.05443902e-01   1.09466633e+00  -9.80012582e-01   1.12072631e+00  -1.90545242e-01  -3.60850309e-01   1.16203836e+00   6.13213108e-01   1.45727416e+00   1.69112216e+00  -5.97765814e-01  -1.17905651e+00   1.36693298e+00   7.30536481e-01  -2.67239346e-01   7.47756538e-01   8.16572110e-01   9.86232591e-01  -1.51618742e+00   3.91067909e+00  -1.64589122e+00   2.27882641e+00   5.02697064e-01  -8.53539387e-01  -9.24576321e-01   1.28783561e-01  -2.78454399e+00  -9.47410854e-01   1.47482132e+00   6.41264496e-01   9.03449937e-01  -4.50400788e-01  -9.32949537e-01  -4.65620358e-01  -5.02136437e-01   1.14693063e+00  -9.30232589e-01  -4.14870855e-01   2.87462326e-01   4.44965228e-01   3.40226509e-01  -1.37245558e+00   1.42315563e+00  -1.35880490e+00   1.18853723e+00  -2.44658090e+00   1.12974573e-01   6.88264623e-01   1.13115853e+00   1.01414750e+00  -2.89034634e+00  -1.49908262e-01   1.67932019e+00   1.36810018e-01  -2.94136920e-01  -4.30975320e-01   1.55585758e+00  -4.82042669e-01   1.12523293e+00  -1.44051508e+00   5.79181684e-01  -2.28986369e-01  -5.70963394e-01  -1.01213160e+00   2.61326473e+00  -9.95099436e-01  -1.00763040e+00   7.81618864e-02   4.55351541e-01   6.03830914e-01   1.79376540e+00  -1.38670478e+00  -2.50988530e-01   6.15800440e-01   1.05060534e+00   7.92740007e-01   6.21178908e-01   9.06148144e-01   1.87544772e-01  -4.94447666e-01  -2.18275619e+00  -5.81344073e-01  -2.52048294e+00   1.25502239e+00   9.36346206e-01  -1.49421921e+00   1.03214454e+00   3.20781504e-01   2.30067272e+00  -5.00079318e-01   5.56269265e-01   4.57337286e-01  -6.93565346e-01  -1.06977849e+00   1.29901534e-01  -5.52794770e-01  -1.82507410e+00  -1.23598188e+00  -3.08552290e-01   4.98972385e-02   1.47814935e-01   4.56238907e-01  -1.31587142e-01  -4.75261125e-01  -1.87011996e-01  -7.36723280e-01   9.14016558e-01  -5.06129446e-01   4.97338413e-01  -1.00979143e-01   5.04834089e-01   8.38206190e-01  -2.26270910e-01  -1.72998349e+00   2.22345531e+00  -2.43086202e-01   1.07751215e+00  -1.75677927e+00  -4.34956425e-01   1.16856719e+00   1.76304883e+00   6.90897991e-01  -2.61329233e+00   2.36375670e+00   7.36054251e-02   1.29431250e+00  -1.96008978e+00   1.61908868e+00   1.34142795e-01  -2.72513732e+00  -1.60191865e+00  -4.88961788e-01  -1.06422995e-01   2.34103834e+00   3.53613248e+00  -1.20361505e+00  -9.33486821e-01   2.84467609e-01  -3.68398018e-01  -1.25737782e-01  -1.35826238e+00   1.34737275e+00   2.49461581e-01  -1.46461833e-01   7.26653304e-01   1.57239533e-01  -5.71869698e-02  -2.04699742e+00   1.22961305e+00  -1.05321876e+00  -6.43081818e-01   1.79628168e+00   1.88878352e+00  -1.85356427e-01   7.35843717e-01   9.61098853e-01  -1.43089594e+00   2.26881203e-01  -1.01425967e+00   1.17104873e+00   3.67788576e-01  -4.61963710e-01  -3.34534631e-01  -6.98495885e-03   2.13816073e+00  -7.09925122e-01   1.61055446e+00  -1.28645918e+00  -2.72456542e-01  -9.73708360e-01  -7.45177954e-01   8.26857316e-01   3.71977271e-01   1.22804432e+00   8.49788159e-01  -1.23252566e+00   1.40602871e+00  -8.51964146e-03  -7.20708721e-01   1.09326131e-01   8.97083234e-02   2.50333373e-02   1.56689877e+00   1.67633789e+00   1.18656837e+00  -7.47579377e-01   1.11307953e+00  -2.72589055e-01  -2.33870080e+00  -1.36647111e+00  -1.07455075e+00   2.22500923e+00   1.75951710e-01   3.03306542e-01   1.22727966e-01   2.53664601e+00   1.79097585e+00   2.12624214e+00   2.62368493e-02   6.68144522e-01   4.41714845e-01  -4.72449818e-01  -2.03690825e-01   1.93143893e-01  -3.95857370e-01  -6.99159375e-01  -2.52297131e-01  -5.24478091e-01  -1.01577849e+00   2.58505677e-01   2.10574350e+00  -4.53863509e-01  -9.19690061e-02  -5.39714953e-02   1.06501315e-01  -6.40527084e-01  -1.37571104e-01   4.84989239e-01   1.36338052e+00   3.64081018e-01   4.21318881e-01   4.68088368e-01  -7.93427804e-01  -2.05238026e-01   1.68477247e-01  -4.63935548e-01  -3.51944034e-01   7.31586430e-01   3.63942430e-01   3.77993814e-01   4.71307327e-01  -1.56537399e+00   1.53403220e+00   9.04383459e-01  -1.01124379e+00  -1.21120758e+00  -2.88960417e-01   5.33239231e-02   4.04172468e-01  -1.14387773e+00   7.78769247e-01   7.02447118e-01  -9.07464635e-02   1.22965516e+00  -5.42117831e-02   3.35542315e+00   2.53931442e-01   1.74475392e+00   3.31342069e-01   8.87253143e-01   6.56727853e-02  -5.24327049e-01  -9.50813871e-01  -1.56660555e+00   3.21051061e-01  -1.51358951e+00   9.40293436e-01   5.82867967e-02  -8.98022878e-01  -1.08831734e+00  -9.82476870e-01  -4.28404248e-02  -7.46014386e-01  -6.71348308e-01   1.90227299e+00  -8.21343857e-01  -5.26920465e-01  -7.68871352e-01  -1.93906081e+00  -9.13657035e-01  -5.27188384e-01  -1.67200641e-01   2.25240394e-01  -1.16983056e-01  -1.10154900e+00   6.83612701e-01  -1.08608730e+00  -1.76855897e+00  -3.65768209e-01  -2.34116353e-01  -2.36800868e-01  -2.75705202e-01  -3.24057855e+00  -1.22543317e+00   5.19025631e-01  -8.29347666e-01  -6.42019932e-02   1.74585056e+00  -4.38596662e-01   4.95873142e-01   9.47669237e-02  -7.30594141e-01  -5.31637996e-01   1.52129501e+00  -2.32225354e+00  -3.08569390e-01  -1.21297327e+00  -6.39607020e-01  -2.66333958e+00   1.92457446e-01  -1.47608744e+00  -9.96037665e-01  -4.17902889e-01  -2.49184207e-02  -2.57285868e-01  -8.01103942e-01  -3.51791239e-01   3.36655109e-01  -2.81701382e+00  -6.30300699e-02   3.23562261e-01   5.03043532e-01   1.75894445e-02   1.78704249e+00  -2.48784069e-01  -2.16650522e-03  -1.06928458e+00  -1.30598270e-01   3.79806446e-01  -9.85577690e-01   1.47442475e+00   9.44610131e-01   1.98223527e+00  -2.96962280e-01  -4.68878813e-01   4.45251321e-01   5.95237511e-02   2.08244846e+00  -9.80452378e-01   6.71600712e-03   1.61435487e+00  -1.20280867e+00  -6.18110629e-01   3.67575761e-01  -1.37414326e-01   9.88890410e-01   3.27254313e-02   1.43844071e-01  -8.31759430e-01   1.90778299e+00   2.52804665e+00   2.76009951e-01  -1.60853534e-01   6.48603245e-01   1.39082932e+00  -4.84026771e-01  -1.25916885e+00   2.32653274e-01   2.38534679e+00  -8.08275560e-01   1.15331173e+00  -1.72713513e+00  -1.09814439e+00   4.18177218e-01   4.17827258e-01   1.31882671e-01  -1.80539529e+00  -1.95971778e+00  -8.95203490e-01  -1.26278480e+00  -2.16218818e+00   8.59546022e-01  -1.94994670e-01   6.76894013e-01   2.58499786e-01  -4.35247800e-02   1.89403206e+00  -2.03257320e-01   3.89531179e+00   1.55654637e+00  -5.53354372e-02  -1.75001934e+00   1.21170487e+00  -1.49369581e+00  -2.05842327e-01  -1.18717090e+00   1.82476116e+00   3.53311561e-01   8.32814750e-01   7.51387111e-01   1.60350091e-01  -3.06314134e-01  -5.31636124e-01   1.35060519e+00   3.33702163e-01  -7.27692545e-01  -1.28059403e+00  -1.37401980e+00  -2.18131466e+00  -1.50607245e-01  -2.91684717e+00   3.88655389e-01   2.82551536e-01   6.89905231e-01   2.96839496e-01  -1.12812282e+00   2.38008333e+00  -5.84132593e-01  -1.31423483e+00  -1.74850113e-01   1.44553129e+00   3.50732351e-01  -6.14909603e-02  -4.07491999e-01   5.65839782e-02  -2.83260018e-01  -4.94624852e-01  -6.60819471e-01  -1.60633349e-01   4.85434170e-01  -3.87473587e-01  -7.04092399e-01  -5.81305849e-01   1.14066466e-01  -8.39934391e-01   3.16904837e-01   7.07648771e-02  -6.96559524e-01  -3.77860493e-01  -2.29071816e-01  -1.98013946e-01  -1.16462006e+00  -4.33323638e-01  -2.00691151e+00   1.82074837e+00  -1.07258192e+00   2.97298619e-01  -4.73139461e-01  -9.57664851e-01   5.56937448e-01   4.89879654e-01   2.64084421e+00   1.82811105e-01   6.31262492e-01  -3.64370151e-01  -6.21156543e-01   2.39887462e-01  -1.01213348e+00  -2.20554444e-02   1.74681187e-01  -1.22908774e+00   1.47386061e+00   2.14877944e+00   7.37744327e-01  -7.70256184e-01  -1.62996496e+00  -1.23813287e+00  -1.73614253e+00   1.88115529e-01  -4.18019374e-01  -9.03174372e-01  -2.56365272e+00   1.69595612e+00   2.84215897e-01  -1.52754513e+00  -1.84702067e+00   1.03754782e+00   2.84937066e-01  -1.36066220e+00   1.56536604e+00  -3.45738848e+00   1.00590310e+00  -5.95079107e-01  -1.33058315e+00  -8.84828849e-01  -6.65726915e-01   7.76122446e-01  -5.50403789e-01  -2.40110313e+00  -2.72346570e-01  -8.54393351e-01  -8.44617152e-01  -2.74673415e-01  -2.78263368e-01  -9.68441398e-01  -1.02215534e+00  -2.18308312e+00  -3.16707810e-01   7.33228249e-01   7.55522663e-01  -2.62334364e-01   5.56441340e-02   1.99947647e-01  -5.86449804e-01  -1.66407019e+00   3.71390130e-02   9.94678589e-01  -1.29519087e+00  -2.48763245e-02  -5.60556582e-01  -4.30735672e-01   2.56916198e+00  -7.59758126e-01   7.34353140e-01  -5.94944189e-01   1.60218036e+00  -1.08506547e+00  -7.56947823e-01  -1.01876411e+00  -2.69283417e-01  -1.50620113e+00  -9.37261892e-01   9.59421705e-02  -8.03627451e-01  -9.44287165e-01   1.88759590e-01   1.38749958e+00  -7.92532598e-01  -2.71061566e-01  -5.79098754e-01  -1.04204428e+00  -3.70978369e-01   5.80104281e-01   1.07764562e+00   8.54829542e-01  -7.71167385e-01   1.98444593e-01  -6.91116551e-01  -5.13553818e-01  -1.76476911e+00  -4.16494091e-01   8.35883462e-01   2.79061162e-01   1.38840230e+00   2.29245818e+00  -1.38898529e+00   9.75613642e-01   3.07985996e+00  -5.60498958e-01   1.94068097e+00   2.41516899e+00   2.02921523e-01  -7.73438320e-01  -1.25338600e+00  -1.26612772e+00  -1.76920660e-01   1.11364207e+00  -1.31400928e+00   2.50983756e-01   9.97207473e-01  -7.40885335e-01   2.15106915e+00  -1.48406876e+00   1.35852417e+00  -7.47860871e-01  -8.04581032e-01  -1.45791714e+00  -1.04802151e+00  -6.90766740e-01  -9.59090316e-01  -3.29562968e-01  -2.54507104e-01  -4.54646334e-01  -7.19915150e-01  -7.19815301e-01  -9.31272801e-01   5.82345305e-01  -7.94462484e-01   1.90303968e-01  -1.43554015e+00  -6.56066790e-01  -8.12871104e-01  -4.99835792e-01  -1.09305177e+00  -8.19981244e-01  -4.42243349e-01  -3.10146249e-01  -4.40480193e-01  -7.68823501e-01  -4.92333296e-01   3.45847881e-01  -1.61467003e+00   1.16559350e-01   2.06724962e+00  -3.31242780e-01   1.11566702e-01  -2.45819594e-01   5.44584351e-01   8.72413199e-01  -1.65455732e-01  -1.00037858e+00  -7.79787542e-01  -1.05232402e-01  -1.90867406e+00  -6.89696993e-01   7.98837208e-02   4.47736042e-01   2.22915767e-01   6.43167051e-01  -1.70402049e+00   1.23882173e+00   5.17539159e-01   1.22810447e+00  -1.15452985e+00  -7.00218543e-02  -2.18856825e+00  -8.82085634e-01  -1.33751513e+00   2.71518876e+00   5.74327713e-01  -1.40656699e-01   1.12407236e+00   8.47337888e-01   1.43037891e+00  -3.66438537e-01   6.02478482e-01  -4.76941450e-01  -7.76456880e-01  -1.11534043e-01   9.29513477e-02  -7.44635930e-01  -5.80359602e-01   1.06022448e+00   1.59936207e+00  -2.22281182e+00  -1.10462586e-01   2.18135363e+00  -1.61275534e+00   1.09101783e+00  -6.46717328e-01   2.52768210e+00  -4.56742039e-02  -5.37868977e-01  -1.03563926e+00  -4.78965462e-02  -7.95885797e-01  -4.89647167e-01  -2.17774865e+00   3.57262719e-01   5.09238204e-01   1.66218699e+00  -1.40625379e+00   4.23178118e-01   8.89741472e-01  -8.98189512e-01  -2.64276568e+00  -1.30011751e-01   8.82159631e-01  -1.19650079e-01  -1.33803999e+00  -6.28773897e-01   5.22126126e-01  -4.31169676e-01   1.46390999e-01  -1.62802273e+00  -7.24641671e-01  -3.28714551e-01   1.56888708e+00   8.83932158e-01  -8.83036066e-01  -3.31880976e-03   1.78950612e+00   1.32708592e+00   1.73884118e-01   1.06966257e+00   7.13619542e-01  -5.37314232e-01   7.65950899e-01   9.42928611e-01   6.25238522e-02   5.26716843e-01  -4.41133714e-01  -3.56395162e-01   8.55482025e-01  -2.81340549e-01   1.27480532e+00   7.57599055e-02   1.32962822e+00  -2.00792296e+00   2.58032528e+00   2.81908263e+00  -2.26137867e-01   7.87874616e-01   1.24194964e+00   7.16159784e-01  -1.58060445e-02   2.38769702e-01   1.02546786e+00   4.14442061e-01  -6.63078250e-01  -9.40766783e-02  -6.02406127e-01  -8.46517673e-01  -2.49723609e-01  -1.42361377e+00  -9.75117294e-01   3.88055283e-01  -1.24619088e+00   9.10674267e-01  -1.07352979e+00   1.01053786e+00   4.53345706e-01   8.57731053e-02   4.64115776e-01  -1.79311879e+00   2.41174452e-01   1.24891900e+00   8.75329719e-01   4.07190434e-01  -6.98883500e-01  -1.63975812e+00  -7.58722406e-01  -3.73107202e-01  -6.52745140e-01   7.98553135e-01  -1.20312093e-01  -3.52371188e-01   1.68558268e+00  -5.47986951e-01  -1.17351666e+00  -6.57642892e-01  -4.88783666e-01  -3.01305897e+00   3.75673444e-01  -5.31203591e-01   1.68679275e+00  -1.09295032e+00  -2.63491389e-01   2.41689193e+00   9.18383012e-01  -1.91026675e+00  -3.40584471e-01   1.29082538e-01  -1.29749177e+00  -6.39288970e-01   4.88001327e-01   1.25122020e+00   9.42601198e-01   4.60894557e-01   1.82913650e+00   9.53952278e-01   2.22541468e+00  -1.99558494e+00   6.47115725e-01   1.01340872e+00  -5.41623661e-01   1.18644224e+00  -3.80001817e-01  -4.47411113e-01   1.17091696e+00  -1.17026114e+00  -2.39998424e-01   8.06430322e-01  -9.79817329e-01  -8.52426354e-01   1.08170025e+00  -1.84319690e+00   1.76929154e+00  -1.84127439e-01  -4.39560025e-01  -1.57572268e+00   1.21983890e-01   2.03410047e-01  -2.08791567e+00   6.50039532e-02  -9.23748704e-01  -9.67760091e-01   6.72236649e-01   1.51019367e+00   2.87767897e-01  -5.22826502e-01   1.76729301e+00   4.16381696e-01  -5.33328073e-01  -2.16715288e+00   4.75705054e-02  -1.39969209e+00   4.87027025e-01  -5.68020653e-01  -7.42217143e-01  -4.86973427e-01  -7.01709928e-02  -1.48884093e-01   6.43893000e-01  -1.31344088e+00  -2.58144683e+00  -7.17516427e-01   3.45396952e-01   2.08671937e+00   3.40034506e-01   1.06329111e-01   4.14013172e-01  -1.50455393e+00   1.75158196e+00   7.77995402e-02  -8.35077684e-01   5.23192757e-01  -5.87212496e-01   2.11555587e-01  -3.60528170e-01  -1.73405703e+00   2.92159429e-01  -2.33357939e+00  -5.09582538e-01  -8.96282617e-01   2.69953916e-03   5.75156665e-01  -3.13433565e-01  -1.05981480e+00   4.72258283e-02  -6.26075866e-01   6.00544796e-01   2.67410319e+00   1.30425442e+00   9.20348617e-03   1.96431066e-01   6.26421211e-01   2.73105294e+00  -7.72778094e-01   1.26659076e+00   1.42270942e-01   2.27193690e-01   2.46041120e-01  -4.18213086e-01   1.91377801e-01  -1.58709047e-01   1.94436233e+00  -1.83766800e+00  -1.59426774e+00   2.24098250e+00   7.05648727e-01  -1.09469860e-01   1.68138732e+00   2.00237615e-01  -1.70547328e+00   1.03856028e+00  -9.86933151e-01  -4.10679284e-01   5.64312330e-01   2.76977378e+00  -1.04640873e+00  -4.47696165e-01  -2.26916102e-01   3.20192177e-01   6.85918374e-01   1.05698421e-01   7.55499608e-01   8.45720571e-01  -7.22344743e-01   9.03258298e-02   5.04846583e-01   1.15593969e-01  -9.52779342e-01   1.33975201e+00  -1.54985050e+00   6.19629621e-01   1.19518682e+00   6.40196764e-01   3.03019192e-01   1.56330733e+00  -1.57555723e+00   3.84771816e-01  -7.89512727e-01  -6.12756759e-01   1.42640901e+00  -4.04265688e-01   7.45644372e-01   1.46955907e+00  -4.61378234e-01   1.28496227e+00  -7.29465524e-01  -1.38904853e+00  -1.11332488e+00  -1.50325287e-01  -5.42418154e-01  -1.41713993e+00   1.05674993e+00   9.07911675e-01   3.09057363e+00   1.67243888e+00   2.78164445e-01   3.31531042e-01   2.94427588e+00  -1.32756323e-01   2.23122145e-01  -1.13453137e+00   5.41975015e-01   5.06457409e-01   4.24959011e-01   2.68291060e+00  -6.18595051e-01   3.46912211e-01   4.22869346e-01  -7.39232743e-01   9.76179160e-01  -5.61422720e-01   2.66503921e+00   3.21228667e-01   3.00392556e+00  -1.95888320e+00  -1.20212989e+00  -5.24927923e-01   6.36721771e-01  -1.48241498e+00   5.31054383e-01   8.53223842e-01   1.55415944e+00   2.17003463e-01  -1.09704225e+00   3.65917423e-01  -5.71345687e-01  -6.62634972e-01  -1.08187397e+00  -8.00731718e-01  -1.41206491e+00  -2.17789947e+00   1.21241189e+00  -4.39218137e-01  -5.83901246e-02   9.55262582e-02  -6.32346882e-01  -3.20761021e-01   1.48514590e+00  -1.48177411e+00  -2.00437651e-01  -3.38348022e-01   2.26112299e-01   3.49462560e-01   1.24854583e+00  -6.46989088e-01   1.44364189e-01   3.42293153e-01  -1.95405348e-01   8.35034642e-01  -9.66071676e-01   9.53399041e-01   1.72314898e-01   4.98698685e-01   2.26074041e+00   1.27086976e+00   2.19956695e+00  -1.35691547e-01  -2.03817198e+00  -2.91364248e-01  -1.48009486e+00  -1.82008056e+00  -2.95666489e-01  -1.21881874e-01   9.30174757e-01  -5.44973522e-01   2.64074714e+00  -6.59873537e-01   2.17882021e-01   6.96768198e-02  -1.65670931e-01   1.25847478e-02  -2.30619311e+00   9.01699021e-01   1.65052560e+00   1.26640655e+00  -9.36843206e-01  -2.18715135e-01  -5.58822296e-01  -7.23749614e-01  -6.72087026e-01   1.93268272e+00  -1.73840409e+00  -5.57044032e-01   1.50359132e-01  -1.73737680e+00  -1.56639204e+00  -9.27906278e-01   1.30582843e+00  -3.63737992e-01   9.00449260e-02   7.09350075e-01   8.09572966e-01  -5.61170178e-01  -4.55110517e-01   1.94965799e-02  -6.05192617e-01  -8.36047939e-01  -3.85748168e-01  -4.42329672e-01  -3.19119787e-01  -1.93166430e+00  -2.09500085e-02  -8.80422727e-01  -5.84002491e-02   2.09144632e-01  -1.20475818e+00  -1.72165910e+00  -7.97056355e-01   5.63145209e-01   1.19941551e+00   2.14817664e-01   2.11236333e-01  -8.82637846e-01   7.17776498e-02  -1.12271952e+00  -3.70564623e-01  -7.84685880e-01   3.65815641e-01   1.34590957e+00   5.70193384e-02  -8.45608500e-02  -6.90869836e-01  -1.40701447e-01  -2.08031006e-01   1.69127709e+00  -5.42920585e-01   9.05077269e-01   2.24571432e+00   2.65068085e-01   4.29581434e-01   2.90762098e-03   3.16253911e-01   1.02998923e+00  -1.76882656e-02  -2.87516205e-01  -1.45434440e-01   1.83809684e-01  -9.56927593e-01  -7.18467394e-01   2.64724572e-01   1.53773621e+00  -1.64372367e+00   1.03681571e-01  -9.43355928e-01  -2.81520529e-01  -1.75450294e+00   2.37378450e-01  -1.04546613e+00  -1.22148100e+00   9.47349283e-01   2.57243055e-01   1.36198396e+00  -9.08982763e-01  -1.02859387e+00   2.62497540e+00   8.67856566e-01   9.96012161e-01   2.38102518e+00  -1.08366916e+00  -1.47115531e+00  -1.52577278e+00   3.99024074e-02   1.55936503e+00   2.27417080e+00   9.68027159e-01  -1.05301520e+00  -6.99752566e-02  -1.83064018e+00  -2.07447795e+00   3.30946949e-01  -6.82915722e-01   9.40538019e-01   2.53792974e-01   2.52245787e-01   1.70803100e+00   1.94715810e+00  -2.10153215e+00   1.16540259e+00   6.53911540e-01  -7.32747407e-01  -5.46865127e-01   2.23146808e-01  -3.02751936e-02   1.17265942e+00   8.66238061e-01  -4.12793711e-01  -1.36954498e+00   1.98981993e-01   6.23672013e-01  -6.08491505e-01  -1.03449749e+00  -7.65617916e-01  -3.54757988e-01  -3.04896755e-01  -1.23847506e+00  -2.78996383e+00  -1.69507780e-01   1.26923265e+00   7.32257712e-01   1.82339417e+00   1.04010468e+00   7.27380033e-01  -8.85831973e-01  -5.30082444e-01   4.02091751e-01   1.89295198e-01   1.54886727e-02   1.18033486e+00   1.46241863e+00  -4.30223870e-02   1.07938625e+00   4.22397481e-01   1.39582409e+00  -6.03377844e-01   9.55619979e-01   2.00874931e+00  -1.98226527e+00   4.63717329e-01  -2.99470631e+00   4.90493525e-01   7.04967283e-01  -1.00876174e+00   1.33640174e+00  -1.41121457e+00   1.04137336e+00  -1.82840956e+00   2.16383540e+00  -8.34748612e-01  -1.38866219e+00  -2.73639547e-01   1.17525058e+00   1.70349594e+00  -1.03475667e+00   5.04820389e-01  -1.36512727e+00   1.21883654e+00   2.15748996e-01   5.69639376e-01   6.53507697e-01  -1.90728512e+00  -2.18742768e-01  -7.04303222e-01  -1.04384268e+00   3.44056511e-01   7.34469432e-01  -1.58536179e+00  -7.92470588e-01   8.10697798e-01  -5.58433224e-02   3.52850246e+00   1.31296412e+00   1.23859397e+00  -3.44233264e-01   1.14430272e+00   1.16127960e+00   1.58732113e+00   1.26664506e+00   5.28591803e-01  -2.51744582e+00  -3.28176550e-01   1.87410156e+00  -3.40553399e-01  -1.90696772e+00  -3.84076020e-01   4.41013480e-01  -1.53025564e+00  -5.04372266e-01   1.04009845e+00   8.16484832e-01   1.17711764e+00  -9.90660345e-03   4.24018580e-01   2.17862538e+00   8.05784748e-01   5.15079482e-01   4.95008879e-02  -1.23126137e+00   5.06750917e-01   2.44580857e+00  -4.42969685e-01  -6.01453394e-01   1.95921911e-01  -1.42404098e+00   2.85441631e-01  -1.62613825e+00  -5.08644659e-01   2.67899946e-01   1.18601506e+00   1.63453466e+00   3.68604071e-01   8.76980491e-01   2.08621540e+00  -1.44864018e+00  -9.74828771e-01  -2.88869602e-01  -1.01023388e+00   6.13503833e-01  -6.95947207e-01  -7.96850816e-01   1.50851290e-01   5.29849096e-01  -9.93529097e-01   1.26900597e+00  -5.68267769e-01  -1.30232291e+00  -1.68672917e-01  -8.15834807e-01  -5.03651018e-02  -2.20964235e+00  -7.07907962e-01  -3.77963059e-01   4.28479423e-01   7.43928722e-01   2.47043849e-01   6.17928298e-01  -2.68799668e-01   4.71882854e-01  -2.66626102e-01  -1.88999255e+00   9.73582250e-01  -1.00747348e+00   7.44345054e-01  -1.46952061e-01  -3.19590685e-01  -1.59238442e+00  -9.41823714e-01  -1.16686359e+00  -1.75766813e+00  -7.08510354e-01  -1.04883209e+00   5.23420039e-01  -1.73687340e+00  -1.81256816e-01  -4.74315469e-01   3.38043254e-01  -1.10391643e+00  -3.24433637e-01  -2.06531063e+00   1.42677776e-01   4.77293641e+00   2.06610021e+00  -1.95913901e+00  -1.21759209e+00   7.59207741e-01  -8.44035647e-01  -1.30332228e+00  -3.02531713e-01   8.04530639e-01  -7.93030276e-01   5.31660278e-01   6.63939747e-01  -1.30199412e-01   1.29057516e+00  -2.12865386e+00   4.48422891e-01  -1.24282859e+00  -5.13529694e-01   4.82462056e-01   4.75983649e+00   9.72695069e-01   5.34231265e-01   6.06287501e-01   1.09181598e+00  -3.87063631e-01   3.02700498e-01   1.33650148e-01  -2.12446234e+00   6.13032905e-02   5.55663236e-01   8.12431059e-01  -5.88493534e-01   8.48842292e-01   1.56721969e-02   3.27253094e-01   8.05965743e-01   1.32001314e+00  -7.27350480e-02   6.52017714e-01   1.11720765e+00  -1.04340917e+00   1.14227309e+00  -9.65814681e-01   1.29464431e+00   4.60210986e-01  -2.39861195e-01  -4.80814012e-01  -1.19601980e+00   2.49175834e-01   5.36902598e-01  -1.45964650e+00   7.39501813e-01   9.23303148e-01   1.15313523e+00  -1.25173379e+00  -1.83212921e+00  -4.29892770e-01  -1.77534818e-01   2.65672612e+00   2.35214082e-01   2.71876138e+00   2.72785760e-01  -4.74251458e-01  -4.50358649e-01   1.59346054e+00   1.64235389e+00  -3.89039417e-01   2.78652732e-02   4.36601178e-01   1.90473307e+00  -1.51119536e-01   1.20566251e+00  -1.11111951e+00   1.11117066e+00   5.48499554e-01  -3.38585418e+00   3.07743047e+00  -3.37276730e-01   3.65610388e-01   4.45786462e-01   1.60968098e-01  -3.49760590e-01  -7.10613270e-01   5.62498711e-01  -1.01674913e+00  -1.20587402e+00   3.85050163e-01   1.05841005e+00   2.62536430e+00  -1.29742894e+00  -3.23075883e-03   6.98044852e-02  -1.49032399e+00  -9.43734986e-01  -1.35305377e+00   3.18420074e-01  -1.54211286e+00   1.82890406e+00   7.57746271e-01  -1.72392107e+00   5.26381390e+00  -5.93823955e-01   8.61601544e-01   1.31657482e+00   1.34552086e+00  -2.59045423e-01  -2.46822431e+00   2.83431136e+00  -2.51829052e+00  -6.36485677e-01   4.19832517e-01  -2.67810341e+00  -2.14416492e+00   5.06799693e-01  -8.74785972e-01   1.35992261e+00  -1.01136711e+00  -7.45521985e-01  -1.01213064e-01  -6.86228499e-01   1.74366728e+00  -1.75342800e+00   2.00616704e+00  -3.82463952e-01   3.78924393e-01  -2.57141593e+00   2.35612575e+00  -1.21605407e+00   1.08186111e+00   1.02250218e+00   1.13292475e+00   1.34527985e+00  -5.30981311e-01  -1.17310590e+00  -9.02655579e-01   1.18416946e+00  -8.60155932e-02   1.21397560e+00   9.11067523e-01  -4.97011860e-01  -9.22258586e-01  -2.72011535e-01  -1.52988702e-01  -1.56455026e+00  -1.59051121e+00   2.15467190e-01   1.48283173e+00   2.34859465e+00   2.95137904e-01   3.09509764e+00  -4.39531918e-01  -2.92601999e+00   3.94244766e-01  -6.56318694e-01  -8.16178852e-02   1.26751439e+00   2.47296639e+00  -2.31705638e+00   1.14032284e+00  -1.17041754e-01   8.25609899e-01  -2.01646391e-01   6.31967798e-01   6.76564835e-01   2.53073010e+00   1.35505224e-01   1.01930920e+00  -1.89184068e+00  -3.47212713e-01   9.24412314e-01  -6.95175770e-01   1.74396264e+00   1.85637729e+00  -8.74608808e-01  -1.90014273e+00   1.35112327e+00   8.55170381e-01   8.12699001e-01   1.35490961e+00  -4.97064873e-01  -2.32125134e+00   1.38867652e+00   1.71763726e+00  -2.14656278e+00  -2.49572959e+00  -4.14005990e-01  -5.44942169e-01  -9.77405620e-02   2.44701151e-01  -1.17135010e+00   2.20905150e-02   2.41188755e+00  -2.01664507e+00  -8.69123552e-01  -7.39342181e-01   6.95852986e-01   4.43052171e-01   1.90495625e+00  -5.33741194e-01  -3.15078986e-02   1.26883815e+00  -7.70701802e-02  -8.95565802e-01   2.31985631e+00  -1.78339639e+00   3.12571640e-01   1.49087217e-01  -4.57627286e-01   5.45878068e-01   4.88339795e-01  -1.24276991e+00   3.27816238e+00  -4.10265662e-01  -2.34814549e+00   3.88829930e-01  -1.01986887e+00  -9.03208696e-03   7.49112654e-01  -1.45611664e+00  -1.51413573e+00   2.16661086e-02  -8.28294999e-01  -8.70219373e-01   2.58122172e+00   2.21051887e+00  -2.05415894e+00  -1.28032814e+00  -1.88848960e-01  -5.41103047e-01   1.19226704e+00   2.61801461e-01   1.96859545e-01   3.22221471e-01   3.16334021e-01   2.45171865e-01   2.86871808e+00  -2.25328686e-01   7.53619141e-01  -1.16026308e+00   4.01484337e-01   1.82504325e-01   9.25292859e-01   1.67575258e+00  -5.70268386e-01   1.25700120e+00  -1.67246594e-01  -7.99806191e-01   1.04711731e-01   5.76561704e-01  -4.13355382e-01   2.45565630e-01  -1.56032842e+00   4.12402983e-01  -4.48416373e+00  -5.48133874e-01  -1.08217178e+00   1.44904964e+00   3.34267849e+00   3.26644337e-01   3.14250247e+00   3.41937170e+00  -7.33792896e-01   1.80104104e+00  -9.93367516e-01  -1.48422599e-01  -1.44220981e-01   1.66459494e+00   1.15188227e+00  -7.02149204e-01   2.96004342e-01  -9.60028302e-01  -3.26709457e-01   4.73177442e-01  -1.87433223e+00   5.08772980e-02  -1.35163393e+00  -1.12288892e+00   7.72523666e-01  -1.80870611e+00  -2.04363052e-01  -9.70212384e-01   6.10800833e-01   7.04157057e-01   1.31028660e+00  -7.26744557e-01   1.07012313e+00   1.50554753e+00   5.75809492e-02   6.01246149e-02   2.02515416e-01  -3.57069324e-01  -2.70424990e-01  -3.18142066e-01  -8.55077914e-01  -1.23334548e+00  -4.88489142e-01  -3.52632352e-01  -1.07712385e+00   3.46189355e+00   6.23585074e-01   2.23805958e+00   1.64390269e+00   6.13288551e-01   9.73765571e-02   1.40891526e+00   2.00140031e+00   2.00375322e+00  -6.55089332e-01  -1.28486369e+00  -2.24335570e+00   1.00397747e+00   2.43420993e-01   3.33056586e-03   1.57990750e+00  -9.34784091e-01  -1.06991105e+00   1.35122535e-01  -1.07875478e+00  -4.44525370e-01   2.04784088e+00   1.30302046e+00  -1.35994244e-01   8.29331332e-01   1.37132257e+00  -4.37259098e-01  -9.28491132e-01   1.80560295e+00  -2.23437017e-01   1.54567390e+00   5.62010669e-01   2.15734573e+00   7.10079093e-02  -1.76347795e+00   1.00838878e+00  -2.21911889e+00   1.99584514e+00  -6.97026013e-01   8.49530154e-01   1.65177018e+00  -1.76569029e+00  -4.67171196e-01   6.97751332e-01  -8.97032692e-01   2.17131138e+00   3.99724432e-01   1.34738796e+00  -1.61560699e+00   8.71435420e-01  -1.55382566e+00  -1.03824011e+00  -6.70770134e-01   1.50686410e-01   4.39255888e-01   1.00622814e+00   2.86183949e-01  -2.95171575e+00   1.92609340e-01   2.31042099e+00   9.16881364e-01  -9.73305536e-01   2.57142492e+00   3.00879821e+00  -1.71459828e+00  -1.06887125e+00  -3.90321414e-01  -1.01467645e+00   3.23373385e-01  -4.02509517e-01   3.09766477e-01  -1.35244001e+00  -6.50503080e-01  -1.62965927e+00  -1.24618161e+00  -1.14225033e+00   4.83147052e-01  -1.46826824e+00  -8.25376676e-01   8.51903586e-01  -1.80779916e+00  -5.35971502e-01  -2.11806412e-01  -7.30163426e-01   2.32677659e-01   1.09827516e+00   6.26106378e-01  -1.38293845e+00   1.65489508e+00  -2.64869726e-01   1.19774216e+00   4.46925499e-01   1.61544214e-01  -8.20900340e-01   9.38110441e-01  -4.70331485e-01   9.91101281e-01  -5.24313729e-01   9.37751110e-01   2.45495546e-01  -8.42502129e-01  -1.04064095e+00  -5.99256633e-01   7.64461495e-01   2.70889060e-01  -2.22990944e+00  -4.23944929e-01   3.34289962e+00  -9.43808736e-01   2.09393015e+00   1.80576383e+00   2.94463469e-02  -1.94441041e+00   1.58779383e+00  -7.26048625e-01   1.69750305e+00   2.51393836e-01  -2.06433567e+00   6.53243391e-01   3.36812652e+00   1.02060066e+00   1.13956017e+00  -1.10475586e+00   9.37251846e-01  -1.66263214e+00  -4.15037802e-01  -9.58168053e-01   1.17014190e-01   1.29909264e+00   1.10344225e+00   1.24626333e+00  -3.22579000e-01  -8.67420083e-01   3.85069405e-01  -1.30744849e-01  -1.65696808e+00  -1.30641125e+00   1.08046037e-01   4.04919128e+00   6.89441708e-01  -1.15210870e-02  -3.57031579e-02   7.51714326e-01  -3.22704731e+00  -7.48109125e-04  -9.03244594e-01   3.80299902e-01  -8.44237044e-01  -2.18858366e-01  -3.39853580e-01   6.13615113e-01  -7.66721583e-02  -1.09501624e+00   1.32944042e+00  -2.78337393e-01   5.88657193e-02   1.91891780e+00   1.19862812e-01  -2.11992297e+00  -8.78465963e-01   1.17642222e-01   1.08564084e+00   2.90424341e-01  -4.06212778e-01   4.52907015e-01  -1.32972982e+00   5.54391598e-01  -8.85660387e-01  -6.80122070e-01  -7.10361181e-01  -2.19157370e+00   7.54107464e-01  -3.83910522e-01   1.30322910e+00  -4.29802466e-01  -6.14957532e-02   1.31604763e+00   7.38899207e-01   1.35238607e+00   1.32624228e+00   7.40257290e-01  -5.12801356e-01  -2.97756972e-02   2.09724691e-01   4.83363202e-01   1.33005962e+00  -7.69183633e-01  -5.71291842e-01   1.63598570e+00  -2.03891305e-01  -1.04626229e-01   4.06945682e-01   9.50765036e-01   1.00994779e+00  -1.59105270e+00   3.59815065e+00  -1.29292743e+00   1.83216848e+00   1.02187106e+00  -4.95109580e-02  -7.18943531e-01   1.75786730e-01  -4.58807969e-01  -6.42740894e-01  -1.97019318e-01   5.53813538e-02  -6.77683909e-01   2.29358428e+00   6.77199309e-01   2.83445652e-01  -1.00771697e-01   4.22162721e-01   8.74298993e-01  -1.68321698e+00  -4.93671294e-01  -5.00779376e-01  -3.32770821e-01  -1.77938546e+00   1.95083944e+00  -9.13872350e-01  -1.45084403e-01   2.83510434e+00   4.81060052e-01  -4.30674176e-01   7.10545572e-01  -3.56688438e+00   1.12617676e+00   5.89379456e-02  -1.28341901e-01  -1.02152991e+00   8.76345433e-01  -5.19817776e-01  -5.71685895e-01   1.57301168e+00   1.27149343e-01   1.16532586e+00  -3.79574958e-01  -4.12529535e-01  -7.53391367e-01  -1.87776459e-01   4.98689686e-01  -1.08902110e+00  -2.50307083e+00  -1.98773465e+00   3.33197620e-01   1.11129551e+00   1.31658956e+00  -7.37710318e-01   3.77400807e-01  -1.46659796e+00   8.99928308e-01   2.68601903e+00   8.41410789e-01  -1.36641721e+00  -1.25883156e-01   3.34415387e+00  -2.66208837e+00  -7.96520857e-01   2.06267858e-01  -8.25141202e-02   1.15426548e+00  -1.47610566e+00  -6.64554473e-01  -2.94574474e-01   4.98521519e-01   2.67841921e-02  -1.30137139e+00   1.96525051e-01  -6.37769441e-02  -5.84828762e-01   8.74886174e-01  -1.57145074e-01   6.13953403e-01   3.48666274e-01  -3.18892387e-01  -1.63297393e-01  -6.75275765e-01  -3.57994190e-03  -5.39830009e-01   2.04308396e-01  -4.82824479e-02   9.07729469e-01   1.34430183e+00   1.09168410e+00  -2.77047110e-01  -1.52922313e-01  -2.69169277e-01   4.17311314e-01   4.60550029e-01   8.68289861e-01  -1.25812051e+00   4.80963437e-01  -4.45481714e-01  -4.86993060e-01   5.29200547e-01  -1.73414891e+00  -1.49173057e+00  -2.19327388e-01   3.04574348e+00   5.01612689e-01   1.57315592e+00   1.70192803e+00   2.02238039e+00  -2.01498809e+00   1.35535754e+00  -8.84155894e-01   4.51531550e-01  -7.47991336e-01  -2.66528130e-01  -1.41459260e+00   1.22511363e-01   6.21527493e-01  -4.93275391e-01   2.77319044e+00  -4.42519649e-01   1.89343649e+00  -1.26907060e-01  -4.88611858e-01   2.17658714e-01  -2.27494295e-01  -1.38590985e+00  -1.56339081e+00   8.39267007e-01   8.29148159e-01   6.25509197e-01  -2.57074311e+00  -2.21740927e-01  -9.03246051e-01  -1.92843093e+00   1.35978364e-01   1.00218151e+00   1.55992945e+00   8.15593307e-01  -1.36063263e+00   1.00195161e-01   1.51782095e+00   1.19026218e+00   2.17211047e+00   3.71587775e-02  -3.44345172e-01  -1.25201803e-01   1.54847061e+00  -2.06831677e-02  -1.08822232e+00  -2.34452442e+00  -1.76737965e+00   9.00926556e-01  -3.63381136e-01  -7.13783440e-01   4.86211391e-01  -1.92376446e+00  -7.54635350e-01  -2.79978527e-01   8.41944049e-02   6.91723150e-01  -7.06713540e-01   6.99523110e-01  -5.22040570e-01  -6.36742878e-01  -2.32386833e-02  -3.85675384e-01  -1.65284968e+00   1.06834896e+00  -8.32558999e-01  -1.60850452e+00   2.75255804e-01   5.53056474e-01   4.38749778e-02  -4.50439127e-03   5.45836602e-01  -7.27707633e-02  -1.62187833e+00  -3.16492441e-01   2.89464870e-01   2.08017514e+00   1.64733299e-01   5.78438710e-01   1.30516131e-01   2.36223523e+00  -1.35839341e+00  -4.84863627e-01  -1.93253808e+00  -1.37569255e+00  -2.24209151e+00   1.55143917e+00   1.10647281e+00   1.63176171e+00   8.42177661e-01   4.87530774e-02   7.98812991e-02   1.15352138e+00  -1.07157249e-01  -1.58452165e-03   1.20733223e+00  -2.13086707e-01   4.72300175e-01  -1.24506032e+00  -1.11645523e+00   1.89405239e-01   9.72492426e-01  -6.29201256e-01  -6.46618062e-01  -3.73545981e-01  -2.55895771e+00  -9.76998792e-01   2.66652483e-03  -4.58760511e-01   1.06119693e+00  -4.12152241e-01   6.28614723e-01   5.32567437e-01   8.49863749e-01   1.23160297e+00   2.67880673e-01   6.32372972e-01   1.29500920e+00   3.09727025e-01   2.94786024e+00  -1.73658495e+00  -6.45905725e-01   2.03154629e+00  -1.96273556e+00  -1.02984032e+00   1.94223476e+00   1.88470165e+00  -7.25436497e-01  -4.44358747e-01  -9.29261332e-02  -2.22984464e+00   1.53005499e+00   1.26025922e-01   5.72508899e-01   9.81954411e-01   7.59349047e-01  -5.68216114e-01  -6.12903887e-01  -6.56624201e-01  -3.50704891e-01   2.70877183e-01  -4.02376874e-02   1.82544654e-01   7.78178777e-01   1.81758789e+00  -1.32355309e+00  -2.33135042e+00  -1.37809188e+00   1.11782123e+00   2.29235682e-01  -6.86099327e-01   2.94260983e-01   3.61247232e-01   6.61676680e-01   6.80508096e-01   5.40083198e-01   1.66425783e+00  -7.40190278e-01  -1.38115666e+00  -2.21152479e-01   1.15466165e+00  -2.26270847e+00   5.87421690e-01   1.18436371e+00  -6.99473368e-01   1.20259095e+00   6.17992777e-01   2.38126064e+00   1.36773924e+00  -2.33772516e+00   1.18123918e+00   9.83757988e-01   2.27119516e+00  -4.39356661e-01   3.34251179e-01   4.57342293e-01  -5.41685879e-01   6.62661430e-01   5.87298246e-01  -8.27133518e-01   9.80064470e-01  -8.20654175e-01  -1.52928304e-02   1.96813951e-01   5.85385899e-01   3.47081743e-01  -1.04293149e+00   8.38584080e-01  -2.14434246e-01   2.75006023e-01  -1.31383711e-01  -9.70373707e-01  -1.75192338e-01   3.71232412e-01  -1.05703473e-01  -2.11135189e-01  -6.69414357e-01   2.31093092e-01  -6.53240565e-01   7.12523346e-01  -2.39536293e-01   3.81887142e-01   8.31218805e-01  -2.36396047e-01  -2.89522856e-01   9.73435564e-01  -3.92838993e-01   3.97933945e-01  -3.88662283e-01  -1.38823213e+00  -1.52270295e-03  -8.89649676e-01  -1.21639755e+00   1.88686278e-01   2.08795033e+00   1.17061415e+00  -1.18221996e+00  -8.96902642e-01  -5.84119044e-01   5.07239117e-01  -4.11386084e-01  -7.50392243e-01   1.16705115e-01  -9.19804811e-01  -1.06741337e+00   5.63182369e-01   4.34609083e-02  -3.31358174e-03  -6.15440311e-01  -1.04485015e+00  -4.59398353e-01  -5.82874796e-01  -2.39940394e+00  -7.27686617e-01  -3.23351834e+00   2.29788519e+00   1.47536570e+00  -1.02674204e+00   2.37809472e+00   1.15586256e-01  -4.22879646e-01   1.29682058e+00  -1.58913509e+00  -8.80395441e-01   1.23775377e-02   2.77261356e-01  -9.02985784e-01  -4.74731146e-01  -2.12611048e-01   8.18575570e-01   2.24087121e-01  -2.16049488e+00  -9.82446925e-01   1.00404068e+00  -1.02778072e-01  -6.34131404e-01   2.53313272e-01  -1.11484375e-01   1.05423027e+00  -3.93395339e-02   1.60929669e+00  -7.75560456e-01   1.92899727e+00  -6.83817855e-01  -4.42247997e-02  -1.39607453e+00   2.89632892e+00   1.42745245e-01  -1.67646143e-01   4.78568987e-01  -1.32369576e+00   1.40775567e+00   1.49753280e+00  -8.15236976e-01   1.54283024e+00  -5.41287189e-01   5.26307380e-01  -1.45017279e+00   1.23123290e+00  -6.56859648e-01   7.62119626e-01  -1.39200737e-01   4.03715086e-01  -1.04460963e+00  -6.41231681e-01  -6.17738290e-01  -1.23700882e+00   2.55989003e+00  -1.29809891e-01   1.00046047e+00   8.28212441e-02  -3.30640132e-01  -1.53599608e+00   4.16420798e-01  -1.81678900e-01  -1.85397609e+00   8.08267171e-01   7.99941792e-01  -1.21892302e-01   7.95971647e-01  -6.08309827e-01  -8.18578827e-01  -1.80798111e+00  -1.29021729e+00   9.96301414e-01  -1.53084741e-01  -8.43993181e-01  -1.63072411e-02   1.45638478e-01   1.87946770e+00  -1.55126949e+00  -4.02580797e-02  -6.05294350e-01   6.54997081e-01  -7.58324638e-01   2.24594822e-01   1.71472620e+00   1.48837590e+00   1.39752142e+00  -1.52518347e+00  -1.29267284e+00   2.38045352e+00   4.95048062e-01  -3.82025739e-01   2.62880130e-01   4.79807647e-01  -6.41037283e-01  -2.59099871e-01   1.04435162e+00  -4.41026205e-01  -1.51384379e+00   5.61032087e-01   6.89451536e-01   1.28989930e+00   1.58660593e+00   9.70585905e-01  -2.03188154e-01  -1.82189519e-01   8.66513942e-01  -9.39198245e-01  -2.45388887e+00  -6.66245075e-01  -8.87163778e-01   5.47500158e-01   7.47236906e-01   4.42321083e-01   9.02968378e-01  -8.09194256e-01   1.98072803e+00   3.52748811e-01   8.60775321e-01  -1.18865055e+00   1.16503049e+00  -6.96620324e-01   7.93073687e-03  -8.60114527e-02  -1.27708583e+00  -2.49137546e+00   1.13705839e+00   7.00111937e-01   2.51965485e+00  -4.31295475e-01  -9.90415648e-01  -2.66419897e-01   8.34548212e-01   1.25446149e+00   2.28884829e+00  -1.59422588e+00   8.48935479e-01  -1.96882506e-01  -1.94407692e-01   3.94741033e-01   3.45816434e-01   6.36864472e-01   6.71046397e-01  -1.36394585e-01  -2.22986430e-01   1.37574839e+00  -1.86438450e+00   7.82493227e-01   1.23917487e+00  -1.23351248e-01  -1.04747456e-01  -3.00156187e-01   3.65825743e-01   5.08801638e-02   4.38571599e-01   7.21771657e-01  -2.02288512e+00   1.06497142e+00   3.01286763e-02  -1.19502841e-01  -2.11268652e-01  -8.92529107e-01   7.78681430e-01   7.99291253e-01  -5.27643262e-01   5.45160530e-01   1.45686930e-01   2.02721708e+00  -5.25880180e-01   2.71663988e-03  -1.30970987e+00   1.24867935e+00   7.37501092e-02   1.86662824e+00   5.07013748e-01  -6.03165539e-01   4.08426349e-01  -1.36432889e+00   1.37632517e+00   5.93156464e-01  -2.87854320e-01  -6.71707314e-01   3.35865642e+00  -4.33366497e-01  -8.07278913e-01   1.40610351e-01   1.21025403e-01  -1.39389108e-02  -1.21292998e+00  -1.19239459e-02   2.71261206e-01  -1.70996142e+00   1.47842057e+00   2.37717028e+00   6.30118266e-01   7.16917459e-01  -1.95850231e+00   1.48647906e+00   5.27083958e-03  -9.82147249e-01  -5.46345987e-02   1.55499144e+00   1.52612310e+00  -1.69861739e-01   7.76728933e-01  -2.79852619e+00  -6.37635921e-01   3.05090745e-02   4.27698967e-01  -1.47643162e+00  -1.47863141e+00  -1.11826312e+00  -4.72758515e-01   5.11062376e-01   1.38467876e-01  -7.47772502e-01  -6.93679278e-01  -1.57955852e+00  -2.91828683e+00   1.34889963e+00   1.84600368e-01   1.76543744e-02   5.66806625e-01   5.68830750e-01   7.25491656e-01  -5.29657955e-01  -1.49171008e+00   6.55153070e-01  -1.13975345e+00   1.28136787e+00   3.31682059e+00   1.06977082e+00   3.40892596e-01   2.87675169e-03   2.32965469e+00   1.94801137e+00  -1.60315945e+00   9.43908454e-01  -3.79687496e-01  -1.22905004e+00   1.31427728e+00  -4.87267163e-01  -8.79003377e-01  -4.04691092e-01  -4.61087265e-01   3.67313866e-01   1.19602052e+00   8.01664938e-01  -7.73528885e-01   2.73121674e-01  -1.35990077e+00   1.04194249e-01  -3.48623940e-01  -1.33746197e+00   3.64377633e-01  -1.70990985e+00   9.37681740e-01  -6.49361590e-01   4.48383386e-01  -6.47558477e-01   1.56243921e+00   8.41414631e-01   4.33544245e-02   1.16407625e+00  -2.02782686e+00   6.90022063e-01   5.49932063e-01  -5.07280089e-01  -6.98271202e-01  -1.61624649e-01   3.24757959e-01   8.97690546e-02   1.12102481e+00  -2.34153127e+00  -7.33457567e-01   1.43228240e+00   3.42644686e-02   8.60231880e-01  -9.94549791e-01  -8.17359286e-01   2.10718123e-01  -1.51060809e+00  -4.22742713e-01  -1.61482717e-01  -8.94009624e-01  -1.74007988e-01  -2.30104383e-01   9.26173327e-01   1.37244184e+00  -9.46235466e-01  -2.34713183e-01   1.81841759e-01   1.48324335e+00  -4.72627908e-01   8.12896564e-01   1.21623287e+00  -4.85162755e-01   2.38327213e-01  -2.66158548e-01  -1.64388476e-01  -7.90971831e-01   1.92587029e+00  -1.35093355e+00  -1.48906850e+00  -2.83114382e-01  -2.90817021e-01   4.93984985e-01   2.78779441e-01   3.30317225e-01   8.78340086e-01  -1.47868655e+00   4.10357747e-01  -1.14739699e+00  -5.45769724e-01   8.02797940e-01  -1.22569477e-01   9.95228726e-01  -3.90298891e-01   4.09779729e-01  -5.20055875e-01  -3.16346856e-01   1.51857960e-02   1.69360255e+00   5.64647018e-01  -1.88976756e-01   1.01666298e+00  -2.55488784e-01  -4.25094018e-02  -6.94534776e-02   5.95423603e-01  -1.34779207e-01   8.31155388e-01  -8.54681686e-01  -1.13550991e-02   9.41924155e-01  -7.44580954e-01  -1.70042881e+00  -5.42837428e-01   1.46866734e+00   2.73621736e+00   8.25027639e-01  -1.60310773e-01  -1.56389960e+00  -1.02298719e+00  -5.83996588e-01  -1.63869412e+00  -6.16069838e-01   5.82830938e-03  -1.08159555e+00  -4.06875650e-01  -1.59372738e-01  -8.36464858e-01   3.13044895e-01   3.53632427e-01  -1.15223081e-01   7.27314976e-01  -1.21650280e-01   1.65877706e-01  -8.24152856e-01  -9.39904274e-01   9.16065222e-01  -1.56264220e+00  -6.89290292e-02   2.39840135e+00   3.77367416e-01   8.90137908e-01   1.15170984e-01   1.81271154e-01   5.89832713e-02   1.73944495e+00  -3.98646349e-01   2.31436504e+00  -1.11114956e+00  -1.74248969e-01  -7.21622409e-01   1.31269963e+00   2.50781060e+00   1.87589331e+00  -2.53332497e-01   3.15769898e-01  -4.14750979e-01   9.48856019e-01  -1.28255716e-01  -4.33457313e-01   1.13800181e+00  -1.06264118e+00   1.25523505e+00   9.93338479e-01  -1.23081589e+00  -2.32848579e-01   4.25855911e-01   8.44330272e-01   3.32684396e-01  -5.65812526e-01  -1.67958801e+00  -4.03448229e-01  -2.06943407e-01   4.12645497e-01  -3.88900276e-02   4.79269184e-01   1.58147090e+00   2.82207681e-02  -8.75665155e-01  -1.19651474e+00  -1.26504114e+00  -1.05738318e+00   9.73838357e-02   2.77212952e-01  -8.28746257e-01   5.96507051e-01  -1.64053575e+00  -4.58877433e-02  -1.57969606e-01  -1.35893148e-01  -1.65457462e+00  -8.12756921e-01  -1.00621778e+00   8.81659382e-01   8.70184253e-01  -1.00177237e+00   3.05217163e+00   5.40222853e-01  -1.09274596e+00   1.53603427e+00  -9.49532195e-01   2.44877135e+00   8.97709385e-01   1.09058973e+00   1.82836495e-01   1.71395775e+00   9.68164499e-01  -1.41044713e+00  -1.69662435e+00   5.70059578e-01   2.03968629e-01   1.63031292e+00   6.03157968e-01  -1.75670535e-01   4.44912352e-01  -1.06533407e+00   3.56357072e-01   5.93179218e-03  -7.30205794e-01   1.32229457e+00   1.10995403e-01   3.93195649e-01  -1.35995331e-01  -9.44614395e-01  -1.19044494e+00  -4.71219296e-01   5.95803390e-01   6.44249515e-02  -8.62862959e-01   1.33992978e+00  -2.24829567e-01   5.24982357e-01  -7.44463124e-01   9.76169615e-01  -1.08439710e-01   3.11122497e-01  -4.43000023e-02  -1.61416025e-02  -8.82362665e-01   2.21522246e-01   2.60481121e+00  -8.68510979e-01  -7.08857028e-01   1.57631930e+00   1.16825653e+00  -4.56683592e-01  -1.94746717e-02   1.22576157e-01   2.45595893e-01   7.22188580e-01  -8.22407354e-02   7.31997622e-01   3.01666892e+00   3.24762053e-01  -6.74321079e-01  -4.84312270e-01  -2.33686481e-01   1.33820354e+00   1.65015881e+00   9.77482156e-01   2.94997133e-01   1.01833953e+00  -1.10655914e+00   8.58250797e-01  -1.17106493e+00   1.78164647e-02   9.29596856e-01   1.79001307e+00   1.01925780e+00   1.51882041e+00  -2.56870769e-01  -3.34905302e-02  -1.17703230e+00  -1.89016134e+00  -1.74481192e+00  -1.08332877e+00  -7.19641081e-01   5.19124751e-01  -3.17330933e-02   4.97541375e-01   1.02380663e+00  -2.05310495e+00   3.08339867e+00   9.79976991e-01  -8.44862342e-01   1.12739221e+00  -1.43719121e-02   9.75718870e-01  -6.07018833e-01  -1.35502926e+00   5.97921596e-01   2.47681872e-01  -7.46190954e-01   1.64400591e+00   1.56128109e-01   1.97781749e+00   5.37616861e-02  -6.87123274e-01   9.75762599e-01  -2.13459663e+00   2.26720747e+00  -6.66481718e-01   1.05822283e+00   2.22732669e+00   6.87530642e-01   2.85572525e-01   2.22021267e-01  -1.39934279e+00   3.84447516e-01   1.13803348e+00  -1.00056700e-01  -2.64850768e-02  -6.67279090e-01   5.28518097e-01   2.60944788e+00  -2.27297964e-01  -9.00870979e-01   5.25354313e-01   4.99326827e-01  -1.38475967e+00   2.22756147e+00   5.64555455e-02  -2.97981321e-01  -2.04374324e+00   1.45107317e+00  -1.03569238e+00  -4.34504850e-01   2.21788210e+00   1.04571304e+00  -1.75449373e+00  -3.37229755e-01   4.72376584e-01   1.69537808e+00   3.84360318e-01   7.41079834e-02  -1.01139228e+00   6.96556277e-01  -1.35492987e+00  -1.20615527e-01  -1.01233021e+00   4.23244504e-01  -3.08149012e-02   9.97683847e-01   1.60354343e+00   3.38209856e+00   8.72878404e-01  -1.03106901e+00   2.05806787e-01  -1.05364538e+00  -1.37182249e-01  -1.87686355e-01   1.36226449e-02  -2.61908107e-01  -4.74931491e-01  -1.28438182e+00   1.31648532e+00   2.86236533e-01   9.32740291e-01   2.18043060e-01  -2.16627318e-01  -1.72219599e-02  -2.41024787e-01  -2.74911891e-01  -6.99386361e-01  -3.51014219e-01  -2.52037494e+00  -1.45364065e-01   3.26070765e-01  -5.39003888e-01  -3.43935092e-01   1.32413973e+00  -1.65417334e+00  -2.49343487e-01  -7.29636621e-01   5.77980158e-01  -1.22716011e+00  -6.87854382e-01  -2.52463938e-01   1.19058990e+00  -2.15759522e+00   5.80627853e-01  -1.55469012e+00  -1.54577199e-01  -2.44181942e-02  -7.88362986e-01  -1.69428308e+00   3.47262773e-01   2.84226043e-01  -1.16450239e+00  -1.47996832e+00   5.65303250e-01  -3.23336139e-01  -3.26174410e-01   7.26322434e-01   1.22417198e-01   1.63281027e+00   5.28555599e-01   1.54048689e+00  -7.90693809e-02   9.86768662e-01   6.38842585e-02   2.08444687e+00  -3.78802194e-01  -1.50792873e-01  -3.85271687e-01   1.76119957e+00   1.00695598e+00  -1.95103917e-03   4.28584268e-02  -6.06776525e-01  -6.34740605e-01   7.07236124e-01  -1.06565575e-01  -1.31351343e-01  -6.18799446e-01  -5.88745421e-02  -1.39960745e+00  -1.02992008e+00  -1.00429968e-01   1.29833749e-01  -4.17673615e-01   5.70101097e-01  -7.59842578e-01  -2.20474152e-01   4.17453955e-01  -2.23878162e-01   5.35129645e-01  -6.87912161e-01   2.21070486e-01  -7.44588241e-02  -5.60429349e-02  -2.04172004e-02  -1.29452344e-01  -3.34211194e-01  -1.03039113e+00  -7.97419755e-01  -4.55977181e-02   1.14805852e+00   3.11454104e-01  -1.46129453e-01   5.02684127e-01   1.01269137e+00  -6.12302569e-01  -1.33953790e-01   6.02208663e-01  -1.36633871e+00  -5.57300379e-01   1.80926572e+00  -1.75862286e+00   5.34361958e-01  -1.83518576e+00  -4.07401080e-01  -1.32965887e+00  -2.78979222e+00   1.11022460e+00  -5.46630562e-01   3.75806701e-01  -1.10654863e+00  -3.83417539e-01   1.74565535e+00  -8.38759356e-02   3.16727975e-01   8.88742725e-03  -6.84771722e-01   1.48949154e-01  -1.65036794e+00  -2.36277977e-01   2.41127214e+00   1.06519912e+00  -1.38918493e+00   1.84112900e+00  -9.44965435e-01   6.22068622e-02  -5.14368450e-01   6.76761704e-01   4.62775343e-01  -2.14067029e-01  -1.54318739e+00  -1.35417826e+00   2.55763200e+00  -4.58889469e-01   2.18269847e-01  -1.69678659e+00   5.44567796e-01   1.45764186e+00  -5.55075704e-01  -1.20543298e+00  -1.05064898e+00  -9.84246200e-01   4.71509907e-01   1.39468890e+00  -8.66060035e-01  -2.65550128e-01  -5.92754933e-01   2.81853298e+00  -4.69084132e-01  -7.97573865e-02  -2.85042587e-01  -4.93865427e-01   8.25828021e-01  -2.13067573e+00  -8.91201355e-02   1.12535715e+00   1.86078222e-01  -2.26874813e+00   4.48416912e-01  -1.25099936e+00  -3.76578672e-01  -1.70513025e+00  -8.95020046e-01  -1.11696012e+00  -4.16248839e-01   1.87678380e+00  -1.04015784e+00   9.86504597e-01  -4.71114048e-01   4.79954544e-01  -1.86770386e+00  -1.49074124e-01  -5.95406112e-01   7.41713591e-01   2.45681075e-01  -1.39507396e+00  -5.52846775e-02  -2.80200194e-01   3.88416364e-02  -6.79303640e-01   5.29790826e-02   7.18955459e-01  -2.35211403e-01  -2.97171423e-01   7.40567537e-01  -1.45088361e+00   1.05237726e+00   9.06502837e-01  -2.87261553e-01   1.39061481e+00  -2.28808210e-01  -9.12291359e-01   1.16641330e+00   1.04195053e+00  -2.91585720e+00   1.25898073e+00  -1.49105580e+00   6.47752134e-02  -8.09199549e-01  -3.56572469e-01   7.63762222e-01   1.97432578e+00   1.36335670e+00   1.80269583e-01  -7.97955311e-01  -8.10943593e-01  -5.37951974e-02  -3.09486138e+00  -1.00037529e+00  -3.04372272e-01  -3.44064793e-01  -6.23513810e-01   8.44006666e-03  -8.13429282e-01  -4.42578808e-01  -1.31692964e-01   3.56555718e-01  -1.56865229e+00  -1.42283569e+00   4.50263413e-01   1.30161320e-01   1.01669933e+00   1.91176383e+00  -3.36774153e-01   8.14446352e-01  -9.01165768e-01   1.75348416e-01   1.08934463e+00   2.12321560e+00   1.03234041e+00  -9.92404761e-01   3.58317897e+00  -3.29329355e-01  -2.21323648e-01  -2.10272162e+00  -2.16292766e+00  -1.82494728e+00  -8.77678245e-01  -2.80181430e-01   1.19033806e+00   1.37307296e+00  -7.71000988e-01  -3.84884632e-01  -7.71689652e-01  -5.01064762e-01   1.13467690e+00  -9.60933425e-01  -6.12991811e-01   2.73234947e+00  -1.25842922e+00  -2.13456689e-01  -4.65550663e-02   1.22462910e-01  -1.03920238e+00  -9.65378774e-01  -2.43492383e-01  -9.24165811e-01  -1.16480778e-03   1.82830485e-01   2.88687287e-01  -1.53999699e-01   2.50397227e-01   4.04384407e-01  -5.45656216e-01   3.06740246e-01  -1.10398473e+00   1.79339553e+00   4.49771344e-01   4.16260374e-01  -1.39107500e+00  -1.69476823e+00   1.60248254e+00  -1.08200383e+00   1.52257495e+00   1.07714220e+00  -1.29879857e+00   8.72967816e-01   5.18851229e-01  -2.50551862e-01  -5.54464386e-01  -1.59670264e+00  -5.08563576e-01   5.55960527e-01   1.37968052e+00  -1.35713804e-01   6.39042398e-01  -2.92319090e-01   4.44583926e-01  -1.15874457e+00   7.90509495e-01   1.49999008e+00  -1.61519487e+00   6.32123095e-02  -1.25486966e+00  -3.64552575e-01  -2.60414622e-01  -2.00387991e+00  -1.22998907e+00   1.53930741e-01  -3.49912517e-01  -4.48323003e-01  -6.03864561e-01  -3.29465633e+00   1.48623339e-01   1.07498573e+00   1.74987001e+00   4.99520526e-01   9.91525462e-01   1.37106051e+00  -1.47184196e+00  -1.32066288e+00   2.29985329e-01   1.89718309e+00  -4.50496822e-01  -1.07044767e+00  -6.84187640e-01  -1.15495072e+00  -4.31391752e-02  -1.93077186e+00   1.31705685e+00  -6.28642823e-01  -5.23575988e-01   1.04888767e+00  -2.61194288e-02  -2.21607817e-01  -1.94071405e-01  -5.57834104e-01   7.08823319e-01  -2.26226932e+00  -3.67701093e-01  -2.37468144e+00  -1.88960504e-01  -1.34935054e-01  -1.17463376e+00  -2.52863280e-01  -7.88420546e-01   8.28600295e-01  -4.04649275e-01   1.18664510e+00   3.55533868e-03  -1.91479322e+00  -3.17394382e-01   1.87176596e+00  -1.58758429e+00   1.80308323e+00   7.75677575e-01  -2.69674764e-01   1.11734970e+00  -1.12135671e+00  -1.94251707e+00  -1.06249443e-01  -8.12927719e-01  -1.99403666e-01  -1.28601837e+00  -8.51480968e-01  -1.73511233e+00  -6.22371131e-01  -5.38153719e-01  -6.03226296e-01  -1.55844690e+00  -1.82210998e-02  -1.20297162e+00  -1.77702354e-01  -2.42620433e+00   3.68220092e-01   7.11765202e-01   8.97136959e-01   6.67892536e-02   1.48918781e+00   5.85218324e-02  -1.51288239e+00  -1.36763926e+00   2.49048310e+00   1.22086434e+00  -7.67559057e-01  -3.16653219e-01  -9.36872680e-02   3.53630502e-01  -1.43207714e+00  -5.46154762e-01   3.09237802e-01   2.55652106e-02   1.44967625e-01   9.99019337e-01   1.14520602e+00  -6.19859484e-02   2.04969371e+00  -1.01906414e+00   1.66745987e+00  -1.00887283e+00  -5.58144508e-01   1.20015653e+00  -3.90952500e-02   5.81426262e-01  -1.51657701e+00   8.86843397e-01   1.75774743e+00  -1.27458246e+00  -8.00911373e-01   3.10996810e-01  -1.15427834e-01  -1.42144494e+00  -6.79035297e-02   1.38950055e+00   5.25332638e-01  -6.53869138e-01  -1.06263629e+00  -1.07929519e+00   5.36268946e-01   4.66881490e-01  -8.99680439e-01  -2.82680394e-01  -1.37770579e+00   9.86218170e-01  -9.00716960e-01  -3.95076787e-01  -4.51765691e-01  -1.54345067e+00  -4.26721665e-01   5.55635044e-01  -1.57914693e+00   9.47578126e-01   6.43044211e-01   1.08225008e+00  -6.19127594e-01  -6.66591565e-01  -1.69731495e+00  -1.66670032e+00  -7.82376962e-01  -3.91800299e-01   9.79618027e-01   8.51739463e-01  -2.31076097e+00  -9.98834037e-01  -1.08306518e+00  -7.19265528e-04  -2.35849890e+00   5.47015867e-01  -9.79775618e-01   1.64474522e-01  -5.02861103e-01  -2.88527088e-01   1.04180989e+00   1.39980241e+00  -2.27633277e+00  -8.28130721e-01   1.47808488e-01   1.21290790e+00  -7.69518270e-01   1.46314048e+00  -1.13465992e-01  -1.26984485e+00  -1.60402494e+00  -1.17049802e+00   1.34228672e+00  -8.75750292e-01  -4.77965695e-01   6.38535130e-01  -4.99614386e-01  -9.14578587e-01   1.32238323e+00   8.35353076e-01   2.34677214e+00   9.35434415e-01   7.64321764e-01  -1.75471458e+00  -5.08060282e-01   8.38127519e-01   8.06464283e-01   4.02105041e-01   8.56228693e-01   4.60743190e-01  -1.66947018e+00   6.23330557e-01   7.44525936e-01  -1.16057295e+00  -1.08061921e+00  -1.55025576e+00  -1.60168039e+00  -1.09588782e-01  -2.24913984e+00   4.78376081e-01  -1.31052780e+00   1.79220378e-02   4.66129905e-01  -9.83136139e-01  -6.88486982e-01   3.65980983e-02   1.50485452e+00  -3.67323862e-01   1.28907674e+00   5.86085863e-01  -6.97307210e-02  -1.61063598e+00   1.41347077e+00   2.33837490e-01  -1.09145770e+00  -8.46711115e-01  -2.10860120e-01  -2.11186741e+00   8.59575523e-01   2.03534484e+00  -9.80474632e-01   4.45780255e-01   8.10164938e-01  -3.29696307e-01   1.87090497e+00   1.11631873e+00   3.40143264e+00   2.47922107e+00  -2.06820406e-01   1.48023263e+00   8.52082397e-01   1.04477018e+00  -1.23112501e+00  -7.66065842e-01  -1.78475145e+00  -1.57922321e+00  -7.14798707e-01  -3.48981867e-01  -1.61103299e+00  -3.26487768e-01  -1.54516219e+00   3.16603597e+00  -1.49062698e+00  -1.66479088e+00   3.95819496e-02   1.24015080e+00   1.51708609e+00  -2.07682570e+00   1.66426607e+00  -1.26714877e+00   1.33292246e-01   2.58990187e-01   5.35737318e-01  -2.30294835e+00  -2.84713852e-01  -1.49452023e+00   1.53230424e+00  -1.41848335e-01  -1.72559000e+00   1.33311771e+00  -3.71870362e-01   1.22953177e+00  -8.31248996e-02  -1.31438817e+00   1.22122695e+00   3.29286283e+00   2.38502351e+00  -7.82425147e-01  -8.70258517e-02   1.27588435e+00  -9.24232299e-01  -1.41178014e+00  -1.80048834e+00  -1.58581936e-01   1.79823376e+00   9.01617344e-01  -1.32271676e+00  -6.59147124e-01  -9.24516670e-01  -2.38604888e-02  -4.38114618e-01   7.07271865e-01  -1.73532474e+00   1.33039978e+00  -4.58365044e-01   4.75138393e-01  -1.30283777e-01   9.38093306e-01  -3.55303225e-01   3.73906701e-01   6.41294375e-01   3.37629450e-01   1.03540205e+00   1.50206410e-01  -1.57245581e+00  -1.87619302e+00  -3.18136517e-03   1.46929940e+00   7.70218709e-02   2.58118664e-01  -1.19744751e+00   7.90100745e-01   1.05358519e-01   9.57855768e-01  -7.70664559e-01   3.68275869e-01   1.17181969e+00  -1.03050157e+00  -9.36945153e-01  -2.98854051e+00  -2.76512045e-01   2.15326385e+00   1.17911237e+00   1.81599745e+00   1.63072692e+00  -1.45483280e+00  -4.50813866e-01  -5.69456545e-01   1.56344005e+00   2.10999880e+00  -9.90367173e-01   8.67388932e-01  -2.10178827e+00   3.20468171e-02  -6.28795779e-01  -2.92626124e+00  -5.24257789e-01  -1.90282322e-01   2.42554510e+00   3.93074537e-01  -2.21275803e-01   1.10119207e+00   6.96471750e-01  -8.12673454e-01   1.52661314e+00   3.52834845e-01  -2.13919029e+00   9.40376348e-01  -1.71648630e-01   7.44093981e-02  -9.66034068e-02   1.45478171e+00   4.76944615e-01  -2.56956149e+00  -2.08890214e+00  -9.19139636e-01  -7.05793136e-02   9.41419746e-01   6.40702973e-01  -6.02767445e-01  -3.93155992e-02   1.65142609e-01   1.36983295e-01   5.38923379e-02  -4.93463267e-01  -1.38877188e+00   2.18430436e+00  -1.35112263e+00   9.21195863e-01   1.41728654e+00   4.44371013e-01   7.62532913e-01   2.47898175e+00   8.46275326e-01   9.15277134e-01   2.49913116e+00   1.54217904e+00  -6.21517793e-01  -3.49342961e-01   8.40050224e-01   5.32331871e-01  -2.53945377e-01  -1.38830769e+00  -1.89696174e+00   6.58427548e-01   8.75047609e-02   1.65953261e+00  -2.03882174e+00  -2.33399767e+00   2.05380265e+00  -1.37710155e-01   3.41273666e-01   1.11986348e-03   1.64796590e+00   1.00616456e+00   1.75719194e+00  -1.56763738e-01  -6.72131448e-01   8.55436751e-02  -9.85350781e-01  -3.51625612e-01   8.56756434e-01   8.02200865e-01   5.14918537e-01   1.10495271e+00   1.13077687e+00   7.68310571e-01   1.99558537e-01  -7.93845808e-01   7.43306661e-01  -4.78515040e-01  -7.28873856e-01   1.48796524e+00   1.50011847e+00  -3.90126975e-01   7.47733673e-01  -1.47896893e+00   2.77529109e-01   1.30787502e+00   7.92168351e-01  -4.47507151e-01   7.95328104e-02  -9.92645113e-01  -4.90685958e-01  -2.32941088e-01   3.05708105e+00   5.14769730e-02   1.04231173e+00  -6.98879565e-02   2.09339954e+00  -2.53791557e+00  -1.73539096e+00   2.80739372e+00   3.56227674e-01   9.77336666e-01   4.34317370e-01   5.55479385e-01   2.36921741e+00  -1.38012180e+00   1.10149416e+00  -9.54655003e-02  -2.51731570e-01   1.03453780e+00  -8.99812844e-01  -1.44328002e+00   5.58765302e-02   1.47752732e+00   7.54861955e-01   4.74301291e-01   3.25726848e-01  -1.11191305e-01  -4.14785588e-01  -6.67993861e-01  -2.24061109e+00   1.17926134e+00  -6.56337850e-01   1.83363657e+00  -1.74751974e+00  -1.34571039e+00  -1.38663495e+00   1.66937481e+00  -1.28277193e-01   1.36704790e+00   1.59904043e+00   2.51471404e-01   2.64313435e-01  -9.91377790e-01  -1.91803185e+00   5.29601218e-01  -1.29121330e+00  -5.83216313e-01  -1.91077241e+00  -3.67345919e-01  -1.45673979e+00   3.84719463e-01  -1.49322052e+00  -2.00210316e+00   1.63491376e+00  -3.22090199e-01  -5.37739308e-01   2.90478774e+00  -3.93797214e-01  -1.98956657e+00  -1.79457182e+00   1.35665375e-02   2.20224553e+00  -9.45665634e-01   4.99227824e-01   2.65557189e-01  -1.93274982e+00   1.86259796e+00  -9.23147487e-01  -1.29613393e+00   1.95453330e+00  -1.46526442e+00  -9.71883443e-02   8.14082550e-01   2.83888545e-01  -7.74394038e-01  -9.00496097e-01  -9.11191169e-01   2.14459670e+00  -3.70688252e-01   5.42850174e-01   6.31933204e-01  -4.13813491e+00   6.26605466e-01   4.63022781e-01  -6.15784305e-01  -1.45232365e+00  -1.69174750e+00  -3.89120519e-01   1.34821541e+00  -4.14215802e-01   9.77047659e-01  -1.17634865e-01   1.74466623e+00   8.69225953e-01   2.33059016e+00  -1.81368453e-01   9.68873645e-01   1.63234233e+00   6.86745036e-01  -5.45977761e-01  -1.27455633e+00  -1.14289451e+00  -1.79734761e+00   1.33925135e+00   1.89253960e+00   2.38347113e+00   1.98885432e+00  -9.57211936e-02   2.95088908e-01   1.48761301e+00  -1.72852842e+00   1.26781913e+00   2.53139459e-01   1.00279947e+00  -1.78970735e-01   2.57622827e-01  -8.83166506e-01   1.01536773e+00   2.53941586e+00   1.02580130e-01   9.91612269e-01   1.15675819e+00  -1.86476676e+00   5.22638774e-01   8.15067736e-03   3.01452803e-01  -1.51143028e+00   2.23534426e+00  -1.59541457e-01   2.43616227e-01  -6.63458044e-01  -1.57053492e+00  -1.94770487e+00   2.08542882e+00  -1.15820378e+00   6.85465906e-01  -4.66258338e-01  -1.23418365e+00   7.99905094e-01  -8.43486560e-01  -1.84146990e+00  -9.07520299e-01  -1.47299889e+00   8.44073082e-01   2.08539824e+00   7.24011586e-01   3.48088948e-01  -1.72364321e+00  -2.24119115e+00  -2.94451864e+00  -1.65788323e-01  -2.03804835e+00  -6.69724473e-01  -1.92568660e-02   5.10424456e-01  -5.56832578e-01  -1.33017145e+00   1.57792826e+00   1.59215057e+00  -4.46263650e-02  -2.34158110e+00   1.19493932e+00   7.00340898e-01   8.84843212e-01  -5.22412181e-01  -7.04371824e-01   1.65620927e+00   8.02420302e-01   1.61797867e+00  -1.55125124e-01  -1.89457339e+00   2.29471636e+00  -3.64517354e-01  -6.07501985e-01  -5.71470815e-02  -4.74038226e-01   6.87806830e-01  -1.14589620e-01   1.46047987e-01   1.05978065e+00   1.35494421e+00   1.10484394e+00   1.77753821e+00   2.17740124e+00  -1.82219071e+00  -2.16134504e+00   2.83303123e-01  -5.28957347e-02   7.61967436e-01   7.21041182e-01  -7.06282675e-01  -7.55148575e-01   3.76278598e-01   5.09950204e-01  -1.12242420e+00  -5.79570766e-02  -1.69866010e+00   2.20777917e-01   2.90117417e-01   7.17997416e-01]
[  3.74195410e-01   4.44738789e-01   7.72312935e-01   6.26615031e-01   1.79652289e-01   6.37121857e-01  -7.00536835e-01  -5.20992867e-01  -1.32500008e-01   5.16252757e-01  -1.23426566e-01  -1.24236872e-01   6.41184548e-01  -8.63985432e-01  -2.99967571e-01   1.58825355e-01  -1.17787307e+00  -4.57453714e-01  -1.52591066e+00   9.14802255e-01   5.06261737e-01  -8.02250480e-01  -1.18129462e+00  -3.97586723e-01   3.42642537e-01   4.79368785e-01  -7.17729306e-01  -5.68504006e-01  -6.42440395e-01  -3.42026785e-01  -2.42658968e-01  -7.50274086e-01   1.60331328e-01  -6.05477526e-01  -2.72190598e-01  -7.41988567e-02   2.48912490e-01  -8.06776663e-01  -4.43228003e-01  -3.85133064e-01  -1.17976777e-01   5.56089233e-01  -5.24356583e-02   4.55812571e-01   6.72529672e-02  -1.21564702e-01  -6.01925607e-01  -3.52826151e-01  -5.22786732e-01   1.59646957e-01   8.35284249e-01  -3.88343095e-02   4.16145409e-01   5.86518307e-01  -7.98044206e-02  -1.34880931e+00   1.18612273e+00  -1.99989067e-01  -3.31064677e-01  -4.36876019e-01   3.00538925e-02  -1.72806530e-01   6.39237361e-01   5.43574171e-01  -3.49872378e-01  -2.35520013e-01  -8.83882798e-01  -8.77568275e-02  -7.70837937e-02   4.14766720e-02  -2.98239032e-01   8.00720346e-01   7.38828577e-01  -5.52699010e-01   1.52935274e+00  -5.43782003e-01   2.20389102e-01   1.74130512e-01   3.33053199e-01  -3.26641338e-01  -2.86347183e-02   9.58192105e-01   2.17062873e-01  -2.99015561e-02   9.96433384e-01  -1.75077667e-01   3.79110209e-01   5.25951745e-01   6.91663255e-02   7.14503594e-02   9.17690323e-01  -1.42518636e-01  -5.91840369e-01   4.64823807e-02  -4.63607817e-01  -7.86100379e-01  -6.78269068e-01  -4.50097714e-01  -1.20328497e+00  -1.70179681e-01   1.38986108e-01   4.45814876e-01   3.12882725e-01   1.22011660e-01  -8.01252857e-01   5.74699445e-01  -4.13744757e-01   2.74930275e-01   6.99735765e-01  -2.44269569e-01  -7.21693970e-02  -1.15585674e+00   5.01908784e-01   2.52611614e-01   1.61446509e-01   4.56537878e-01  -7.93594914e-01   2.45415807e-02  -3.61221058e-01   2.25924692e-02  -6.35060714e-02   6.21654120e-01  -6.65106200e-01  -1.99500851e-01  -1.52928965e-01   3.21989419e-01  -1.22070300e-01   9.81664796e-01   4.98673049e-01  -6.88077619e-01   4.66573331e-01   4.54395021e-02   1.62890537e-01   7.06484222e-02   8.15981269e-02  -6.32798443e-01   2.95561517e-01   2.10149384e-01  -1.24799026e-02  -7.81103828e-01  -3.99327439e-01   6.31615274e-01   7.18538596e-01  -1.08205944e-01  -7.04131462e-01  -8.13963789e-01   6.49081082e-01  -1.79653923e-01  -3.88514801e-01  -9.51130281e-01   1.32972451e-02   4.68024925e-01   8.75765527e-02  -2.23770932e-01  -6.78296247e-02   1.01813586e-01   2.44214599e-01  -4.00530754e-01  -6.88302212e-01  -1.91280528e-01  -6.64131121e-02   2.16658290e-01  -9.73917256e-03  -3.75929598e-01   5.96845664e-01  -1.66300767e-01   4.98228409e-01  -3.45486187e-01  -5.44020069e-01  -1.47784539e+00  -2.22410732e-01   2.42744711e-01   4.71001969e-01  -7.45964347e-02   2.87361757e-01  -2.26127452e-01   2.30534258e-01  -2.86762218e-01  -1.26043218e+00  -1.05529500e-01  -3.03212181e-01  -8.62012858e-01  -4.03854961e-01  -1.51931435e-01   3.90695770e-01   8.87969143e-01   1.19200279e-01   5.32376831e-01   8.74199617e-02  -5.50927421e-01   1.15861287e-01  -5.28830380e-01   9.38360536e-01   6.45662634e-01  -9.47622219e-01   1.29020190e+00   5.35684827e-01   7.58277442e-01   3.65540549e-01  -6.51976595e-01  -9.95732185e-01  -2.10386535e-01  -1.83689454e-01  -6.44639492e-02  -9.11870573e-02   5.76925643e-01  -6.21077786e-01  -2.69314196e-01  -4.42760454e-01  -2.35105728e-01  -7.96744660e-01  -1.17625167e+00  -2.85570767e-01   3.51579459e-01  -6.46125827e-01   2.18535049e-01  -7.70685743e-02  -4.16924536e-01   2.98185692e-01   2.80941745e-01   2.21384011e-01   9.24300246e-02  -6.90731640e-02  -6.60172934e-02  -1.65826808e-01  -1.60741951e-01   5.76010488e-01   2.59336194e-01  -4.85932642e-01   4.18034544e-01  -5.71990967e-01   5.85225070e-01  -2.42934327e-01  -3.98213893e-01  -3.14591362e-01   4.73267786e-01   7.20354920e-01  -8.28367260e-01  -4.98257946e-01   1.33948224e-01  -2.70176797e-01  -2.05279454e-01  -2.53661963e-02   3.26320659e-01   5.10782534e-01  -4.06337638e-01  -9.82488079e-01  -2.58776241e-01   3.01138394e-01  -4.19433998e-01  -3.02542354e-01   7.25035813e-02   9.39107957e-01  -4.97820899e-02  -2.26658750e-01  -4.24247146e-02  -3.08723842e-01   6.38711720e-01  -1.92526254e-02  -5.99424308e-01  -6.23469535e-01   2.97972501e-01  -5.08196698e-03  -4.01691255e-01   3.77701437e-01   5.31515876e-01   4.08031595e-01  -1.11263732e+00   1.06886582e+00   4.97643958e-02  -7.53054330e-01   3.21379646e-01  -2.47787937e-01  -4.12518099e-01  -7.99112476e-01   3.12972246e-01  -1.06665379e+00  -3.03472971e-02  -6.59848492e-01   3.36394997e-01  -2.30179545e-01  -5.80432310e-02   5.38859749e-02  -6.22420411e-01   8.03898296e-02   8.65741582e-01  -1.65900148e-01   1.01227213e+00   2.65203921e-01   2.58569269e-01  -1.37994901e-01  -4.56523587e-01   4.48268909e-01   4.22533775e-01  -1.92667421e-01   4.85927481e-01   6.12527683e-01  -1.85875831e-01   6.30314013e-01   5.71002023e-01   7.01001467e-01  -1.18840204e-01  -4.82058542e-01  -1.02869468e+00  -5.26297972e-03   8.11295133e-02  -2.61533694e-01  -5.21320478e-01  -8.57947046e-01   1.45433876e-02  -6.85258478e-01   6.47969478e-02  -3.17349577e-01  -3.26685202e-01  -9.95991744e-01  -6.74460257e-01  -1.05924366e-01   1.09438806e+00  -6.33659992e-02   3.52357107e-02   1.11828063e-01   1.21418929e-01  -8.07641544e-01  -4.33182484e-01  -6.71160298e-01  -7.98215688e-01  -8.68213784e-01  -2.22175736e-01  -1.73310261e-01  -5.48128181e-01  -1.54866623e-01  -8.85240252e-01   5.33956395e-01   5.43488560e-01  -8.00984447e-01   4.78890985e-01  -9.67219981e-01   6.57281187e-01   2.95997028e-01   3.46291877e-02   7.35098056e-01   4.30922874e-01  -2.24544625e-01  -8.07534374e-01  -7.67235818e-02   7.13373098e-02   5.58845163e-01  -5.55290486e-01   2.04017236e-01  -4.64922695e-01  -2.42513366e-01  -4.76078566e-01  -1.79872066e-01   1.58152792e-01   5.65313926e-01   4.42327481e-02   3.20056913e-01  -1.09457179e-01  -1.09580718e+00  -7.07462762e-03  -2.83684071e-01  -5.23197464e-01  -3.97783740e-01   3.94372312e-01  -6.91422526e-01  -1.25033344e+00  -7.70322739e-01  -3.31420383e-01   3.94938748e-01  -2.79133662e-01  -6.45613132e-01  -7.32545718e-01  -6.10079476e-01  -6.78727714e-01   1.10956066e-01   3.82923024e-01  -9.17451396e-01  -2.39855259e-02   2.29762261e-02   9.67920075e-01   3.02576474e-02  -3.17978148e-01   5.16465087e-01   1.00770829e-01   4.82187053e-01  -2.67476315e-01  -2.10608656e-01   2.50777686e-01  -2.30737293e-02  -2.29489419e-01   5.23306846e-01  -6.10065324e-02  -2.48465101e-01  -3.47074380e-01  -1.15939783e-01   5.53886724e-01  -1.23552713e-01  -4.26083664e-02   2.48141869e-02  -6.73988454e-02   1.79460711e-01  -9.65740775e-01  -1.21055858e-01  -7.50029102e-02  -2.26941322e-01   6.12456278e-02  -3.86990652e-01  -5.45083104e-01  -6.01957228e-01   2.98852410e-01  -6.42575412e-01   1.57108560e-01   7.17385090e-01  -2.10071687e-01   4.87947709e-01  -1.43804480e+00   1.00121258e+00  -1.02320487e-01   4.73368660e-01  -2.19352256e-01  -2.62868457e-01  -5.64163463e-02  -3.43572038e-01  -1.53458445e-01  -1.74059142e-01  -4.36076568e-01   6.70483203e-01  -2.12251554e-01   1.85237509e-02  -1.04539732e+00   3.35068862e-01  -1.27845739e-01   2.95216920e-01   4.68506912e-01  -6.19087711e-01  -4.85689861e-02   4.32812147e-01   5.45081860e-02   5.78376164e-01   4.77566292e-02  -5.83403373e-01  -1.43206406e-02   2.27929603e-01   3.51985399e-01   1.43679120e-01  -1.03932671e-01  -1.12876296e+00  -2.57585484e-01   2.78564472e-02  -1.12767572e-02  -6.21103454e-01   2.32094476e-01  -1.99804586e-01  -3.94390122e-01  -2.96013786e-01  -4.33439259e-01  -2.22080810e-01   3.12369984e-02   8.00508280e-02  -4.39380572e-01   1.27811683e-01   4.53068937e-01   2.64913900e-01  -3.93551084e-01   1.26761386e+00   6.59243454e-01   6.27604789e-01   5.50086928e-01   1.23052381e+00  -8.98123779e-01  -2.72543547e-01   8.93472617e-02  -1.55122761e-01   3.75673950e-01  -9.40652041e-02   4.80745854e-01   6.42289702e-01  -9.24305764e-01   1.47039650e-01  -5.17448196e-01   5.41201573e-01   4.67075611e-01  -2.86161838e-01  -1.47149043e-01  -2.84545612e-01  -1.50686284e-01   2.81967099e-01   3.49992383e-01  -4.52119974e-01   1.03105891e+00  -8.00229520e-01  -5.01425100e-01   1.04349056e+00   4.29542223e-01  -5.37965157e-01  -6.87872776e-01  -1.48309466e-01   8.12635488e-01   2.91077698e-01   1.45825182e-01   4.50816575e-01   2.68049650e-02  -1.15944375e+00  -5.15790528e-01   2.66585629e-01   9.61767797e-02   6.41459751e-01  -3.90641482e-01  -6.44508688e-01   2.05465063e-01   3.32997359e-01   4.66939136e-02   1.95897705e-01   5.90211987e-01   4.01684438e-01  -1.38260075e-02   1.70551257e-01  -6.97412047e-01  -1.14490533e+00   9.12394750e-01   1.97030218e-01  -2.93092905e-01  -1.09391070e-01  -2.54523235e-01   5.85005979e-03  -4.09169199e-01   2.41594844e-01  -6.74504302e-01   3.92627293e-01  -4.20821313e-01  -2.77779714e-01   5.18310017e-01   4.75920665e-01  -9.75390448e-02   1.54195390e+00   4.83268545e-01   5.07609316e-01   4.06560931e-01   3.63231561e-01   5.52623870e-01  -4.39615920e-01   8.12305520e-01  -2.88984967e-01  -5.93097425e-01  -9.35026913e-01  -5.52778602e-01  -1.39813640e-02  -2.43764589e-01  -1.76846618e-01  -9.64579488e-02  -3.38342163e-01  -1.54892504e+00  -4.16814580e-01   6.78934525e-01  -1.77977474e-01  -7.97374083e-01  -1.17900095e-01   1.52590553e-02  -1.34799989e-01   2.27137169e-01   8.77158632e-01  -3.24137489e-01   3.55637319e-01  -9.09251002e-01  -1.66231080e-01  -7.12104912e-01  -6.14258410e-01  -1.46720577e-01  -5.36820681e-01  -4.83137465e-01   8.17512233e-04   1.62486567e-01  -3.00699654e-01  -9.52570065e-03   7.90691857e-01   3.40089056e-01  -1.68617107e-01  -3.15040549e-01  -3.32737577e-01  -7.45556574e-01  -9.21448985e-02  -1.02243810e+00  -1.21938982e-01  -5.21205679e-01   2.98734683e-01   1.12682493e-01   1.04480935e+00   7.02762317e-01  -6.50272779e-01   4.51155637e-01  -3.36998347e-01  -5.12145172e-01  -2.25464320e-01  -5.64803093e-01   1.20884524e-01   5.15992324e-01  -5.14978040e-01   2.46261995e-01   2.48506810e-01   6.14587506e-01   8.21348449e-01  -1.37459678e+00  -5.89280296e-01   1.61860291e-01   2.29649190e-02   2.02834698e-01   1.88229109e-01   1.14702221e+00   2.42006593e-01  -4.35751127e-01  -9.90935402e-01  -2.74824913e-01  -2.73600159e-01   2.58991590e-01   7.89909432e-01   5.86327864e-01  -3.38549992e-01   1.08041559e-01  -6.18900142e-01  -5.66483501e-02  -7.68178920e-01  -3.39414478e-01  -2.43636579e-01   7.55557531e-02  -9.93148089e-01   4.88995462e-02  -5.31937079e-01   4.74884862e-01   5.07624838e-01  -1.25513816e+00   4.32278171e-01  -5.16964755e-01   5.27981817e-01   5.22358051e-01  -1.69935631e-01  -4.30011200e-01  -1.01688380e+00  -6.65259456e-02   6.64706184e-01  -1.83629272e-01  -2.87239882e-01  -1.03973550e-02  -3.96803492e-01  -3.46874565e-01   1.12110988e-02  -1.01759288e+00   8.87225179e-01  -4.31023167e-01  -7.98155900e-01  -6.47001440e-01   4.63146627e-01  -3.67071952e-01  -6.45918598e-01   3.95859138e-01  -1.39415046e-01   7.38493757e-02   7.10303382e-01  -2.17775797e-01   2.75259548e-02   7.05215272e-01   8.69065861e-01  -8.05272065e-01  -1.07816924e+00  -8.67317880e-02   5.39425558e-01  -3.26065715e-01   7.07547765e-01  -7.75930104e-01  -3.03762416e-01  -4.84553301e-01  -4.10283259e-01  -3.19805124e-01  -6.43297824e-01  -6.28444805e-01   1.35092792e+00  -5.03775523e-02  -8.96039858e-01  -7.16794618e-02  -1.20523039e-01   2.60210585e-01  -2.48378452e-01  -1.30285343e-01  -6.85125281e-01   5.09658552e-01   1.44778800e-01   1.64094755e-01  -9.87028314e-02  -4.85155046e-01  -3.77451644e-01  -2.25233388e-01  -8.35404810e-02  -1.02939888e+00   6.81791229e-02   1.00988608e+00   6.23302719e-01  -9.78580998e-02  -3.23945412e-02  -2.25959962e-01  -4.26605258e-01   1.67573882e-01   3.06406705e-01  -1.09202802e-01   9.72679450e-01  -1.07361707e-01   6.58620845e-01  -2.17828885e-01   3.71783806e-01   8.81285848e-01   9.93194127e-01  -6.99215032e-01   2.63819589e-01   4.07348693e-01  -3.91594066e-01   1.87674870e-01  -4.02266421e-01  -4.70361435e-01  -3.86438097e-01  -4.34262562e-01  -4.92626915e-01   9.48676995e-02  -1.08755074e-01   1.24959680e-01  -2.15154061e-01   8.73213658e-01  -1.21649516e-01  -4.17253633e-01  -8.26210872e-01  -1.13540527e+00   3.73771118e-01  -4.15206058e-01  -4.63982472e-01  -4.73106003e-02  -5.49512533e-02  -7.38137504e-01  -3.91320168e-01  -3.93684339e-02  -1.96484693e-01   4.45488496e-02  -9.79407077e-01  -1.38378738e-01   5.58522320e-05  -3.49399125e-01   2.26269753e-01  -2.36659055e-01   1.58600044e-01  -8.66828411e-01   7.83371850e-01   4.33097737e-01   4.45003646e-01   3.71046443e-01  -7.17180293e-01  -1.05686512e+00  -7.50562451e-01  -1.25176382e-01   9.82050711e-01   2.91981664e-01   4.26164213e-02  -6.11822274e-02  -8.81750098e-01   8.03157558e-01  -6.23419634e-03   4.08957375e-01  -3.40011414e-01   4.06743865e-01  -8.63636600e-02   1.92202599e-01  -7.23542093e-01  -6.31611145e-01  -6.82981232e-01   4.36838033e-01   1.09405598e+00  -1.21251012e-01  -1.08678754e+00   8.00671960e-01  -1.15943009e+00   5.08998834e-01   7.64135658e-02   8.25534238e-01   9.02340864e-01  -4.31299134e-01   6.25616696e-01  -7.76633604e-01   1.47784046e-01  -9.31526650e-01  -2.13165739e-01   1.18877791e-01   3.26448751e-01  -8.54298442e-01   9.96767668e-01  -3.71130231e-01  -6.89213940e-01  -3.67542749e-01  -1.10080135e+00  -5.12129116e-01  -1.34782988e-01   5.36172433e-01  -2.67675793e-01  -1.41181658e+00   3.35868425e-01   1.59841544e-03   1.14961940e+00   5.39152232e-01   2.51550246e-01  -5.40200963e-01  -4.04382521e-01  -3.61528953e-01   8.93546579e-01  -1.72469826e-01   1.31735962e-01   4.20163310e-01  -5.39472410e-01   1.43158606e-01  -2.22647559e-01  -7.97972946e-02  -4.44193283e-01  -7.97963136e-01   2.99621112e-01  -1.05559182e-01  -1.74990986e-01  -1.41639459e-01  -2.96085469e-01  -5.04857554e-01  -1.83451964e-01   5.74439523e-01   2.29870940e-02  -1.23640457e-01   8.33926708e-02  -2.76557597e-01   5.70016478e-01  -2.17797094e-01   2.27737588e-02  -4.69598542e-01  -1.96717617e-01  -5.70808739e-02   7.25666542e-02   2.96200443e-01   3.20773148e-01   4.27715804e-02  -3.11336443e-01   1.53501979e-01  -3.02854419e-02  -4.31247562e-02   4.95982091e-02  -2.25185669e-01   3.36359825e-01  -3.09616400e-01  -1.87986858e-01  -5.12988735e-01  -2.07318794e-01  -5.74607920e-01  -1.03014357e-01   6.91974109e-01  -3.16715006e-01   6.44452286e-01   8.47018985e-03  -6.32719076e-01   4.06429277e-02   6.28241619e-01  -4.13224696e-02   2.99421214e-01   2.03440644e-01   1.08336046e-01   2.74026867e-02   1.23831334e-01  -4.96053071e-01   4.77940716e-01  -1.90489799e-01  -1.74416490e-01  -5.30969825e-01   1.76301410e-01   4.99038096e-02   2.83381843e-01  -7.40947163e-02  -1.11682916e+00  -9.12525649e-01   6.97199964e-02  -1.12571759e-01  -5.06859446e-01   7.24779330e-02   6.19435578e-01  -5.02423587e-02   8.11621899e-02  -1.12699054e-01   4.89341588e-01  -1.92539169e-01   3.20734765e-01   7.98887716e-02   1.93975561e-01  -4.05955162e-01   1.95954882e-01   8.54192275e-02  -4.35432655e-01  -4.37938137e-01   1.76732581e-01  -1.63987039e-01   1.85968649e-01  -6.51727041e-02   9.68843257e-01  -3.10113750e-01  -4.88467807e-03  -7.43198491e-01  -8.02607644e-02  -1.37305458e-01  -2.14016130e-01   5.64073614e-01  -1.21838120e-01  -7.88177739e-02   1.28517818e-01  -1.18638766e-01   1.80962249e-01  -1.16268922e-01   3.20307593e-02  -5.88597926e-01   2.56749149e-01   1.97268265e-01  -8.37331495e-01  -1.73067647e-01  -4.73063820e-02  -5.57226105e-01  -3.30637897e-01  -3.10044144e-02  -1.35759882e-01  -2.01487394e-01  -4.91567180e-01   1.06386881e+00   2.33868763e-02   6.13839634e-01  -3.30223244e-01   9.47578831e-02   1.03885635e-01  -2.68721639e-01  -5.70193262e-01  -3.49675054e-02  -1.62340618e-01   8.31969110e-02  -8.14360972e-01  -4.35901005e-02   6.26210134e-01  -4.82170988e-01  -9.97428320e-02  -6.87472470e-01   7.18563913e-02   9.34693301e-02   5.07179502e-01  -8.70769398e-02   9.65534074e-01   2.13659418e-03  -2.83497803e-01  -2.98556292e-01   5.37460642e-02  -1.56062711e-01   1.15685833e-01  -1.17345680e-01  -3.62327876e-01   4.05640556e-01   8.04278985e-02   7.21537806e-02  -3.72057066e-01   4.52141941e-02   2.37449380e-01   3.19636965e-01  -6.71817795e-01   4.18249267e-01   3.07895475e-01  -3.09760348e-01   4.36999436e-02  -1.63725766e-01   4.87056460e-03  -5.47011793e-01  -8.12371087e-01   3.55108489e-02   3.41785641e-01   4.87753142e-02  -3.27267945e-02  -3.53770496e-01  -2.01817629e-01   3.17506478e-01   3.84353223e-01  -1.25753317e-02   7.50093123e-02  -1.85035609e-01   3.44564309e-01   3.14404431e-01   3.23708924e-01  -1.65277948e-01  -3.24400803e-01  -7.03765743e-01  -3.68066169e-01   1.03164764e-01   4.46185184e-01  -1.04946290e-01  -3.35830661e-01  -5.08333825e-01  -5.01010122e-01   4.67207594e-02   1.63993090e-01  -2.70753944e-01  -3.47250759e-01   2.62441873e-01   1.48330688e-01  -8.30142720e-02  -1.36975034e-01  -2.56611006e-01  -5.03644226e-01  -4.76368038e-02   3.21778972e-01   2.46206585e-01  -1.24316911e-01  -3.33119922e-01   1.62099732e-01   7.61892827e-01   1.65018879e-01  -4.28805242e-01   2.25699159e-01   2.35112614e-01  -1.14451622e+00   1.19277552e+00  -5.01679736e-01  -1.56782770e-01   2.96517341e-01  -1.46605479e-01  -6.79266889e-01   2.13427877e-01   1.24337166e+00  -4.81424823e-01   3.02150424e-01   1.35802817e-02   1.67832321e-01   1.50837603e-01  -2.88757434e-01   2.23956312e-01   4.18710190e-01  -5.80821832e-01   5.32132178e-01   5.61399395e-01   1.86674169e-01   3.99186499e-01   2.52239203e-01   8.14286979e-01  -2.20698539e-01   9.19093140e-01  -1.79946628e-01   1.01664453e+00  -6.42503941e-01  -2.12389057e-01   1.34753126e-01   1.53668882e-01   8.17020750e-01   2.10310255e-01   1.56069251e-01   3.59623642e-01  -9.61430117e-02  -1.38326493e-01  -6.48044219e-02   6.23053353e-02   1.27871102e-01   6.31629618e-01  -5.60448201e-02   1.72132518e-02  -1.13604211e-02   1.47203980e+00  -1.16622812e+00   2.69861541e-01  -3.36887244e-01   6.86041827e-01   4.15517254e-01   5.83562020e-01  -6.56986339e-01  -9.54015575e-01   1.21784643e+00   3.61924015e-01   1.00465011e+00  -8.44797651e-01  -6.39020676e-01  -4.56105226e-01   2.53566893e-01   6.48670213e-02  -4.17575081e-01  -4.09680900e-01  -1.35431511e+00   1.16517739e-01  -4.71937746e-01  -1.40109065e+00   4.61147615e-01  -7.08744456e-01   5.61551591e-01  -3.58209294e-01   6.76180376e-02   6.15201104e-01   5.66212216e-01  -5.73607068e-01  -1.85002739e-01   5.11366144e-01   1.89406139e-01   2.12441170e-01  -9.12226624e-02   4.64393132e-01  -2.86961754e-02   1.30643735e+00   3.23439761e-01  -4.62440130e-01  -1.03867383e+00  -6.08296685e-01  -1.43490115e-01  -6.00111960e-01  -3.91468061e-01   2.86688875e-01  -2.93116165e-01   6.20444600e-01   1.03490804e+00   5.57106731e-02   1.83257104e-01   1.35576664e+00  -4.48662834e-01   2.23228870e-01   5.54983520e-01   6.46654678e-01   4.73551783e-01   1.00202832e-01  -4.94539366e-01  -1.38705455e-01   1.05731595e+00   3.84247857e-01   1.41522822e-01  -3.68414980e-01  -9.13407661e-01  -6.82773719e-01   6.50115318e-04   7.66124667e-02   6.52401787e-01   1.76363900e-02  -1.86661347e-01  -1.05681416e+00  -2.77380370e-01  -9.19366120e-02  -4.35515553e-01  -1.65139088e-01   2.65744037e-02  -5.26984036e-01  -1.34036603e-01   3.06172814e-01   4.04080373e-01  -7.70074200e-01   1.90641027e-01  -2.15505138e-01   3.45496838e-01  -9.59964092e-01  -1.17115781e+00   4.50483113e-01   1.44809853e-01   3.63671748e-01   9.84914050e-01  -5.03033200e-01   8.82024332e-02  -2.77509459e-01   6.71824357e-01  -5.62552302e-01   7.07786953e-01   3.52094235e-02   5.37251096e-01   3.58105667e-01  -7.47567694e-01  -5.98832091e-01  -3.22608140e-01   5.15816530e-01  -3.40630552e-01  -2.45255568e-01  -4.71833535e-02   2.02229201e-01  -4.28301680e-01  -5.72951476e-02  -1.08109363e-01  -5.81334821e-01   1.02377640e+00   1.34242683e+00   1.08956618e+00   8.51235717e-01   1.37405411e-01   3.15409623e-01  -1.26799150e+00   7.36355853e-01  -4.88093271e-01   1.11163288e+00   1.51050498e-01   2.81325824e-01   1.55836883e-01   2.52555910e+00  -5.35788866e-01  -5.24689561e-02  -1.62292223e-01  -3.75104292e-01   8.80336403e-01  -1.34346982e-02   7.37316337e-02   1.48226613e-01  -5.41381161e-02   5.71670464e-01  -2.29735734e-01  -5.78983937e-01   9.82714430e-01  -8.18163800e-01   1.98107948e-01   5.31971456e-01   2.90006356e-02   5.52807950e-01   9.54980371e-01  -8.63205221e-01   7.15759058e-01   2.87366241e-01   4.12405092e-01  -8.55908180e-01  -7.89609437e-01   4.08410116e-03   7.67493613e-01   1.97630745e+00  -7.11177920e-02   1.63450575e-01   7.82056182e-02  -5.49891624e-01  -1.71462039e-01   4.45920942e-01   9.77273247e-01  -2.93255883e-01   9.72256934e-01   5.53403811e-01   1.50092849e-01   7.81062192e-01   2.84712827e-02   2.45487088e-01  -1.37544031e+00   2.47001882e-01   7.29468798e-01  -1.45312830e+00  -4.88264674e-01  -6.74242279e-01  -1.44493538e+00  -8.61229755e-01  -9.89118208e-01  -4.09638513e-01   2.66381749e-01   5.43162241e-01  -2.61694890e-01  -9.29390367e-01  -3.51709431e-01  -5.64433282e-01   2.33704428e-01  -5.46956910e-01   1.95148120e-01  -6.18715800e-01   1.38108075e-01  -1.50948597e-01   7.93634853e-01  -1.76699536e-01   9.21317420e-01   7.75128563e-01   4.63471379e-01   6.72117025e-01   1.86934021e-01  -1.49612009e-01   2.38771259e-01   1.65035314e-01  -4.09093110e-01   5.68007241e-01  -9.78843655e-01   7.71574514e-01  -3.96034581e-01   3.36240025e-01   2.29895497e-01  -1.24655787e+00   3.28208391e-01  -4.50779886e-01  -3.06369321e-01  -1.31669730e+00  -5.30496388e-01  -2.25697194e-01   4.36012288e-01   1.18698233e-01  -3.32076289e-01  -5.29354378e-01  -1.23877123e+00  -9.30756565e-02  -1.06041959e-01   6.54062780e-02   5.65430223e-01  -1.05017037e+00  -1.54961889e-01   9.77000332e-01   4.49633742e-02   1.21312618e+00   1.26211216e-01   1.70270472e-01   1.71551223e-01  -4.87371518e-01  -1.35448296e-01  -8.56491025e-01   9.46526195e-01   1.17790457e+00   6.34021215e-01   3.42263612e-01  -8.64525823e-01   1.20306367e-01  -2.99922738e-01  -8.69083672e-01   3.64997709e-01   2.93665412e-01   1.90436386e-01  -2.12993621e-01  -4.24827825e-01   1.99067692e-01  -3.06593852e-01  -1.15120364e+00  -4.21739331e-01  -4.90249043e-01   3.69982368e-01  -4.71928172e-01   3.34240579e-01  -2.70998243e-01  -2.71612218e-01  -7.02423872e-01   2.76943083e-02   4.73199550e-01  -1.79260839e-02   1.15887372e-01  -8.41575112e-02  -2.40897568e-01  -6.61380686e-02  -8.49803426e-01   9.40844686e-01   4.35040888e-01   1.40329344e+00   1.52671149e-01   3.47748950e-01   4.49526777e-01  -2.27487056e-01   5.08207223e-01   1.69851483e+00  -4.89548904e-02   9.47796305e-01   1.00188704e+00  -8.56518172e-01  -1.10032780e+00   4.17411969e-01  -3.03665116e-01   3.33452817e-01  -2.03924781e-01  -1.29585009e+00  -9.70988749e-01   3.96588179e-01  -2.15819902e-01  -3.36780483e-01  -8.17025719e-01   2.60719870e-01   8.00627922e-02  -2.84777519e-01   2.23642946e-01   5.25740010e-01  -2.71810030e-01  -3.28192905e-01   2.88608520e-01   2.21348754e+00   7.92000039e-02  -6.48167251e-02   1.19953736e-01  -1.10521258e+00  -7.43218049e-02   3.74424426e-01  -6.01359181e-01  -6.33657727e-02   6.86659716e-01  -3.78788716e-01   2.34171939e-01  -3.02145727e-01  -4.00041028e-01  -6.54055463e-01   4.28319160e-01  -5.38149253e-01  -3.24551549e-01  -3.06521818e-02   1.99808261e-01  -3.77729688e-01  -7.56118953e-01  -3.84802744e-01   9.43539771e-02  -8.37500799e-01  -3.29641388e-01   8.59850393e-01   4.33654841e-02  -3.05060565e-01  -1.88088183e-02   4.16282815e-01  -6.34839483e-01  -9.38042621e-01  -4.18394247e-01  -9.67331467e-02  -1.30289599e+00   1.99786817e-01   7.22223613e-01   2.03261264e-01   1.01398106e+00  -7.37789242e-01   5.23614590e-01  -6.71436843e-01  -4.78530203e-02   9.22573507e-01   2.18994820e-01   9.94618539e-01  -2.69011922e-01  -1.24927335e+00  -1.47209470e-01  -1.33585406e-01   8.12656724e-01   4.64845935e-01  -8.05458920e-02  -3.97768821e-01   1.29042179e+00   5.39045821e-02   3.97267400e-01  -9.17409924e-02  -8.01634494e-01  -2.87592043e-01   2.83580673e-01   7.88551021e-02  -2.62340988e-01  -5.28969615e-01  -5.58412217e-01  -9.59706787e-01   2.26873476e-01  -1.10264731e+00  -1.02871397e+00   1.91088243e-01  -4.98940908e-01   1.85223218e-01  -4.91237698e-01   1.00465740e+00  -4.08248304e-01   8.81072942e-01  -1.08338229e+00   5.07767624e-01  -5.50696748e-01  -2.84748665e-01  -4.09328392e-01   1.09808950e+00   7.13954315e-01   5.32908629e-02  -9.54213860e-02   3.47675832e-01   3.84150170e-01  -1.07512262e-01   3.00396910e-01   4.44115941e-01  -2.80388930e-02   7.00077807e-01  -1.06217359e+00   1.16227596e+00   5.62336875e-01  -2.03446834e-01  -2.18721336e-01  -3.23441144e-01  -6.81389901e-01  -1.01357565e-01  -1.61974661e-01   5.54448538e-01  -6.74751933e-01   7.73886214e-02  -3.54068718e-01   2.75661834e-01  -4.69316977e-01   1.59652108e+00  -1.01144374e-01   5.42864048e-01  -8.17046544e-01   5.71648617e-02   4.97854865e-01  -5.20703334e-01  -2.19738520e-01   9.45484292e-01  -6.85031013e-01  -4.58730433e-01   1.34322560e+00  -5.09314966e-01  -3.22760512e-02  -1.26457421e-01   3.55501129e-01   1.81259741e-01  -4.99839296e-01  -2.06826419e-02   2.34985724e-01  -6.20399833e-01  -1.05593652e-01   1.74119687e-02  -5.14479846e-03   4.51719399e-01  -4.35472565e-01   9.47581191e-01   7.06112220e-01  -1.80964744e-01  -9.53324099e-01   1.12639946e+00  -2.40773329e-01  -1.18974772e+00  -6.84678551e-01   3.97803954e-03   2.06451496e-01   1.20262841e+00  -1.84739621e-02  -4.00670034e-01   8.05341915e-02  -5.85331159e-01  -1.11730191e+00   1.87306961e-01  -1.44092575e-01  -2.70637213e-01  -8.37878803e-01  -2.93218670e-01  -1.05300893e-01  -1.38699830e-01   2.74711035e-01   7.14082017e-01  -1.00852839e+00   6.20462513e-02  -5.34902818e-01  -1.19217589e+00   4.34152868e-01  -7.36569036e-01   3.11944145e-01   6.19434556e-01  -5.30921499e-02   7.36297388e-01   3.93988649e-01   4.51182026e-01  -3.85048055e-01  -1.97342708e-01   6.21742540e-01   4.45163415e-01  -3.12547353e-01  -3.86542124e-02  -4.28808396e-01   6.97823408e-01  -8.23895118e-01  -3.83382080e-01   8.16772198e-01   2.62962318e-01   1.97252413e-01  -4.64989721e-02   6.44251668e-01  -1.01171529e-01  -7.46614509e-01   4.99033328e-01   1.22734781e+00   4.21852597e-01   1.02681524e+00  -4.88251214e-01  -3.51987381e-01   8.03301946e-01  -1.07078570e+00   7.06391197e-02  -4.35779573e-01  -3.28081730e-01   8.63725760e-01  -1.30581576e+00   8.89773074e-01  -5.32264837e-01   5.03060581e-01   4.80230937e-01  -1.22866992e+00   2.87130641e-01  -4.09237570e-01   1.59360014e-01   2.11819876e-01   9.54217162e-01  -3.32661281e-02   3.17855020e-01  -3.43842144e-01  -1.93036074e-01   4.88559326e-02  -1.45924409e-01  -2.16176319e+00  -2.52898880e+00  -4.64283346e-01  -8.88165637e-01  -6.73732627e-01   6.20822319e-01   1.57105144e-01  -5.73185315e-01  -7.75629258e-01  -6.09868438e-02  -7.75997484e-01   5.23358099e-01  -1.13816862e+00   9.19316013e-01   3.00311689e-01   9.31117844e-01   2.56411869e-01  -6.84334336e-02   1.67040219e-01  -2.49286104e-01   1.22170136e+00  -6.65948544e-01   5.06000838e-01   1.39525103e-01   8.31227507e-02  -1.22173506e+00   1.08031759e+00  -3.90404290e-02   7.38371220e-01   4.32618322e-01  -3.14570238e-01  -4.57560536e-01   7.23505278e-02   6.62519278e-01  -5.42570459e-01  -3.10407090e-01  -1.07606678e+00  -6.03717416e-01   1.35907027e+00   4.62541320e-01   7.94300183e-01  -5.73144825e-01  -1.89549547e-01  -2.46571624e-01  -2.69758965e-01   3.69158896e-01   1.14784879e+00   2.42043578e-01   8.60462346e-01  -8.33990290e-01   4.85369624e-01  -4.83121096e-01   1.46537708e-01  -5.50238924e-01  -4.94518151e-01   4.84199178e-01   2.60961738e-01   2.68804607e-01  -1.40298230e-01  -8.43050339e-01  -9.62691026e-01   5.31532197e-01   4.67258178e-01   4.87123963e-01  -9.63113333e-01   5.88990427e-01  -3.05806021e-01   7.55719632e-01  -5.71362644e-01  -1.39644842e-01   5.75952030e-01   4.62390894e-02  -4.66219980e-02   3.28759742e-01  -8.44601135e-01  -2.63696659e-01  -8.09152028e-01   2.59415685e-01   3.85887144e-01  -1.13967902e-03  -9.70782726e-02   2.97549394e-01  -9.62770503e-01   6.28434109e-01  -3.48911785e-01  -2.97125866e-01   6.17662180e-01  -1.67147155e-01   1.57457859e-01  -5.25704700e-01   2.47706144e-01   1.11086766e-01  -3.11234993e-01  -1.19163008e-01  -4.78104466e-02   5.83265464e-01  -5.10330335e-01  -5.01301254e-01   5.35948517e-01  -5.27255918e-02  -1.83735672e-01  -7.93582497e-02  -1.33393011e+00  -4.27377422e-01  -8.78101882e-01   4.77018088e-01   1.95895431e-01   9.92769546e-03  -8.00741818e-01  -2.52027248e-01  -4.80666071e-01   3.10196385e-02   6.36557637e-01   2.75553740e-01  -3.25408863e-01   4.87874505e-02   6.19376190e-02  -6.56700247e-03  -2.92935293e-01  -7.43748956e-01  -3.43084572e-01  -2.26131184e-01  -2.73890063e-01  -3.69594323e-01   7.82324062e-02   1.91888508e-01   1.05290903e+00   4.09011813e-01   1.89780638e-01  -1.26386615e-01  -1.18268622e+00   4.70825768e-01  -3.26470981e-01  -1.24375899e+00   6.41948940e-01  -3.51324674e-01  -5.10898570e-01   1.00706480e+00   3.08019694e-01  -2.24251752e-01   2.59382518e-01   1.80947352e-01  -4.95428389e-02  -1.98352540e-01  -1.00320209e+00  -1.91414925e-01   1.81990428e-02  -6.77114416e-01  -1.08541384e+00  -3.15775990e-01   3.66894120e-01  -3.13540834e-01  -8.78577511e-02  -2.47647288e-01  -1.51430521e-01  -6.66542811e-01   9.38569651e-01  -3.93070364e-01   5.62774081e-01   1.01635181e-02   9.37676695e-01   9.64874911e-02  -8.12087920e-01   3.75319953e-01   3.76129643e-01  -6.77162392e-01  -4.22955750e-01   8.19244970e-01  -2.15423389e-01   5.81408112e-01  -8.39301719e-02  -1.20839824e-01  -5.04751307e-01   5.02786092e-01  -1.04900305e+00   1.21457318e+00   1.74516794e-01   2.03951875e-01  -8.92943257e-01  -3.40386552e-01   7.72941236e-01  -2.50430002e-01   1.21761813e-01   6.25409331e-01  -3.02508226e-01  -4.91061769e-01   3.74121548e-01   8.05151645e-01  -8.85532157e-02   2.89199182e-01   2.26543663e-01   3.26664260e-03   5.25940576e-01  -2.66423983e-03   9.01858596e-01   3.95226166e-01   3.43428699e-01  -6.11066590e-01   7.85836083e-01   2.68486688e-01   1.42937600e-01  -1.61140404e+00   4.99312185e-01  -3.60645906e-01  -6.38091770e-02   9.72645930e-01   6.03427507e-01   2.43443834e-03  -4.63337995e-01  -3.86787584e-01   5.90212617e-01  -1.22683488e+00   7.74749300e-01  -6.27944803e-01   1.55420787e-01   1.29802999e+00   6.99393269e-01  -1.22723756e+00  -8.03814668e-01   3.03647986e-01   1.82948429e-01  -6.62561592e-01  -3.64207311e-01   7.59309012e-01  -2.12287655e-01   5.24109334e-02  -5.81696526e-01   8.66395991e-02  -1.86752779e-02   4.89743196e-01  -4.30017814e-02  -1.08504738e+00  -1.98665277e-01   1.06553039e-01   1.19089710e-01  -5.13471197e-01   2.10556673e-01  -2.40411408e-02  -4.57450555e-01   4.58072844e-01  -6.80935491e-01   4.66391939e-01  -1.66344070e+00   3.41040495e-01  -3.40177592e-01   9.10860417e-01   6.76476697e-01  -7.74528674e-01   3.69454397e-01  -9.01710108e-01  -3.46522659e-01   2.21879462e-01   3.49376421e-01  -2.00107453e-01  -2.21727318e-01   6.99492515e-01   2.71257989e-02  -2.76523036e-01  -1.56675069e-01   1.32189974e+00   5.14040806e-02   1.47574102e-01  -5.14832340e-01   1.26475954e-01  -4.01245704e-01   2.89997289e-01  -3.16796608e-02   2.98576755e-01  -4.25521887e-01   9.33367514e-01   6.34695280e-01   2.89905882e-01  -2.93018759e-01   4.04552236e-01  -1.18281857e-01  -6.24359080e-02  -1.46536208e-01   3.68537462e-01  -3.97570790e-01  -2.13060632e-01  -2.17601270e-01   3.95631485e-01   6.80055374e-01   5.39445278e-01   2.27814875e-02  -4.25224262e-01  -3.62393361e-01  -7.34740104e-01  -3.38069051e-01   2.96091714e-01   1.55180662e+00  -4.57432306e-01  -3.63833213e-01  -1.30718322e+00   6.10565441e-02  -1.49644924e-01   4.51553374e-03  -5.50536745e-01  -5.24315176e-01   1.18581360e-01   4.29601561e-01  -1.83723566e-01  -9.11297498e-01   7.85332620e-01  -3.21075171e-01   1.05220175e-01   1.14874940e+00   5.30458684e-01  -4.88586077e-01   4.19813764e-01   5.94153018e-02  -9.86193964e-02  -4.46091767e-02   7.04772979e-01   2.44800480e-01  -7.06109479e-01  -2.71987587e-01  -1.09024710e+00  -3.52189749e-01   8.12804737e-01  -2.89801234e-01   1.50665265e-01  -2.46797085e-01   9.64933092e-01  -1.10759008e+00   1.46764081e-01  -1.03529269e+00   1.04556815e+00   7.34254947e-01   3.14027406e-01  -3.49866229e-01  -8.43063964e-01  -1.00202120e+00   5.17072848e-01   5.39589111e-01   8.44824205e-02  -4.01478836e-01  -1.13794038e+00  -7.45028323e-01   1.41494532e-01  -7.52943488e-01   2.86569745e-01  -4.98266799e-01   3.78833019e-01  -3.00928572e-02  -7.67629689e-01   5.52344517e-01  -1.29396908e-01   9.68862856e-01   5.59859237e-01  -3.87647774e-01  -4.59652883e-01  -8.66929459e-01   7.11655923e-01  -1.68265694e-01   3.37293572e-01   1.49735164e-01   3.74778708e-01   1.41796185e-01   1.53607898e-01   4.46770445e-02   8.15063586e-01  -2.79216288e-01  -1.29412409e+00   1.68970094e-01   5.58051443e-02   4.90588031e-04  -6.22903166e-01  -2.80464732e-01  -1.70964529e-01   4.51293458e-01  -1.15846451e-01  -7.53325582e-01   5.57638911e-01  -8.97475335e-01   5.11186224e-01  -9.00586476e-01  -5.67876954e-01  -7.85305982e-01  -1.68967915e+00   9.11297239e-01  -1.18706245e+00  -8.90486434e-01  -1.13463269e-01   1.59824174e-01  -4.00161954e-01   7.36324846e-01  -4.37520503e-01   7.51680503e-01  -4.32147108e-01   1.63392304e-01  -1.68370810e-01  -2.49505804e-01  -8.20750609e-01   2.14323218e-01   1.34706568e-01   9.00752098e-01  -8.45229189e-01  -4.00069454e-01   8.55860420e-01   1.09637664e+00  -1.57139381e-01   4.45564108e-01   6.71774726e-01  -1.38488041e-02  -6.24949565e-01  -7.69390167e-01  -1.98900689e-01  -1.44565813e+00  -1.41443300e-01   3.23258435e-01  -1.40444377e-01   1.29598733e-01   1.85913195e-01  -1.27698721e+00  -1.34608896e+00   7.12957005e-02   5.83097420e-01   2.79069504e-01  -3.66596379e-02  -2.66222594e-01  -6.65425398e-01  -1.47427975e-01   7.72956673e-01   7.50165719e-01  -2.46178456e-01   5.77623672e-01  -2.92843011e-01   8.83922101e-01   3.09719704e-01   4.96107236e-01  -3.15371777e-01   1.22018216e+00  -3.01121578e-01  -1.30918284e+00   4.59967825e-01  -4.70383965e-01   6.40298500e-01  -7.49008610e-01   6.66139046e-01  -9.12228864e-01  -1.20165277e+00   1.24884549e-01   7.64114164e-01   2.65030069e-01   1.28439745e-01  -8.68076178e-01   1.74837826e-01  -2.43181138e-01   5.60897260e-02   1.72368504e-01  -8.69334738e-01  -1.96623958e-01   1.40340112e+00  -3.01069641e-01  -1.00333258e+00  -6.33303109e-01   9.51573978e-01  -8.96828196e-01  -1.41739517e-01  -1.27497886e-01  -9.75271704e-02  -8.37770870e-01   3.42895738e-01   5.69933724e-01  -2.04403505e-01  -1.50575210e-01  -5.43425849e-01  -2.59940400e-02   4.08126944e-01  -6.32213816e-01  -8.12844124e-02   2.44374110e-02  -3.32025052e-01  -3.91792552e-01  -6.35168026e-01  -1.16721050e+00   6.02541314e-01   7.99996693e-02   8.68224300e-02   3.01224370e-01   2.65899695e-01   6.92749159e-01   2.03983826e-01   5.92538058e-01  -9.11537261e-01  -3.51745088e-01   2.98027094e-01   6.94082106e-01  -5.65066424e-01  -8.65025957e-01  -1.38688870e+00   1.04109612e+00  -3.10164958e-01   1.85183153e-01   1.93768083e-01   6.33149342e-01  -7.07451383e-01  -6.58505362e-01   2.02362471e-01  -6.72882266e-01  -8.23564769e-01  -1.38024716e-01  -6.10919296e-01  -4.26171928e-01  -4.99608195e-01  -5.81076561e-01  -4.01230293e-01  -2.75185177e-01  -3.67591764e-01   6.06363244e-01  -4.15442037e-02  -5.02073891e-01  -1.02464820e-01   1.16234745e-01  -4.64924219e-01   8.91382008e-01  -1.64500644e-01   7.08597433e-01   3.34628142e-01   6.42275484e-01   1.17514529e+00  -6.32502756e-01  -2.21652831e-01  -3.18981679e-01  -3.76662964e-01  -7.92232330e-01   2.62189214e-01  -6.62768900e-01  -3.76968305e-01  -1.68321713e-01   6.33269988e-01   1.94866759e-01  -1.07658898e+00   2.77476634e-01   1.09310914e-01  -7.69913439e-01  -1.96157428e-01   4.45014181e-01   2.79661164e-01  -1.31948184e+00   4.88580853e-02  -1.36144703e+00   1.76254768e-01   4.82980753e-01   9.53068446e-02  -1.88862352e-01   2.87249507e-01   1.23153079e+00  -1.24106218e+00   8.44142336e-02   4.73437896e-01  -8.19975019e-01  -7.21338126e-01  -7.77204335e-02  -3.93069951e-01  -4.50377227e-01  -2.62523799e-01   6.06001576e-01   5.38375245e-01  -2.37476173e-01   1.33778860e+00  -1.12605336e+00   3.96330973e-01   8.13566481e-01  -6.93947902e-01   7.52000778e-02   6.41918902e-02   1.13849555e+00  